-8.961953222751617432e-02 -1.357389539480209351e-01 -1.064192280173301697e-01
-8.060826361179351807e-02 -9.173724800348281860e-02 -5.102463811635971069e-02
1.894444786012172699e-02 1.491023600101470947e-02 1.475615426898002625e-02
1.354882214218378067e-02 -9.461238048970699310e-03 -6.617752462625503540e-02
-1.568038016557693481e-02 -2.400174364447593689e-02 -2.654354274272918701e-02
-1.386382989585399628e-02 -8.938243612647056580e-03 -1.770866848528385162e-02
1.310896221548318863e-02 -3.831236436963081360e-02 1.788484863936901093e-02
5.001334007829427719e-03 -4.771417379379272461e-02 3.309047315269708633e-03
-5.919747799634933472e-02 6.715504080057144165e-02 -8.309007622301578522e-03
2.889318764209747314e-02 4.997177422046661377e-02 1.983393169939517975e-02
1.528825983405113220e-02 7.571838796138763428e-02 2.058335021138191223e-02
5.888498947024345398e-02 5.166701041162014008e-03 -1.993696019053459167e-02
-3.190808743238449097e-02 -5.551789700984954834e-02 -5.553391948342323303e-02
4.392896778881549835e-03 -1.293289940804243088e-02 7.017938792705535889e-02
4.552588332444429398e-03 7.432954758405685425e-02 1.158380694687366486e-02
-4.274231940507888794e-02 -1.827384158968925476e-02 -6.872255355119705200e-02
-2.690180204808712006e-02 -2.940539084374904633e-02 -1.417254563421010971e-03
1.662865094840526581e-02 4.204817116260528564e-02 3.586575016379356384e-02
-7.863997668027877808e-02 9.885403513908386230e-02 5.347953736782073975e-02
-4.266207665205001831e-02 8.840093761682510376e-02 9.255502372980117798e-02
1.273189205676317215e-02 -1.040195953100919724e-02 4.882239177823066711e-02
2.025385573506355286e-02 -3.008724562823772430e-02 -9.926535189151763916e-03
3.839203342795372009e-02 1.290691830217838287e-02 -2.555004134774208069e-02
5.304814502596855164e-02 4.954202845692634583e-02 2.929961308836936951e-02
7.291316520422697067e-03 1.803868450224399567e-02 -9.500408777967095375e-04
-1.084686489775776863e-03 -1.226730179041624069e-02 -2.948045264929533005e-03
-3.248717263340950012e-02 5.689577013254165649e-02 4.325614869594573975e-02
5.444397218525409698e-03 -1.952256821095943451e-02 -6.882183253765106201e-02
2.214606851339340210e-02 -5.501598864793777466e-02 -2.091731876134872437e-02
5.522406846284866333e-02 -1.792421750724315643e-02 -5.296326801180839539e-02
-4.039266146719455719e-03 3.934557735919952393e-02 2.684005163609981537e-02
5.950131453573703766e-03 -2.084567397832870483e-02 9.915720438584685326e-04
-4.244846850633621216e-02 2.079102396965026855e-02 1.423556078225374222e-02
-3.302274644374847412e-02 1.681069657206535339e-02 -5.386316217482089996e-03
8.101264014840126038e-03 1.241499092429876328e-02 -3.463231725618243217e-03
-1.619707792997360229e-02 1.003966480493545532e-02 3.211008012294769287e-02
-1.694676699116826057e-03 4.306201636791229248e-02 1.992327533662319183e-02
4.910713434219360352e-02 -2.152904681861400604e-02 4.219042882323265076e-02
-3.148457780480384827e-02 -1.273028925061225891e-02 -1.404857728630304337e-02
-5.570524185895919800e-02 -8.590725809335708618e-02 -9.720969013869762421e-03
4.729247838258743286e-02 5.368072167038917542e-02 -2.213826589286327362e-02
7.605376653373241425e-03 -6.297464668750762939e-02 2.674128336366266012e-04
-4.833498678635805845e-04 7.828949019312858582e-03 -1.378757762722671032e-03
-1.829408667981624603e-02 -4.567112028598785400e-02 1.880824007093906403e-02
-5.442409310489892960e-03 -2.080499008297920227e-02 4.381068795919418335e-02
7.955017499625682831e-03 -1.039316579699516296e-01 -1.959173679351806641e-01
4.405799508094787598e-02 -7.971733063459396362e-02 -1.050168573856353760e-01
9.325496107339859009e-02 9.936624765396118164e-02 4.390191286802291870e-02
1.748160272836685181e-02 3.452900424599647522e-02 1.103924121707677841e-02
-2.263829670846462250e-02 2.781150676310062408e-02 2.913385443389415741e-02
-2.382315695285797119e-02 -6.253977864980697632e-02 1.856542192399501801e-02
-4.159697517752647400e-02 -3.820654749870300293e-02 2.998873963952064514e-02
-4.774190112948417664e-02 2.061680518090724945e-02 2.153023332357406616e-02
2.020095288753509521e-02 6.021009385585784912e-02 7.050044089555740356e-02
-1.053151022642850876e-02 4.545576404780149460e-03 -1.383738517761230469e-01
3.400610014796257019e-02 7.181824743747711182e-02 -7.871332764625549316e-02
4.854001104831695557e-03 4.131827875971794128e-02 1.065259706228971481e-02
6.874546408653259277e-03 8.883865550160408020e-03 -7.333723362535238266e-03
-3.504857793450355530e-02 -2.431791275739669800e-02 -8.785726502537727356e-03
-5.322276055812835693e-02 -1.820603758096694946e-02 2.686284948140382767e-03
-1.956709427759051323e-03 2.155195549130439758e-02 1.798166520893573761e-02
3.355230763554573059e-02 -3.197973966598510742e-02 -2.282581850886344910e-02
9.169396944344043732e-03 3.190101683139801025e-02 -4.604865238070487976e-02
-4.524473100900650024e-02 1.390507444739341736e-02 2.440579235553741455e-02
-1.709096133708953857e-02 3.430870547890663147e-02 1.055256091058254242e-02
-1.059881038963794708e-02 2.626649662852287292e-02 7.101842761039733887e-02
-8.024244010448455811e-02 7.436037063598632812e-02 4.710027202963829041e-02
-5.359464138746261597e-02 3.520580241456627846e-03 2.122050896286964417e-02
3.511265665292739868e-02 -4.206614196300506592e-02 -5.947627499699592590e-02
-4.574445635080337524e-02 -6.853494793176651001e-02 1.679280400276184082e-02
-8.633500896394252777e-03 5.294011440128087997e-03 5.382375419139862061e-02
3.549220040440559387e-02 1.046602055430412292e-02 4.342082887887954712e-02
-2.067473251372575760e-03 4.634045809507369995e-02 -5.579669959843158722e-03
-2.323480322957038879e-03 6.316646188497543335e-02 2.109494991600513458e-02
-7.516781985759735107e-02 -2.920753695070743561e-02 -5.068759433925151825e-03
-3.374155983328819275e-02 5.613623932003974915e-02 -1.617120206356048584e-02
-3.642551973462104797e-02 1.138183176517486572e-01 1.025073528289794922e-01
2.446935325860977173e-02 8.599630743265151978e-02 2.357904426753520966e-02
-6.547792349010705948e-03 -3.333492577075958252e-02 7.708730176091194153e-03
3.133943071588873863e-03 -1.673666574060916901e-02 1.316269766539335251e-02
1.522963866591453552e-03 3.287367895245552063e-02 9.177718311548233032e-02
-1.837730524130165577e-03 4.652908444404602051e-02 -6.410775706171989441e-03
3.329402208328247070e-02 3.351124748587608337e-02 4.481527581810951233e-02
-2.647719345986843109e-02 -3.198778256773948669e-02 8.262469619512557983e-02
-4.945566877722740173e-02 -3.904965147376060486e-02 -3.798882663249969482e-02
1.093256380409002304e-02 -2.721860818564891815e-02 6.407551467418670654e-02
1.817394746467471123e-03 -1.628558337688446045e-02 2.080356515944004059e-02
-4.439966380596160889e-02 1.448569260537624359e-02 -2.075615897774696350e-02
2.727172710001468658e-02 7.554212957620620728e-02 5.433392897248268127e-02
-5.516193807125091553e-03 5.772967636585235596e-02 2.011507190763950348e-02
3.419876156840473413e-04 -5.789133533835411072e-02 -2.660794928669929504e-02
-1.815350726246833801e-02 -6.980662047863006592e-02 -5.319886654615402222e-02
-5.063386261463165283e-02 -1.129219960421323776e-02 -2.103321021422743797e-03
1.741571910679340363e-02 1.690509170293807983e-02 -8.701990358531475067e-03
-4.951508715748786926e-02 3.698319941759109497e-02 -4.150924086570739746e-02
-2.913988940417766571e-02 1.133215613663196564e-03 -6.110051181167364120e-03
3.396734967827796936e-02 2.897793427109718323e-02 -1.963311433792114258e-02
1.517120469361543655e-02 7.823583483695983887e-02 1.547683682292699814e-02
2.642042376101016998e-02 -1.222963258624076843e-02 -3.236554190516471863e-02
5.582622252404689789e-03 -3.209188207983970642e-02 3.784061968326568604e-02
-1.170951034873723984e-02 -2.248201286420226097e-03 7.498608529567718506e-02
1.358185615390539169e-02 4.195185005664825439e-02 4.344598203897476196e-02
6.079768296331167221e-03 1.581625267863273621e-02 -7.556213438510894775e-02
3.565809875726699829e-02 5.219726637005805969e-02 3.349395096302032471e-02
4.641126096248626709e-02 5.637842044234275818e-02 2.134207636117935181e-02
-1.299484446644783020e-02 3.240999951958656311e-02 4.766436666250228882e-02
-9.988496080040931702e-03 1.223205705173313618e-03 -4.446011967957019806e-03
-5.312823876738548279e-02 1.412085350602865219e-02 2.179221063852310181e-02
2.927298098802566528e-02 -3.912507370114326477e-02 7.089586555957794189e-02
-6.150883808732032776e-02 5.818358063697814941e-02 1.823440194129943848e-02
-8.730196394026279449e-03 2.940961159765720367e-02 7.725762575864791870e-02
-4.784392192959785461e-03 2.718395367264747620e-02 3.176847845315933228e-02
-5.388365243561565876e-04 -1.419861428439617157e-02 2.071793936192989349e-02
-2.699427492916584015e-02 -7.366474717855453491e-02 -2.683385647833347321e-02
-3.266219049692153931e-02 -4.868561774492263794e-02 -6.107870955020189285e-03
4.068079579155892134e-04 1.932914927601814270e-02 3.440326079726219177e-03
3.697148710489273071e-02 -2.408123947679996490e-02 -2.671891124919056892e-03
1.225791964679956436e-02 5.482979491353034973e-02 1.094109960831701756e-03
-2.998005785048007965e-02 1.075684279203414917e-01 -2.285284548997879028e-02
5.069360136985778809e-02 5.129860248416662216e-03 -6.894422322511672974e-02
1.112530380487442017e-02 -2.464406564831733704e-02 -1.499229762703180313e-02
-1.085171476006507874e-02 -1.487963274121284485e-02 2.185779390856623650e-03
3.532592905685305595e-03 7.597001641988754272e-02 -7.811912801116704941e-03
-1.597329415380954742e-02 1.453916728496551514e-02 -1.612589508295059204e-02
-8.429095149040222168e-03 4.989638924598693848e-02 3.134069591760635376e-02
-7.066874299198389053e-03 7.338736206293106079e-02 3.181675821542739868e-02
1.319752656854689121e-03 2.570417709648609161e-02 -6.460560951381921768e-03
-3.675835952162742615e-02 8.283207193017005920e-03 -3.292659670114517212e-02
3.923848643898963928e-02 2.783771045506000519e-02 5.750560015439987183e-02
9.496867656707763672e-03 2.665039151906967163e-02 -5.443476140499114990e-02
2.062851563096046448e-02 3.932153061032295227e-02 4.452473297715187073e-02
-4.948208108544349670e-03 1.165936514735221863e-02 3.397504100576043129e-03
1.305826753377914429e-02 -3.000124543905258179e-02 1.975890621542930603e-02
-1.449443306773900986e-02 -7.364344596862792969e-02 -1.871145516633987427e-02
1.678516902029514313e-02 6.218431517481803894e-02 -3.940570726990699768e-02
6.390307098627090454e-04 1.120763737708330154e-02 -4.823271930217742920e-02
2.286632172763347626e-02 1.596741378307342529e-02 3.888566512614488602e-03
-7.973195053637027740e-03 -9.677527844905853271e-02 -1.520239003002643585e-02
-6.693307310342788696e-02 -7.222077995538711548e-02 2.638803608715534210e-02
4.782185889780521393e-03 -3.090274892747402191e-02 2.608321793377399445e-02
-3.671687096357345581e-03 2.555109094828367233e-03 -1.644732616841793060e-02
4.689390212297439575e-02 1.173595897853374481e-02 -4.060067981481552124e-02
1.420380454510450363e-02 3.989122807979583740e-02 -8.825240656733512878e-03
1.227993331849575043e-02 7.123029977083206177e-02 4.247559607028961182e-02
1.315659191459417343e-02 3.003634326159954071e-02 3.784644231200218201e-02
1.565765216946601868e-02 -3.318880684673786163e-03 2.941126748919487000e-02
-3.793001174926757812e-02 2.667842432856559753e-02 -4.829044453799724579e-03
-2.912768162786960602e-02 -2.843117713928222656e-02 -3.720724582672119141e-02
-4.728494957089424133e-02 -4.901831969618797302e-02 -4.901443794369697571e-02
4.332388192415237427e-02 -7.405751198530197144e-02 -2.474208129569888115e-03
2.123853564262390137e-02 2.913560904562473297e-02 -3.470178693532943726e-02
4.923557117581367493e-02 8.841698989272117615e-03 8.470484986901283264e-03
-1.389131229370832443e-02 6.688274443149566650e-02 -3.477353230118751526e-02
-8.029641583561897278e-03 -4.383584111928939819e-02 -7.225817441940307617e-02
-2.890293253585696220e-03 -2.670865319669246674e-02 3.502772189676761627e-03
-3.026476316154003143e-02 2.080510184168815613e-02 4.168773069977760315e-02
-7.060971111059188843e-03 4.943308606743812561e-02 -3.112593200057744980e-03
-1.950771920382976532e-02 -2.897729724645614624e-02 -1.920409500598907471e-02
-1.597055606544017792e-02 -1.199378445744514465e-02 -5.316775292158126831e-03
-1.607760228216648102e-02 -1.987628452479839325e-02 6.660172715783119202e-03
-1.117945909500122070e-01 -7.116048596799373627e-03 -1.137486323714256287e-01
-8.652464300394058228e-02 -8.364196121692657471e-02 -1.029250994324684143e-01
-3.281560912728309631e-02 1.129008363932371140e-02 -1.073989085853099823e-02
-3.462587296962738037e-02 7.229920476675033569e-02 -1.634300500154495239e-02
3.057719953358173370e-02 2.498793043196201324e-02 1.041280254721641541e-01
3.651771321892738342e-02 3.669704869389533997e-02 1.491003204137086868e-02
-1.825820468366146088e-02 4.004032909870147705e-02 1.790678687393665314e-02
-6.030147895216941833e-03 3.854433447122573853e-02 -2.259168960154056549e-02
-2.572531625628471375e-02 -6.125566549599170685e-03 -1.484581734985113144e-02
-2.582041919231414795e-02 -3.014608286321163177e-03 1.282663829624652863e-02
-2.261641807854175568e-02 1.325907418504357338e-03 -3.578411787748336792e-02
-4.238426312804222107e-02 -2.882345207035541534e-02 -5.911976471543312073e-02
-7.974225282669067383e-02 -4.371873661875724792e-02 -1.082340814173221588e-02
-6.033255904912948608e-02 -6.229090970009565353e-03 4.064879193902015686e-02
1.358097605407238007e-02 1.452265866100788116e-02 -3.331269323825836182e-02
6.081627681851387024e-02 8.359325677156448364e-02 8.043291047215461731e-03
-2.603284455835819244e-02 2.353803068399429321e-02 1.828595530241727829e-03
-2.149964869022369385e-02 -9.828196838498115540e-03 2.274266444146633148e-02
-6.186823174357414246e-02 1.305672805756330490e-02 3.005160205066204071e-02
-2.069431729614734650e-02 -2.114823274314403534e-02 -8.808112144470214844e-02
4.094358067959547043e-03 -9.861662983894348145e-03 -5.125297978520393372e-02
-1.396389212459325790e-02 -1.518839038908481598e-02 -5.151560530066490173e-02
5.108206719160079956e-02 5.272477120161056519e-02 2.884001471102237701e-02
-1.242782361805438995e-02 4.725752398371696472e-02 -3.043308295309543610e-02
2.380867488682270050e-02 4.527787119150161743e-02 1.896202377974987030e-02
2.131979726254940033e-02 1.189889851957559586e-02 6.782147102057933807e-03
1.434992626309394836e-02 3.309278562664985657e-02 -6.090193986892700195e-02
-2.255256520584225655e-03 4.493471980094909668e-02 -5.565442889928817749e-02
5.342020094394683838e-02 3.747107461094856262e-02 -3.499081358313560486e-02
-8.211940526962280273e-02 -3.775476943701505661e-03 -3.967820480465888977e-02
-3.939536586403846741e-02 4.196714144200086594e-03 -2.315716585144400597e-03
-5.680727772414684296e-03 -1.028142636641860008e-03 -1.164439506828784943e-02
-5.487252026796340942e-02 3.181039588525891304e-03 -2.322952263057231903e-02
-1.758130639791488647e-02 6.728372722864151001e-02 -2.828331850469112396e-02
2.240819483995437622e-02 3.310155356302857399e-03 4.507670179009437561e-03
-3.164419159293174744e-02 -6.173329800367355347e-02 -3.873538598418235779e-02
-1.097034215927124023e-01 -8.572600781917572021e-03 -6.295320391654968262e-02
-2.453208900988101959e-02 -1.290854159742593765e-02 -2.650356478989124298e-02
-4.198247939348220825e-02 2.785305306315422058e-02 4.592100530862808228e-02
-3.171968460083007812e-02 1.740308664739131927e-02 6.726236548274755478e-03
3.095028735697269440e-02 -1.432662736624479294e-02 -5.220016837120056152e-02
2.296473085880279541e-02 2.264702133834362030e-02 -1.903943903744220734e-02
-4.769217967987060547e-02 -8.573592640459537506e-03 -4.946590587496757507e-02
-1.247800420969724655e-02 -4.717863351106643677e-02 -1.070643775165081024e-02
5.218935012817382812e-02 -1.033189240843057632e-03 -7.155244704335927963e-03
1.317785959690809250e-02 -2.721934812143445015e-03 -3.420675918459892273e-02
5.300031229853630066e-02 3.186307102441787720e-02 5.270059779286384583e-02
-6.532419472932815552e-02 1.568223908543586731e-02 -4.469626769423484802e-02
-1.422871835529804230e-02 3.580968081951141357e-02 -3.049547784030437469e-02
-6.125390063971281052e-03 4.777944460511207581e-02 -4.590161517262458801e-02
3.884194791316986084e-02 -9.820147603750228882e-02 -3.515430539846420288e-02
8.207588642835617065e-02 3.236308693885803223e-02 -2.001494541764259338e-02
-3.235938027501106262e-02 7.176937907934188843e-02 7.568705081939697266e-02
2.133004181087017059e-02 -2.967103209812194109e-04 -3.106659092009067535e-02
-3.823854401707649231e-02 4.108058754354715347e-03 3.938898071646690369e-02
-4.348441958427429199e-02 -2.448548935353755951e-02 -1.034461893141269684e-02
6.576430518180131912e-03 -1.294576469808816910e-02 2.423836477100849152e-02
-1.607462950050830841e-02 -3.428319841623306274e-02 -2.340562082827091217e-02
-8.059129468165338039e-04 -2.043544081971049309e-03 -1.696476340293884277e-02
-3.752650925889611244e-03 1.769272796809673309e-02 -1.571762561798095703e-02
-4.533604253083467484e-03 2.114215306937694550e-02 -1.301292423158884048e-02
2.563703060150146484e-02 -6.646913476288318634e-03 -3.492622449994087219e-02
3.981907665729522705e-02 -6.018605455756187439e-02 3.221163898706436157e-02
-1.925137825310230255e-02 -5.341368727385997772e-03 1.904346235096454620e-02
-4.157869145274162292e-03 -6.562739145010709763e-04 6.649827957153320312e-02
-3.342982754111289978e-02 -6.288392096757888794e-02 -1.840655319392681122e-02
-1.473856624215841293e-02 6.307996809482574463e-02 6.758320145308971405e-03
-6.714858114719390869e-03 1.035377569496631622e-02 2.077481709420681000e-02
1.279707532376050949e-02 3.653062880039215088e-02 2.341795340180397034e-02
6.500123441219329834e-02 2.114340290427207947e-02 2.675524540245532990e-02
1.736363954842090607e-02 -2.292042039334774017e-02 1.086544431746006012e-02
2.817872539162635803e-02 -4.630180075764656067e-03 -4.407512769103050232e-02
3.637954220175743103e-02 -1.241571153514087200e-03 2.675577707123011351e-04
4.517233371734619141e-02 1.457144157029688358e-03 -1.301762275397777557e-02
-1.750998198986053467e-02 3.421191498637199402e-02 -3.227836452424526215e-03
7.257616519927978516e-02 1.055467035621404648e-02 -1.187815330922603607e-02
4.249200224876403809e-02 3.482210915535688400e-03 1.824345439672470093e-02
3.383143991231918335e-02 5.733872205018997192e-02 2.226193062961101532e-02
-2.921379730105400085e-02 1.799501478672027588e-02 5.329766869544982910e-02
-8.490344136953353882e-02 -7.093613594770431519e-02 -1.925016636960208416e-03
-9.846569737419486046e-04 -6.886984687298536301e-03 2.243398502469062805e-02
5.437647551298141479e-02 7.839630357921123505e-03 2.770512830466032028e-03
-3.528901562094688416e-02 7.845876738429069519e-03 -4.151261225342750549e-02
-6.270476616919040680e-03 -1.368806138634681702e-02 -4.463446512818336487e-02
-1.928866654634475708e-02 3.957475349307060242e-02 -8.757737465202808380e-03
-7.490585558116436005e-03 2.908293530344963074e-02 4.096278920769691467e-03
-5.163808166980743408e-02 -6.207047402858734131e-02 -4.047547653317451477e-02
-1.007547155022621155e-01 -1.068946868181228638e-01 -8.267164230346679688e-02
-1.245104074478149414e-01 -2.092082239687442780e-02 -8.702973276376724243e-02
-4.721944779157638550e-02 -1.737993396818637848e-02 3.516092151403427124e-02
1.755786687135696411e-02 2.810186147689819336e-02 1.313123572617769241e-02
-5.157854780554771423e-02 2.338234893977642059e-02 2.742940001189708710e-02
-1.117387879639863968e-02 -2.945213206112384796e-02 -3.865346545353531837e-03
2.122921124100685120e-02 7.552852481603622437e-02 -7.531741284765303135e-04
2.800244837999343872e-02 2.328238636255264282e-02 -1.188065391033887863e-03
-3.573639690876007080e-02 -6.092645227909088135e-02 2.807356044650077820e-02
4.678830038756132126e-03 7.057786732912063599e-02 -4.350014030933380127e-02
1.387091260403394699e-02 6.464632228016853333e-03 -6.647001719102263451e-04
-1.205628588795661926e-01 -7.395380735397338867e-02 -9.921953082084655762e-02
1.770221570041030645e-04 7.174234837293624878e-02 3.667249903082847595e-02
3.472742973826825619e-04 6.910101324319839478e-02 1.608048379421234131e-02
3.877238556742668152e-02 4.639099538326263428e-02 -3.142579644918441772e-02
3.267511725425720215e-02 1.112586855888366699e-01 2.011679857969284058e-02
3.195988386869430542e-02 -2.074232557788491249e-03 3.702915087342262268e-02
8.055208623409271240e-02 -2.911144401878118515e-03 4.583260044455528259e-02
2.618838101625442505e-03 -6.257637869566679001e-03 4.039489477872848511e-02
9.115567430853843689e-03 1.810957118868827820e-02 6.453590840101242065e-02
3.930430859327316284e-02 -9.274367243051528931e-02 -2.084772847592830658e-02
8.316844701766967773e-03 -1.333037856966257095e-02 -7.767591625452041626e-02
4.454304650425910950e-02 1.221021730452775955e-02 3.272536024451255798e-02
-3.695459663867950439e-02 1.372981257736682892e-02 1.820302940905094147e-02
-2.218033000826835632e-02 -8.931098505854606628e-03 -1.757368678227066994e-03
4.117391537874937057e-03 -1.329214777797460556e-02 -1.893110759556293488e-02
1.829062961041927338e-02 -2.345542190596461296e-03 1.624530926346778870e-02
-1.257500331848859787e-02 -2.600891143083572388e-02 -4.134691506624221802e-02
2.018663100898265839e-02 3.472642973065376282e-02 -3.819710388779640198e-02
-3.809214383363723755e-02 1.667914725840091705e-02 5.450913682579994202e-02
3.855566610582172871e-04 -1.476257666945457458e-02 3.559469059109687805e-02
2.725874632596969604e-02 2.382924780249595642e-02 5.590025801211595535e-03
-1.024933625012636185e-02 3.805244574323296547e-03 4.410424456000328064e-02
-1.346687600016593933e-02 4.901213198900222778e-02 2.927929162979125977e-02
-3.095236979424953461e-02 -6.042752065695822239e-04 1.177466753870248795e-02
-3.333214297890663147e-02 -2.127331309020519257e-02 -8.993680030107498169e-02
1.464570220559835434e-02 2.629736810922622681e-02 -1.588998362421989441e-02
2.827574871480464935e-02 5.642629694193601608e-03 6.090470403432846069e-02
-3.103786439169198275e-04 4.529094789177179337e-03 -1.275174412876367569e-02
-3.029689751565456390e-02 -1.730561070144176483e-02 1.164262462407350540e-02
3.368873149156570435e-02 1.521221175789833069e-02 -2.924159541726112366e-02
3.194692730903625488e-02 4.236179217696189880e-02 3.406623005867004395e-02
-1.977520994842052460e-02 -2.834458649158477783e-02 -5.408829450607299805e-02
1.355400495231151581e-02 2.343159727752208710e-02 6.281264126300811768e-02
4.305838141590356827e-03 -5.474569275975227356e-02 7.995851919986307621e-04
-1.444156095385551453e-02 -2.997796796262264252e-02 1.916831173002719879e-02
-4.573857784271240234e-02 2.594601735472679138e-02 1.553639024496078491e-02
6.719645112752914429e-02 4.073753580451011658e-02 2.539379522204399109e-03
3.400696069002151489e-02 5.726245418190956116e-02 4.523370042443275452e-02
-4.642545804381370544e-02 2.489442564547061920e-02 4.534959420561790466e-02
5.338583886623382568e-02 -2.068762434646487236e-03 3.321745246648788452e-02
1.036869548261165619e-02 7.081261277198791504e-02 6.634728610515594482e-02
-4.631377011537551880e-02 -2.137858886271715164e-03 -2.152674086391925812e-02
1.822053268551826477e-02 -1.179684977978467941e-02 4.386036098003387451e-02
-4.276854544878005981e-02 -2.798272296786308289e-02 9.107029996812343597e-03
-5.176607146859169006e-02 2.489583101123571396e-03 6.049889326095581055e-02
2.271892689168453217e-02 4.018345475196838379e-02 5.887039471417665482e-03
-1.542927790433168411e-02 6.250362098217010498e-02 1.045893505215644836e-02
-2.759011089801788330e-02 3.673121705651283264e-02 -1.079430244863033295e-02
-7.499602157622575760e-03 -1.467224489897489548e-02 3.366628894582390785e-03
-1.981366984546184540e-02 -1.854285597801208496e-02 1.606669626198709011e-03
-1.171924360096454620e-02 5.752064753323793411e-03 1.720289699733257294e-02
8.139157667756080627e-03 -3.017960488796234131e-02 -3.705970570445060730e-02
4.612252488732337952e-02 -3.816829528659582138e-03 -5.083741992712020874e-02
6.404777057468891144e-03 -1.255987212061882019e-02 -3.345984593033790588e-02
-3.223529085516929626e-02 -2.021159976720809937e-02 -6.760479882359504700e-03
1.805264875292778015e-02 4.775127023458480835e-02 -1.308882725425064564e-03
2.014507912099361420e-02 3.247779235243797302e-02 1.089125998987583444e-05
-2.746083028614521027e-02 1.544601545901969075e-04 2.327065728604793549e-02
-5.929297185502946377e-04 -2.718460373580455780e-02 -5.517920479178428650e-03
3.346784797031432390e-05 3.607035800814628601e-02 -2.272454462945461273e-02
-1.200225483626127243e-02 6.323496252298355103e-02 -3.511340037221089005e-05
-2.366246096789836884e-02 1.741845160722732544e-02 1.569983176887035370e-02
-1.551909558475017548e-02 -1.687148958444595337e-02 -3.517480194568634033e-02
-2.376860174990724772e-05 2.519623190164566040e-02 -2.001553215086460114e-02
1.352400705218315125e-02 -2.372680604457855225e-02 8.228424936532974243e-03
-1.050455030053853989e-02 1.357858534902334213e-02 2.583171427249908447e-02
9.174778126180171967e-03 1.391331315971910954e-03 5.554404109716415405e-02
-3.555705398321151733e-02 -4.788276739418506622e-03 4.666940867900848389e-02
3.822820261120796204e-02 8.057476580142974854e-02 9.077798575162887573e-03
-1.268733665347099304e-02 -6.766594480723142624e-03 -3.444245457649230957e-02
9.075255133211612701e-03 -6.229675374925136566e-03 -1.624715514481067657e-02
3.574147447943687439e-02 1.326233986765146255e-02 3.012428618967533112e-02
-3.260647878050804138e-02 -4.061830788850784302e-02 3.134760633111000061e-02
4.279306158423423767e-03 2.183561213314533234e-02 2.832830417901277542e-03
-5.198502540588378906e-02 2.829629182815551758e-02 6.785695999860763550e-02
-2.865662565454840660e-03 4.609528928995132446e-03 4.896284639835357666e-02
-5.187552794814109802e-02 -4.701081663370132446e-02 5.558183416724205017e-02
1.554108411073684692e-02 7.545808330178260803e-03 3.277763351798057556e-02
-3.285020217299461365e-02 -6.053926050662994385e-02 -5.540861748158931732e-03
-4.725987091660499573e-02 -1.029163077473640442e-01 -3.030060231685638428e-02
-4.602178931236267090e-02 5.928699858486652374e-03 -4.576184228062629700e-02
5.618465691804885864e-02 3.202513232827186584e-02 -1.606299169361591339e-02
4.618431627750396729e-02 -4.747268930077552795e-02 8.267101948149502277e-04
7.604980468750000000e-02 1.443101675249636173e-03 -3.132376074790954590e-02
3.835847601294517517e-02 1.301628164947032928e-02 4.708705842494964600e-02
4.065968096256256104e-02 2.654224820435047150e-02 9.969360195100307465e-03
1.478269603103399277e-02 3.931536152958869934e-02 -2.980872429907321930e-02
-5.239631980657577515e-02 -7.182160019874572754e-02 -4.895378649234771729e-02
3.443821519613265991e-02 -2.334950305521488190e-02 -1.029019057750701904e-02
3.434383869171142578e-02 3.256168216466903687e-02 -6.929433345794677734e-02
2.730971947312355042e-02 -2.206505462527275085e-02 -3.315893933176994324e-02
8.367002010345458984e-02 8.059846004471182823e-04 -3.368181409314274788e-03
-1.190420519560575485e-02 3.152101114392280579e-02 -5.068043246865272522e-02
-7.506108283996582031e-02 -1.216469891369342804e-02 2.877818606793880463e-02
-7.644729316234588623e-02 8.831748738884925842e-03 5.998968612402677536e-03
-1.405585184693336487e-02 1.140160838986048475e-05 -1.031090132892131805e-02
-3.372060507535934448e-02 3.064530156552791595e-02 3.093786351382732391e-02
-2.738488651812076569e-02 4.125972464680671692e-02 -2.480896189808845520e-02
-6.907875090837478638e-02 6.691579706966876984e-03 -3.507429361343383789e-02
-3.111446648836135864e-02 -2.043635956943035126e-02 -3.408793359994888306e-02
-2.023369073867797852e-03 -5.055395513772964478e-02 -1.422448642551898956e-02
1.369094755500555038e-02 2.914888411760330200e-02 3.253216855227947235e-03
6.282803416252136230e-02 5.044868215918540955e-02 7.441351562738418579e-02
2.965146116912364960e-02 6.533363461494445801e-02 2.863297052681446075e-02
-2.272495627403259277e-02 4.023938998579978943e-02 3.426953032612800598e-02
1.680823042988777161e-02 -2.176826633512973785e-02 -2.262287400662899017e-02
1.427115872502326965e-02 -1.322497148066759109e-02 1.519173383712768555e-02
2.378180436789989471e-02 -4.688434768468141556e-03 -1.497704815119504929e-02
2.689814195036888123e-02 8.033290505409240723e-02 -2.159130061045289040e-03
-3.642018884420394897e-02 2.532065846025943756e-02 2.784207835793495178e-02
1.097936555743217468e-02 -3.570272028446197510e-02 -1.197040360420942307e-02
-2.723392471671104431e-02 -5.623894929885864258e-02 -5.320008099079132080e-02
6.634394172579050064e-03 -2.854562737047672272e-02 -8.680600672960281372e-03
7.550425082445144653e-02 8.196121454238891602e-02 -8.524620905518531799e-03
2.745239250361919403e-02 -4.803881049156188965e-02 4.734784364700317383e-02
1.406384631991386414e-02 8.822906762361526489e-03 6.374242715537548065e-03
2.763902768492698669e-02 1.887222938239574432e-02 -6.158796139061450958e-03
-5.905945785343647003e-03 -2.348120324313640594e-02 1.037466302514076233e-01
2.797487005591392517e-02 7.565262727439403534e-03 7.759202271699905396e-02
-3.464946895837783813e-02 1.420390047132968903e-02 4.511858150362968445e-02
-2.469403110444545746e-02 1.847705617547035217e-02 -2.785117737948894501e-02
-8.332244306802749634e-02 -1.174718700349330902e-02 -5.720888823270797729e-02
-6.235637515783309937e-02 -5.966678634285926819e-02 -2.394533157348632812e-02
3.573393449187278748e-02 -8.814272587187588215e-04 2.750351093709468842e-02
-2.132786437869071960e-02 -2.276695147156715393e-02 6.484521087259054184e-03
-1.451315172016620636e-02 -1.654717884957790375e-02 -4.378306120634078979e-02
-5.991956964135169983e-02 -2.927460893988609314e-02 4.122991487383842468e-02
-6.237314268946647644e-02 2.642818167805671692e-02 2.539952658116817474e-02
-5.218324810266494751e-02 -4.506734758615493774e-02 -1.652747578918933868e-02
1.932410150766372681e-02 1.394990552216768265e-02 -6.478833407163619995e-02
3.668259829282760620e-02 -2.813837863504886627e-02 -7.983379811048507690e-02
1.729998737573623657e-02 1.714537851512432098e-02 -3.148419782519340515e-02
-5.136785283684730530e-02 -3.589332848787307739e-02 3.583718836307525635e-02
6.572275608777999878e-02 -4.041282460093498230e-02 -3.597474843263626099e-02
-4.676417261362075806e-02 7.008986081928014755e-03 3.685442358255386353e-02
3.090749494731426239e-03 3.033217415213584900e-02 1.877741329371929169e-02
1.377143990248441696e-02 1.791925169527530670e-02 9.340938180685043335e-03
-2.487590163946151733e-02 -1.903501711785793304e-02 2.367324195802211761e-02
2.416601218283176422e-02 3.829224035143852234e-02 1.243384927511215210e-02
2.460450306534767151e-02 -1.878633908927440643e-02 4.884717613458633423e-02
3.614703565835952759e-02 1.330197136849164963e-02 2.451314404606819153e-02
-1.957300491631031036e-02 5.622802302241325378e-03 5.955401435494422913e-02
-9.884323226287961006e-04 -1.998145133256912231e-02 -2.335570380091667175e-02
4.388444498181343079e-02 8.971448987722396851e-02 8.855558931827545166e-02
3.474375233054161072e-02 9.773182868957519531e-02 -4.490277543663978577e-02
5.962843820452690125e-02 1.138963773846626282e-01 7.634474337100982666e-02
-1.113245263695716858e-01 -2.319975644350051880e-01 -8.879943937063217163e-02
-2.735558710992336273e-02 -1.105703134089708328e-02 -5.921594426035881042e-02
4.478922858834266663e-02 -3.369865566492080688e-02 2.672630548477172852e-02
1.142527442425489426e-03 2.851172722876071930e-02 5.486948043107986450e-02
5.526790395379066467e-02 1.955453492701053619e-02 -4.592613503336906433e-02
9.424520283937454224e-02 3.678253293037414551e-02 -3.051864728331565857e-02
1.878791488707065582e-02 1.357163302600383759e-02 -4.745616111904382706e-03
1.974040083587169647e-02 4.595903679728507996e-02 -1.037815492600202560e-02
-7.798618078231811523e-02 -3.772688284516334534e-02 -7.538133114576339722e-02
3.792425990104675293e-02 -1.249020453542470932e-02 -7.817018032073974609e-02
1.233075372874736786e-02 -5.342158302664756775e-02 -4.116668179631233215e-02
4.229585826396942139e-02 8.471892215311527252e-03 -3.012772835791110992e-02
5.150297656655311584e-02 2.710600942373275757e-02 -2.163682831451296806e-03
-5.477236211299896240e-02 5.712725967168807983e-02 -2.652824670076370239e-02
-8.264007628895342350e-04 -1.763472246238961816e-04 6.850934028625488281e-02
2.333362028002738953e-02 3.757175989449024200e-03 3.600393980741500854e-02
4.619212821125984192e-02 -2.239080518484115601e-02 3.927699849009513855e-02
-1.149043906480073929e-02 3.269238770008087158e-02 4.066460765898227692e-03
-8.351343683898448944e-03 -9.144718758761882782e-03 7.384115457534790039e-02
-6.492774188518524170e-02 3.944817557930946350e-02 -7.551387418061494827e-03
-4.617508873343467712e-02 -6.099578365683555603e-02 -4.841765761375427246e-02
-3.356141597032546997e-02 -8.649894595146179199e-02 -6.647101789712905884e-02
4.302415624260902405e-02 3.184926137328147888e-02 5.168247967958450317e-02
-9.329399093985557556e-03 -3.246989473700523376e-02 -4.383918363600969315e-03
-7.277391850948333740e-03 -2.727153524756431580e-02 -1.751122623682022095e-02
1.754857785999774933e-02 -4.101792722940444946e-02 9.123473614454269409e-02
-1.588226109743118286e-01 -1.922038048505783081e-01 -8.673099428415298462e-02
4.547601938247680664e-02 8.476960659027099609e-02 2.403976954519748688e-02
-6.441787630319595337e-02 1.138106361031532288e-02 1.553137321025133133e-02
-1.507554203271865845e-02 -7.779109477996826172e-02 -5.027030711062252522e-04
-5.223930627107620239e-02 -4.921538010239601135e-02 2.498773671686649323e-02
-3.481126204133033752e-02 3.399365395307540894e-02 2.950705587863922119e-02
-1.259964890778064728e-02 8.230604231357574463e-02 2.925983257591724396e-02
4.373092576861381531e-02 5.510976910591125488e-02 1.983903720974922180e-02
-1.359626930207014084e-02 3.571126982569694519e-02 -1.988649927079677582e-02
9.999370574951171875e-02 -4.002550244331359863e-02 -1.323505863547325134e-02
4.727753996849060059e-02 9.651713818311691284e-02 2.555893547832965851e-02
1.110087428241968155e-02 9.681078605353832245e-03 -3.251349553465843201e-02
1.219818089157342911e-02 3.829142823815345764e-02 -2.419582568109035492e-02
-8.293301798403263092e-03 5.685004219412803650e-02 -4.899970814585685730e-02
-7.373078167438507080e-02 7.461266126483678818e-03 -5.830367282032966614e-02
2.428827807307243347e-02 5.523278191685676575e-02 -3.968646377325057983e-02
4.340258892625570297e-03 -1.547375880181789398e-02 -3.208309784531593323e-02
1.222392264753580093e-02 2.214980684220790863e-02 -2.808203175663948059e-02
3.192417696118354797e-02 7.323697954416275024e-02 -2.395251020789146423e-02
5.636184662580490112e-02 2.768083848059177399e-02 5.034678056836128235e-02
-3.367017209529876709e-02 -3.493739664554595947e-02 -1.155389919877052307e-01
-1.067203506827354431e-01 1.125128194689750671e-01 -1.196827646344900131e-02
-2.984781935811042786e-02 -1.056603193283081055e-01 -5.196861550211906433e-02
5.348272994160652161e-02 5.347057431936264038e-02 -3.881044313311576843e-02
-1.782273687422275543e-02 1.750498823821544647e-02 5.979216471314430237e-02
-4.905387759208679199e-02 -6.001902744174003601e-02 -5.628664791584014893e-02
8.996453136205673218e-02 9.683462232351303101e-02 5.615337938070297241e-02
-2.395072393119335175e-02 -4.464304819703102112e-02 6.933664437383413315e-03
4.511565715074539185e-02 -3.679752722382545471e-02 -2.021497488021850586e-02
2.793733030557632446e-02 -1.210470777004957199e-02 -9.167615324258804321e-02
-2.513440512120723724e-02 1.531268954277038574e-01 5.340879783034324646e-02
4.466549679636955261e-02 -4.387067165225744247e-03 -6.864696741104125977e-02
4.823150113224983215e-02 5.815805494785308838e-02 2.154911123216152191e-02
-2.020244672894477844e-02 3.482975065708160400e-02 -1.260806620121002197e-02
3.661461919546127319e-02 -1.306572649627923965e-02 4.630164802074432373e-02
-6.526501476764678955e-02 1.014501554891467094e-03 -1.083110272884368896e-02
2.536510489881038666e-02 5.883029103279113770e-02 1.331141218543052673e-02
1.889922656118869781e-02 5.095043033361434937e-02 -1.037152390927076340e-02
-6.398219615221023560e-03 1.456449087709188461e-02 -2.249245531857013702e-03
-3.425496444106101990e-02 1.075297966599464417e-02 5.559123121201992035e-03
1.215223688632249832e-02 4.646462947130203247e-02 -3.033535741269588470e-02
-3.551398217678070068e-02 3.412526100873947144e-02 -2.105067484080791473e-02
-7.108516246080398560e-02 -4.849377274513244629e-02 7.465270906686782837e-02
6.672705523669719696e-03 -3.149163350462913513e-02 -5.951848253607749939e-02
-3.486259607598185539e-03 5.741425976157188416e-02 -1.229351107031106949e-02
-3.457998484373092651e-02 1.253512105904519558e-03 -1.203813403844833374e-02
4.750339314341545105e-02 2.535167848691344261e-03 2.224776893854141235e-02
-4.409224539995193481e-02 -1.384556293487548828e-02 -7.607836276292800903e-02
2.071704948320984840e-03 -3.703448548913002014e-02 -6.940507888793945312e-02
1.242343150079250336e-02 3.260312974452972412e-02 8.323682472109794617e-03
-4.857830330729484558e-02 3.739086538553237915e-02 7.516895234584808350e-02
-1.963550969958305359e-02 2.746251784265041351e-02 3.352940455079078674e-02
-8.315002918243408203e-02 -8.347238600254058838e-02 -2.975886315107345581e-02
-8.042068779468536377e-02 -1.315309107303619385e-02 -3.171063587069511414e-02
1.331000123172998428e-02 1.463397033512592316e-02 -5.799778178334236145e-02
5.380273237824440002e-02 8.452448993921279907e-02 6.026622653007507324e-02
2.571382932364940643e-02 6.912567466497421265e-02 -3.618470579385757446e-02
-1.847411878407001495e-02 -8.649090677499771118e-02 3.972396254539489746e-02
-3.792424872517585754e-02 -1.207045372575521469e-02 5.971219763159751892e-02
4.419212788343429565e-02 3.254324942827224731e-02 -2.434395812451839447e-02
3.350626304745674133e-02 3.775562345981597900e-02 -2.806046605110168457e-02
2.615209855139255524e-02 -5.926793068647384644e-02 -4.277569428086280823e-02
2.059043943881988525e-02 -4.171156510710716248e-02 1.940391771495342255e-02
1.954345405101776123e-02 -1.828027074225246906e-03 9.509585797786712646e-03
1.090341154485940933e-02 4.209277778863906860e-02 2.106636017560958862e-02
-4.350022226572036743e-02 8.281114511191844940e-03 -3.002205863595008850e-03
-7.744384557008743286e-02 -1.613250002264976501e-02 -3.372336924076080322e-02
-4.896229505538940430e-02 -9.236663579940795898e-03 -8.899540640413761139e-03
-4.918756708502769470e-02 -6.149165704846382141e-02 1.153335440903902054e-02
-3.778388258069753647e-03 -3.755556792020797729e-02 3.968925029039382935e-02
-4.907079506665468216e-03 2.719612233340740204e-02 -4.302019253373146057e-02
5.961543694138526917e-02 1.469272188842296600e-02 -5.366091430187225342e-02
8.390008658170700073e-02 8.164370805025100708e-02 -1.083304453641176224e-02
-1.953837089240550995e-02 4.505402967333793640e-02 3.487665206193923950e-02
2.690140344202518463e-02 8.140906691551208496e-02 4.973293747752904892e-03
1.888755895197391510e-02 2.866404503583908081e-02 -5.430037900805473328e-02
6.420520693063735962e-02 8.597957342863082886e-02 1.644928194582462311e-02
-1.035053841769695282e-02 1.855202764272689819e-02 3.261022036895155907e-03
1.501742936670780182e-02 1.728072389960289001e-02 2.032013982534408569e-02
1.345986966043710709e-02 3.685336932539939880e-02 7.169461809098720551e-03
-4.706014320254325867e-02 1.885235682129859924e-02 -3.467311337590217590e-02
-5.963003728538751602e-03 3.107511252164840698e-02 -1.023677084594964981e-02
3.137771412730216980e-02 -2.546806121245026588e-03 4.020785540342330933e-02
2.539996057748794556e-02 2.385895699262619019e-02 -6.753215193748474121e-02
-1.392991468310356140e-02 4.495017975568771362e-02 -2.771974354982376099e-02
4.847232624888420105e-02 2.632294036448001862e-02 -1.689676754176616669e-02
1.923604495823383331e-02 -1.037086173892021179e-02 -1.366863586008548737e-02
1.772354729473590851e-02 -6.670111417770385742e-02 -2.732357569038867950e-02
-6.557853519916534424e-02 -2.693643234670162201e-02 -4.272711277008056641e-02
-7.497338810935616493e-04 -1.112064253538846970e-02 -4.418812319636344910e-02
4.499540105462074280e-02 -1.668463926762342453e-03 -6.049306318163871765e-02
1.452613063156604767e-02 -3.390965517610311508e-03 3.447174653410911560e-02
2.184838615357875824e-02 1.584011688828468323e-02 1.572103821672499180e-03
-1.452965196222066879e-02 9.010015986859798431e-03 2.489575184881687164e-02
-5.621151253581047058e-02 -8.812826871871948242e-02 -4.503400623798370361e-02
4.710458219051361084e-02 -2.353919856250286102e-02 -2.724571153521537781e-03
1.046083681285381317e-02 -3.190295398235321045e-02 -2.675808407366275787e-02
9.067839710041880608e-04 4.802304878830909729e-02 1.362926233559846878e-02
7.152615580707788467e-03 -3.310775011777877808e-02 -2.295194752514362335e-02
1.716226153075695038e-02 -7.187658548355102539e-02 3.454938158392906189e-02
-2.101391321048140526e-03 -3.126583993434906006e-02 1.897579617798328400e-02
1.226782612502574921e-02 -1.804767409339547157e-03 -2.881559310480952263e-03
5.202877148985862732e-02 9.465838782489299774e-03 -3.212418779730796814e-02
4.196462687104940414e-03 5.826234817504882812e-02 -4.988477006554603577e-02
-4.146554972976446152e-03 1.372246537357568741e-02 5.032350122928619385e-02
-4.988277330994606018e-02 2.146966755390167236e-02 3.050713241100311279e-02
-2.517325058579444885e-02 -3.183896467089653015e-02 2.682220377027988434e-02
2.484779432415962219e-02 1.870227861218154430e-03 -3.260085731744766235e-02
4.179444164037704468e-02 8.828601241111755371e-02 3.000780753791332245e-02
1.070588156580924988e-01 1.498492658138275146e-01 -3.409581724554300308e-03
-7.744491100311279297e-02 -9.195573627948760986e-03 5.548063293099403381e-02
-4.145925492048263550e-02 -2.890403568744659424e-02 -2.198474481701850891e-03
4.053264483809471130e-02 6.463537365198135376e-02 -8.931123651564121246e-03
6.302550435066223145e-02 -8.831280469894409180e-02 5.198726803064346313e-02
-2.754969708621501923e-02 -1.003408655524253845e-01 -5.586630105972290039e-02
3.056780807673931122e-02 -3.171619772911071777e-02 -3.816862404346466064e-02
-9.991028346121311188e-03 -2.265602536499500275e-02 -6.534869223833084106e-02
3.009943105280399323e-02 -3.949507698416709900e-02 -7.639253512024879456e-03
2.961462363600730896e-02 -7.049060426652431488e-03 -6.109708920121192932e-03
-2.537537552416324615e-02 -3.655539825558662415e-02 -5.235831812024116516e-02
1.954112574458122253e-02 5.848568305373191833e-02 9.867562912404537201e-03
-1.721572689712047577e-02 -6.779995746910572052e-03 5.989243090152740479e-02
-3.025021031498908997e-02 7.027788460254669189e-02 1.186693273484706879e-02
-5.797135177999734879e-03 -9.287314862012863159e-02 2.986518852412700653e-02
-4.279303550720214844e-02 -1.743069291114807129e-02 9.967732243239879608e-03
-1.266956776380538940e-01 -4.959468171000480652e-02 -1.785225421190261841e-02
2.319920808076858521e-02 9.203733876347541809e-03 -7.832826668163761497e-05
6.062294915318489075e-02 1.416058391332626343e-01 2.041933912551030517e-04
2.730592899024486542e-02 -4.997832328081130981e-02 1.982286199927330017e-02
-5.651962384581565857e-02 -2.446134015917778015e-02 4.577163234353065491e-02
3.365819528698921204e-02 -7.489760871976613998e-03 4.962870385497808456e-03
7.544306665658950806e-02 1.390207856893539429e-01 6.053719297051429749e-02
1.416262835264205933e-01 4.667026549577713013e-02 -2.145973592996597290e-02
1.547444704920053482e-02 4.283519461750984192e-03 -5.354234948754310608e-02
1.101842001080513000e-01 3.725808858871459961e-02 -4.476417601108551025e-02
4.930726811289787292e-02 -4.184483736753463745e-02 -8.107703179121017456e-03
-1.447731722146272659e-02 -3.070288151502609253e-02 1.500161457806825638e-02
1.196348220109939575e-01 1.031760796904563904e-01 -9.261685423552989960e-03
-7.246533781290054321e-02 -2.727729454636573792e-02 1.747084595263004303e-02
-5.262262746691703796e-02 -4.858187958598136902e-02 5.382755398750305176e-02
-2.187271229922771454e-02 5.867801140993833542e-03 -1.077873911708593369e-02
-2.859502844512462616e-02 -5.707629770040512085e-02 -3.044681251049041748e-02
-1.898612640798091888e-02 5.316840484738349915e-03 1.927102170884609222e-02
-4.360971599817276001e-02 -3.298801556229591370e-02 -4.622073471546173096e-02
2.149831689894199371e-02 3.851060941815376282e-02 -2.612393721938133240e-02
1.769325733184814453e-01 9.882684051990509033e-02 6.531254202127456665e-02
6.084135174751281738e-02 -3.223287174478173256e-03 3.181127086281776428e-02
4.209267906844615936e-03 -3.522003069519996643e-02 -2.050761878490447998e-02
-8.134488016366958618e-02 -8.307294547557830811e-02 2.257297374308109283e-02
7.825546897947788239e-03 5.744033958762884140e-03 -1.147093158215284348e-02
3.373787552118301392e-02 1.753699220716953278e-02 5.851642694324254990e-03
3.246617689728736877e-02 5.287287011742591858e-02 6.506755948066711426e-03
-1.585845276713371277e-02 -6.649174261838197708e-03 -2.697558328509330750e-02
4.123320803046226501e-02 1.348463911563158035e-02 3.298350051045417786e-02
-2.808695472776889801e-02 -2.841914817690849304e-02 2.835542336106300354e-02
2.255407162010669708e-03 4.631631448864936829e-02 2.852681837975978851e-02
4.732778295874595642e-02 3.394719213247299194e-02 -1.601725071668624878e-02
-8.809593506157398224e-03 2.644729427993297577e-02 1.082452293485403061e-02
8.423831313848495483e-03 9.437035769224166870e-03 -6.835586857050657272e-03
-3.439639508724212646e-02 4.731867834925651550e-02 6.479552946984767914e-03
-8.347284793853759766e-02 5.809212476015090942e-02 -4.452273994684219360e-02
-4.470480978488922119e-02 -2.415698580443859100e-02 -4.945553466677665710e-02
1.051248051226139069e-02 -4.461044445633888245e-02 -2.993289753794670105e-02
-4.673435539007186890e-02 -5.284602940082550049e-02 -4.724375158548355103e-02
-1.364335119724273682e-01 4.453660547733306885e-02 1.049059443175792694e-02
1.580723561346530914e-02 6.879294663667678833e-02 1.081662178039550781e-01
-6.546942889690399170e-02 -1.534856855869293213e-02 -3.955954685807228088e-03
-8.151232264935970306e-03 1.684578321874141693e-02 5.542411655187606812e-02
-4.701024852693080902e-03 4.529630392789840698e-02 1.340628135949373245e-02
2.196617191657423973e-03 -1.727702654898166656e-02 3.183452039957046509e-02
-3.097947686910629272e-02 5.851380527019500732e-02 -4.113183915615081787e-02
-4.848473146557807922e-02 1.340315677225589752e-02 6.057607755064964294e-02
-6.177607551217079163e-02 2.435700781643390656e-02 -1.275316346436738968e-02
-2.240606397390365601e-02 -1.562328659929335117e-03 -2.857526950538158417e-02
-4.182497039437294006e-03 -1.360840070992708206e-02 2.090408653020858765e-02
5.097922985441982746e-04 -9.118766337633132935e-02 2.402904443442821503e-02
-1.565093547105789185e-02 4.053256940096616745e-03 2.912572212517261505e-02
5.099260434508323669e-02 7.443083077669143677e-02 4.069327376782894135e-03
1.356185041368007660e-02 4.290671646595001221e-02 6.949293613433837891e-02
-9.114563465118408203e-02 -1.358283404260873795e-02 5.501051247119903564e-02
-7.625551428645849228e-03 3.114753589034080505e-02 1.064084321260452271e-01
-6.408763583749532700e-03 5.031664390116930008e-03 -2.021471597254276276e-02
-1.670587435364723206e-02 6.677466910332441330e-03 4.372841864824295044e-02
1.439524255692958832e-02 4.719278961420059204e-02 2.562101185321807861e-02
-1.137445308268070221e-02 9.003203362226486206e-03 2.019373141229152679e-02
-4.382454976439476013e-02 4.551666975021362305e-02 1.026810612529516220e-02
-1.293996162712574005e-02 4.206752777099609375e-02 -3.693877905607223511e-02
-2.307596430182456970e-02 -2.374690212309360504e-02 6.041599810123443604e-02
-5.818976834416389465e-02 -5.271734553389251232e-04 -7.256700657308101654e-03
1.583217643201351166e-02 -4.491957835853099823e-03 -6.167279928922653198e-02
-1.811997406184673309e-02 -1.493672654032707214e-02 -1.945132389664649963e-02
-1.599469035863876343e-02 3.126550838351249695e-02 5.816636607050895691e-03
-6.972965598106384277e-02 -6.874857097864151001e-02 -4.638869687914848328e-02
-7.409565895795822144e-02 -5.755117535591125488e-02 -1.500021293759346008e-02
-2.426874823868274689e-02 1.310983486473560333e-02 3.127431869506835938e-02
-1.101104822009801865e-02 3.478051349520683289e-02 2.936734072864055634e-02
-1.170422788709402084e-02 3.903637453913688660e-02 -3.296350128948688507e-03
-2.794947661459445953e-02 -4.795249179005622864e-02 -4.524203017354011536e-02
-1.345126237720251083e-02 -1.732548698782920837e-02 1.729399710893630981e-02
-2.379028685390949249e-02 -2.514447271823883057e-02 2.124147303402423859e-02
2.175701223313808441e-02 6.039078533649444580e-02 -3.627303242683410645e-02
1.190286595374345779e-02 9.268620610237121582e-02 3.922193311154842377e-03
-2.791659906506538391e-02 1.512517873197793961e-02 -4.845142364501953125e-02
-1.254291553050279617e-02 -4.951960593461990356e-02 -1.742554828524589539e-02
4.482512921094894409e-02 -4.301388561725616455e-02 2.151244989363476634e-04
-8.770309388637542725e-03 -3.746593743562698364e-02 3.586541116237640381e-02
-2.251210436224937439e-02 2.933003753423690796e-02 -4.637615755200386047e-02
5.710254190489649773e-04 3.605596721172332764e-02 3.429488424444571137e-05
2.696740441024303436e-02 2.078248746693134308e-02 1.819683238863945007e-02
-5.687443539500236511e-02 -3.617767989635467529e-02 4.820480197668075562e-02
6.018795538693666458e-04 -1.709151081740856171e-02 2.062402293086051941e-02
3.486484289169311523e-02 5.150077864527702332e-02 -7.112088613212108612e-03
-6.310573220252990723e-02 -9.480562806129455566e-02 -2.590048499405384064e-02
-4.206023365259170532e-02 3.190275654196739197e-02 9.665348380804061890e-02
-4.810095578432083130e-02 -1.190459262579679489e-02 4.077548161149024963e-02
-2.862040419131517410e-03 5.422160774469375610e-02 -1.413279678672552109e-04
3.711023926734924316e-02 1.929138414561748505e-02 -1.655518077313899994e-02
-2.474370598793029785e-02 5.296065937727689743e-03 6.423307582736015320e-03
-4.068392328917980194e-03 4.258354008197784424e-02 4.087752476334571838e-02
-2.377736195921897888e-02 2.889740653336048126e-02 3.264045715332031250e-02
-4.065574333071708679e-02 -2.601260086521506310e-03 -1.372933015227317810e-02
-5.132412165403366089e-02 1.710379868745803833e-02 4.164499416947364807e-02
-6.927158683538436890e-02 3.272803127765655518e-02 1.338536590337753296e-01
3.225470427423715591e-04 2.124353498220443726e-02 4.764854162931442261e-02
-1.895265839993953705e-02 1.198215223848819733e-02 1.201059762388467789e-02
-2.771145664155483246e-02 4.637246578931808472e-02 5.258917063474655151e-02
2.767725288867950439e-02 3.725758567452430725e-02 2.918235585093498230e-02
-9.394182823598384857e-03 -3.882234543561935425e-02 -4.305274784564971924e-02
-1.715292036533355713e-02 -2.070875093340873718e-02 3.876453638076782227e-02
-3.821196965873241425e-03 8.727228268980979919e-03 1.201272476464509964e-03
-7.720346911810338497e-04 4.842707142233848572e-02 3.198823332786560059e-02
-3.572502732276916504e-02 -3.970776870846748352e-02 -8.541218005120754242e-03
6.955047603696584702e-03 -2.354426309466362000e-02 -6.440562196075916290e-03
-1.035881936550140381e-01 -9.016074240207672119e-02 4.151076450943946838e-02
-1.906128600239753723e-02 -8.863796480000019073e-03 5.784044414758682251e-02
-2.504887804388999939e-02 -7.007305324077606201e-02 -3.365213423967361450e-02
3.352662175893783569e-02 6.891769915819168091e-02 -1.576019451022148132e-02
-7.903037592768669128e-03 -3.910144791007041931e-02 3.483440354466438293e-02
5.811342503875494003e-03 -2.981385774910449982e-02 -5.286709591746330261e-02
-8.679203689098358154e-03 4.422140866518020630e-02 4.653564468026161194e-02
-1.389697194099426270e-02 2.891864394769072533e-03 -5.147014185786247253e-02
9.246499277651309967e-03 -1.815939508378505707e-02 -3.170011797919869423e-03
-5.332290753722190857e-02 4.695354402065277100e-02 2.779640816152095795e-02
-2.190174348652362823e-02 -2.401528880000114441e-02 5.302213504910469055e-02
-2.497625770047307014e-03 5.014777556061744690e-02 4.000263661146163940e-02
-3.642152994871139526e-02 -4.495773836970329285e-02 -2.192180976271629333e-02
3.359800577163696289e-02 -2.505056001245975494e-02 1.286420878022909164e-02
-2.631135843694210052e-02 -3.056404180824756622e-03 -3.595198318362236023e-02
2.483351714909076691e-02 4.329686611890792847e-02 1.548814866691827774e-02
-1.670097373425960541e-02 2.380232512950897217e-02 -4.704133048653602600e-02
-1.926294714212417603e-02 1.288982387632131577e-02 5.631946399807929993e-02
-7.559124380350112915e-02 4.846067726612091064e-02 4.523226059973239899e-03
-4.064963385462760925e-02 -2.574282325804233551e-02 1.779143325984477997e-02
1.923621748574078083e-03 1.801004633307456970e-02 -3.297225572168827057e-03
2.637433633208274841e-02 -8.673276752233505249e-03 2.967445552349090576e-02
-7.925333455204963684e-03 2.945668995380401611e-02 -6.977805402129888535e-03
4.292016848921775818e-02 4.665244743227958679e-02 5.941420327872037888e-03
-1.484712213277816772e-02 -7.644976954907178879e-03 -2.791736274957656860e-03
2.581198327243328094e-02 6.447319407016038895e-03 3.059249930083751678e-02
-4.889514669775962830e-02 -4.507139325141906738e-02 8.549054712057113647e-02
-5.679205642081797123e-04 1.408640388399362564e-02 3.243194893002510071e-02
1.018760278820991516e-01 1.431055366992950439e-02 3.253792598843574524e-02
-2.932865917682647705e-02 6.942924577742815018e-03 -1.521083246916532516e-02
1.155552733689546585e-02 2.947338158264756203e-03 -1.441651489585638046e-02
-1.130591705441474915e-02 7.599182426929473877e-02 -1.142586488276720047e-02
-4.756540060043334961e-03 8.724664337933063507e-03 4.753718152642250061e-02
-7.954180240631103516e-02 -1.078790333122014999e-02 1.015910878777503967e-02
-1.483231876045465469e-02 1.875489205121994019e-02 -2.767564915120601654e-02
-5.423334985971450806e-02 2.576193213462829590e-02 -5.018623545765876770e-02
6.630750838667154312e-03 -6.578276306390762329e-02 -4.524622112512588501e-02
-2.015146613121032715e-02 3.811014071106910706e-02 -3.078730590641498566e-02
1.053803879767656326e-02 -3.396560996770858765e-02 -3.849876811727881432e-04
-5.098748579621315002e-02 1.072814222425222397e-02 -1.493604108691215515e-02
1.924295537173748016e-02 2.121613360941410065e-02 5.844727158546447754e-03
3.528469474986195564e-03 -9.214958176016807556e-03 -4.680115729570388794e-02
-5.494923889636993408e-02 -6.382309645414352417e-02 9.307623258791863918e-04
-3.430657461285591125e-02 2.387419342994689941e-02 2.722376585006713867e-02
-3.736845031380653381e-02 -1.010879501700401306e-02 1.242997031658887863e-02
-2.167491801083087921e-02 1.054964214563369751e-02 1.689018495380878448e-02
-3.751070797443389893e-02 -1.374823413789272308e-02 -8.042939007282257080e-03
-3.559393063187599182e-02 -6.669164448976516724e-02 2.595197875052690506e-03
-2.664865739643573761e-02 2.748272195458412170e-02 2.126879058778285980e-02
-3.836617991328239441e-02 -3.776012733578681946e-02 3.729967772960662842e-02
-5.904607102274894714e-02 -2.396379411220550537e-02 7.158285938203334808e-03
1.780467480421066284e-02 3.159792348742485046e-02 6.506548076868057251e-02
1.085399184376001358e-02 -8.236645720899105072e-03 2.251915074884891510e-02
-8.337402343750000000e-02 -4.580088704824447632e-02 -1.406494714319705963e-02
-4.700744058936834335e-03 5.895907990634441376e-03 -5.254199355840682983e-02
8.727189153432846069e-03 4.008243605494499207e-02 6.771703064441680908e-02
-7.774850353598594666e-03 -3.443401679396629333e-02 3.979437425732612610e-02
4.077183455228805542e-02 -3.428833931684494019e-02 -1.779279857873916626e-02
-5.925865843892097473e-03 -2.048070728778839111e-02 1.401759870350360870e-02
-2.821303531527519226e-02 1.357110589742660522e-02 1.268202159553766251e-02
-1.725228875875473022e-02 -6.713946815580129623e-03 8.866013027727603912e-03
4.596482962369918823e-03 -2.765314094722270966e-02 -3.400477766990661621e-02
2.054908685386180878e-02 -1.549420226365327835e-02 -3.812769427895545959e-02
1.927765458822250366e-02 -3.633926436305046082e-02 -6.719740573316812515e-03
4.031215794384479523e-03 -5.372956395149230957e-02 3.214346989989280701e-02
-5.635884404182434082e-02 -5.983253195881843567e-02 -6.441267207264900208e-03
-7.224982604384422302e-03 2.854504063725471497e-02 -5.404015071690082550e-03
-3.490098984912037849e-03 -2.296568127349019051e-03 8.284730464220046997e-02
1.156075205653905869e-02 2.387219853699207306e-02 7.015030831098556519e-02
-1.945016905665397644e-02 3.984495252370834351e-02 1.426725555211305618e-02
-2.876687608659267426e-02 9.216991253197193146e-03 -1.936838217079639435e-02
2.655090531334280968e-03 1.355922874063253403e-02 -9.824512526392936707e-04
-3.595845028758049011e-02 -5.103229731321334839e-02 -6.340060383081436157e-02
-3.461234038695693016e-03 -7.824888825416564941e-02 7.170120254158973694e-03
-9.984592907130718231e-03 -2.255043946206569672e-02 3.998827189207077026e-02
-1.346299145370721817e-02 -2.972520189359784126e-03 3.861312568187713623e-02
-2.288651838898658752e-02 -1.957658119499683380e-02 -6.016497965902090073e-03
-2.537045814096927643e-02 -2.948562800884246826e-02 -2.974171191453933716e-02
-3.079800680279731750e-02 -1.855685375630855560e-02 1.821233704686164856e-02
1.398918870836496353e-02 5.683564022183418274e-02 -2.042793901637196541e-03
-1.097674109041690826e-02 -2.969520399346947670e-03 -1.599791646003723145e-02
-3.521111235022544861e-02 5.182807799428701401e-04 2.052678912878036499e-02
6.409990601241588593e-03 -4.028455540537834167e-02 2.664651349186897278e-02
-3.250767942517995834e-03 -3.485234454274177551e-02 1.154621317982673645e-02
-5.697687622159719467e-03 -1.520179305225610733e-02 -1.659614220261573792e-02
1.659940369427204132e-02 -1.792117580771446228e-02 7.785418070852756500e-03
-3.943087160587310791e-02 -6.346610933542251587e-02 3.430738672614097595e-02
-7.090596482157707214e-03 4.560977593064308167e-02 7.721722871065139771e-02
-7.376338541507720947e-02 -8.554631844162940979e-03 3.670601546764373779e-02
2.704396611079573631e-04 -9.166974574327468872e-02 1.980648003518581390e-02
-3.273355960845947266e-02 -2.166588418185710907e-02 4.309675469994544983e-02
-9.467662312090396881e-03 8.457578718662261963e-03 -4.464867524802684784e-03
-8.380516618490219116e-02 -1.524796825833618641e-03 -4.529446363449096680e-02
-1.834977976977825165e-02 -4.173913039267063141e-03 -4.436254873871803284e-02
-1.143652386963367462e-02 -9.347848594188690186e-03 5.819746758788824081e-03
5.480698309838771820e-03 8.836809545755386353e-03 -2.690776251256465912e-02
-3.242628881707787514e-03 -9.602931328117847443e-03 3.351254761219024658e-02
9.390955790877342224e-03 2.712070243433117867e-03 1.586972549557685852e-02
-3.518687933683395386e-02 -6.268435716629028320e-02 -1.912385970354080200e-02
1.892867684364318848e-02 5.433240160346031189e-02 -1.949786953628063202e-02
2.218006178736686707e-02 4.137191176414489746e-02 -4.692292213439941406e-02
-2.478741481900215149e-02 8.850990980863571167e-02 1.978722028434276581e-02
-2.860765345394611359e-02 -2.674601040780544281e-02 -8.739229291677474976e-02
-6.958148907870054245e-03 -4.204862564802169800e-02 -1.718422770500183105e-02
4.090651869773864746e-02 -2.743129851296544075e-03 -1.923629827797412872e-02
-1.038597747683525085e-01 2.033746987581253052e-02 1.365922018885612488e-02
5.412356927990913391e-02 -1.096599176526069641e-02 -7.850652933120727539e-02
4.681139066815376282e-02 -1.170240566134452820e-01 -1.233561635017395020e-01
3.173599019646644592e-02 1.330084516666829586e-03 1.875532977283000946e-02
5.077645927667617798e-02 3.824916854500770569e-02 3.201792761683464050e-02
-4.550258163362741470e-03 2.660325728356838226e-03 1.682602241635322571e-02
-1.535788178443908691e-02 -2.966506592929363251e-02 -9.120577946305274963e-03
6.255780160427093506e-02 2.595747634768486023e-02 1.744466088712215424e-02
2.445600740611553192e-02 1.790068112313747406e-02 -1.695774379186332226e-03
-3.101608715951442719e-02 -5.190347135066986084e-02 -2.356141805648803711e-03
2.471799030900001526e-03 -1.814656774513423443e-03 6.699023395776748657e-02
1.215251721441745758e-02 1.427267584949731827e-02 4.553309176117181778e-03
7.366010546684265137e-02 -1.209131535142660141e-02 2.238971926271915436e-02
5.130240693688392639e-02 9.809250012040138245e-03 3.550330176949501038e-02
-4.143935814499855042e-02 -1.657548826187849045e-03 -5.962686613202095032e-03
-5.689785629510879517e-02 -6.065314263105392456e-02 -3.615352883934974670e-02
6.248037889599800110e-02 1.771697402000427246e-02 2.218752726912498474e-02
1.424275431782007217e-02 2.339893393218517303e-02 7.057330571115016937e-03
7.552973181009292603e-02 -1.768309995532035828e-02 2.738118171691894531e-02
-5.357892066240310669e-02 6.342059373855590820e-02 8.651266992092132568e-02
8.657615631818771362e-03 1.733262278139591217e-02 -3.176503255963325500e-02
-3.184025362133979797e-02 -8.380901068449020386e-03 -3.560308739542961121e-02
8.282082527875900269e-02 5.064724758267402649e-02 3.267413377761840820e-02
2.906880527734756470e-02 3.780804947018623352e-02 1.959187537431716919e-02
6.349720060825347900e-02 8.908038586378097534e-02 5.188522487878799438e-02
1.233148127794265747e-01 2.070868387818336487e-02 -2.851155400276184082e-02
2.072650566697120667e-02 -1.650500297546386719e-02 -2.476145746186375618e-03
-5.707244202494621277e-02 -2.794136665761470795e-02 -8.927897550165653229e-03
-2.897962694987654686e-03 -3.305891761556267738e-03 -4.531612247228622437e-02
3.083409368991851807e-02 -5.280114710330963135e-02 -9.325709939002990723e-02
3.772351890802383423e-02 7.453378289937973022e-03 -4.084244742989540100e-02
6.068050861358642578e-02 2.298709936439990997e-02 2.426845766603946686e-02
2.021586522459983826e-02 4.168209806084632874e-02 -5.562501959502696991e-03
2.106899395585060120e-02 6.691424548625946045e-02 1.485636178404092789e-02
1.164005994796752930e-01 8.083919435739517212e-02 5.624404549598693848e-02
2.754401415586471558e-02 3.155259415507316589e-02 -4.937183111906051636e-03
-3.110957145690917969e-02 -1.196888834238052368e-02 3.714369609951972961e-02
-5.797620490193367004e-02 4.250114783644676208e-02 4.505451396107673645e-02
-5.047011747956275940e-02 6.459671258926391602e-02 1.762625388801097870e-02
-3.988911584019660950e-02 -2.378477016463875771e-03 -4.071962833404541016e-02
1.557810790836811066e-02 3.935261815786361694e-02 -2.937565557658672333e-02
3.711498901247978210e-02 3.669805079698562622e-02 -8.497696369886398315e-03
7.204012572765350342e-02 -3.142478317022323608e-02 -5.869236215949058533e-02
-5.033189896494150162e-03 -1.263471134006977081e-02 -1.547805964946746826e-02
-2.576844766736030579e-02 -3.029828518629074097e-02 -1.816094480454921722e-02
-5.567776039242744446e-02 -6.946092098951339722e-02 -1.702999919652938843e-01
3.195466473698616028e-02 4.354634135961532593e-02 -3.019811213016510010e-01
4.417148977518081665e-02 -3.534296527504920959e-02 -2.651353478431701660e-01
3.164252266287803650e-02 3.933880478143692017e-02 2.283125370740890503e-02
5.332327261567115784e-02 3.212000429630279541e-02 6.530005484819412231e-02
1.897112652659416199e-02 1.871895976364612579e-02 3.218323737382888794e-02
-4.416742548346519470e-02 1.032260898500680923e-02 -2.506765723228454590e-02
-7.381756603717803955e-02 -1.165302470326423645e-02 3.049467504024505615e-02
-2.959732525050640106e-02 4.122811183333396912e-02 -2.333530224859714508e-02
-3.057032451033592224e-02 4.765606299042701721e-02 5.032612755894660950e-02
-5.765015631914138794e-02 2.292902953922748566e-02 -8.853135257959365845e-02
-7.400051504373550415e-02 -9.369178116321563721e-02 -6.611554324626922607e-02
-5.099837109446525574e-02 -7.912973314523696899e-02 -9.245719015598297119e-02
-3.241257742047309875e-02 -2.812230028212070465e-02 -3.501119837164878845e-02
-6.689526140689849854e-02 -1.400005724281072617e-02 -1.706857420504093170e-02
-3.058359958231449127e-02 -7.546571432612836361e-04 -3.503641858696937561e-02
5.951111391186714172e-02 7.184096425771713257e-02 6.679435819387435913e-02
4.240297153592109680e-02 8.215588517487049103e-03 5.326287820935249329e-02
2.866431884467601776e-02 -4.764508455991744995e-02 -4.407577216625213623e-02
6.495384126901626587e-02 3.742999956011772156e-02 1.171514391899108887e-02
6.107371672987937927e-02 2.640828490257263184e-02 -8.281386457383632660e-03
-1.275938153266906738e-01 -1.465283036231994629e-01 -1.810586154460906982e-01
-2.010018378496170044e-01 -2.168452292680740356e-01 -3.210598230361938477e-02
-1.909169405698776245e-01 -5.306938290596008301e-02 -9.854736924171447754e-02
2.310348860919475555e-02 3.395934775471687317e-02 1.534859091043472290e-02
2.918588183820247650e-02 4.742834251374006271e-03 7.082280516624450684e-02
6.218144297599792480e-02 -1.453023403882980347e-02 8.396266959607601166e-03
1.026039943099021912e-02 5.879588797688484192e-02 -1.259357295930385590e-02
-2.589885517954826355e-02 -2.129300124943256378e-02 3.095226595178246498e-03
-1.357071381062269211e-02 4.340311139822006226e-02 -1.691310293972492218e-02
8.766943216323852539e-02 5.605874955654144287e-02 -2.181417681276798248e-02
7.192649692296981812e-02 -7.701005786657333374e-02 -1.538805291056632996e-02
-7.000599801540374756e-02 -6.554011255502700806e-02 6.162382662296295166e-02
6.371431052684783936e-02 -5.224756896495819092e-03 5.784006044268608093e-02
-3.884143009781837463e-02 -3.678653761744499207e-02 4.597141221165657043e-02
4.827010631561279297e-02 5.809288006275892258e-03 1.069053262472152710e-01
-8.798775263130664825e-03 2.346557565033435822e-02 -3.825254365801811218e-02
4.679449368268251419e-03 -3.091881237924098969e-02 -3.898956999182701111e-02
-4.297734797000885010e-02 -3.510992974042892456e-02 2.043955773115158081e-02
1.154513470828533173e-02 3.588705137372016907e-02 -8.746063336730003357e-03
6.153676286339759827e-02 2.365057123824954033e-03 7.401097565889358521e-02
1.515351887792348862e-02 -1.680242276052013040e-04 -4.560292139649391174e-02
-2.927598543465137482e-02 6.584134884178638458e-03 2.490290999412536621e-02
7.197283208370208740e-03 -1.561613380908966064e-02 -1.433705561794340611e-03
-2.719160914421081543e-02 -2.721522562205791473e-02 -4.007010720670223236e-03
-2.370458282530307770e-02 1.741662435233592987e-02 -2.626282349228858948e-02
9.120021760463714600e-02 -1.085332129150629044e-02 -5.267084762454032898e-02
-1.095758378505706787e-02 -1.128375604748725891e-01 -4.116420820355415344e-02
-6.398916244506835938e-03 1.509385462850332260e-02 1.593198068439960480e-02
6.512250751256942749e-02 3.383549675345420837e-02 -5.154736712574958801e-02
1.547410269267857075e-03 -3.616259992122650146e-02 -4.574107751250267029e-02
-7.362910080701112747e-03 2.728906832635402679e-02 4.531548917293548584e-02
7.578819524496793747e-03 2.249850519001483917e-02 2.880332060158252716e-02
5.055091902613639832e-02 1.290938165038824081e-02 -2.952478826045989990e-03
2.147251367568969727e-02 -2.573499269783496857e-02 6.416980642825365067e-03
-1.232456881552934647e-02 -3.446992114186286926e-02 -7.686543464660644531e-02
-1.774885877966880798e-02 -3.604266420006752014e-02 -1.418699976056814194e-02
5.353120714426040649e-02 4.215074703097343445e-03 -1.886815950274467468e-02
1.474426873028278351e-02 5.539457872509956360e-02 6.688954774290323257e-03
-2.669699117541313171e-02 -2.946230024099349976e-02 2.500540576875209808e-02
-6.522475928068161011e-02 -3.486409038305282593e-02 4.663061723113059998e-02
-2.524976152926683426e-03 4.912261292338371277e-02 -8.019555243663489819e-04
-3.744253888726234436e-02 -8.585850708186626434e-03 4.950977861881256104e-02
2.462850697338581085e-02 -9.357165545225143433e-03 4.677447304129600525e-02
-9.167884476482868195e-03 -1.020917668938636780e-02 7.758973632007837296e-03
4.687437042593955994e-02 1.506645791232585907e-02 -7.585701998323202133e-03
-1.604698598384857178e-02 -6.158958747982978821e-02 -7.373546808958053589e-02
-8.057744801044464111e-02 -5.714108422398567200e-02 -2.196730487048625946e-02
-8.709406852722167969e-02 7.858277298510074615e-03 -6.884661316871643066e-02
8.361916244029998779e-02 7.703328877687454224e-02 -6.657952908426523209e-03
1.612108387053012848e-02 1.395186409354209900e-02 4.408296197652816772e-02
2.116201259195804596e-02 -1.271898276172578335e-03 -8.059875108301639557e-03
-2.262734621763229370e-02 2.322584576904773712e-02 4.819884430617094040e-03
3.086145594716072083e-02 3.780956193804740906e-02 -1.142103131860494614e-02
6.904249545186758041e-03 -6.721601635217666626e-02 -1.142852660268545151e-02
4.971174150705337524e-02 -6.313987541943788528e-03 -4.013226553797721863e-02
6.250750739127397537e-03 9.155957959592342377e-03 -2.812420390546321869e-02
9.691770188510417938e-03 -1.938594505190849304e-02 -2.359220944344997406e-02
2.378937974572181702e-02 -2.071622200310230255e-02 -2.637534961104393005e-02
3.240411728620529175e-02 -1.665574684739112854e-02 -1.961318776011466980e-02
9.031713008880615234e-03 3.140877187252044678e-02 3.822445124387741089e-02
3.512980788946151733e-02 -3.808995336294174194e-02 -2.162370365113019943e-03
2.807106822729110718e-02 -4.863688722252845764e-03 -1.605086214840412140e-02
4.141900688409805298e-02 2.349602058529853821e-02 -1.953019527718424797e-03
-3.427602583542466164e-03 5.038923397660255432e-02 2.899619750678539276e-03
-6.022567301988601685e-02 -4.484001919627189636e-02 -4.315911978483200073e-02
4.729442298412322998e-04 -2.556833997368812561e-02 -9.275964461266994476e-03
-2.528647892177104950e-02 2.755271270871162415e-02 1.512809563428163528e-02
4.924530163407325745e-02 -1.149491406977176666e-02 -5.915354122407734394e-04
4.657797887921333313e-02 -6.326234340667724609e-02 -4.129971563816070557e-02
1.904854923486709595e-02 -2.649997547268867493e-02 1.045237854123115540e-02
2.039778977632522583e-02 2.594229392707347870e-02 3.885622322559356689e-02
-1.910456339828670025e-03 5.582845211029052734e-02 4.568124562501907349e-02
1.878806762397289276e-02 1.776159182190895081e-02 2.055057510733604431e-02
3.268213570117950439e-02 6.621682643890380859e-02 1.320815272629261017e-02
3.123865090310573578e-02 1.064541190862655640e-02 4.496541991829872131e-02
-1.426818221807479858e-02 -1.686733216047286987e-02 -2.425840683281421661e-02
-9.664399549365043640e-03 1.462518237531185150e-02 -1.386209204792976379e-02
-1.196405943483114243e-02 5.328367277979850769e-02 3.667343175038695335e-03
-5.335844587534666061e-03 3.307708725333213806e-02 -4.292328655719757080e-02
3.791037201881408691e-02 -7.601462304592132568e-02 -7.255868613719940186e-02
-3.817173838615417480e-02 -8.187246322631835938e-02 1.318904338404536247e-03
6.962719559669494629e-02 -1.845906674861907959e-02 -5.467419326305389404e-02
6.055919453501701355e-02 3.577937558293342590e-02 -2.902044355869293213e-02
-5.867100786417722702e-03 1.126746879890561104e-03 -2.301129698753356934e-02
2.065188623964786530e-02 2.489678561687469482e-03 2.527953870594501495e-02
6.606723368167877197e-02 -4.558191169053316116e-03 -5.789174884557723999e-02
6.436103582382202148e-02 1.037397980690002441e-02 -1.367935445159673691e-03
1.697017811238765717e-02 2.845726162195205688e-02 4.619752243161201477e-02
2.364009991288185120e-02 4.611192736774682999e-03 2.130206674337387085e-02
3.022294305264949799e-02 -4.063520953059196472e-02 2.300744131207466125e-02
-6.075296550989151001e-02 -2.445116080343723297e-02 2.707419916987419128e-02
3.225288540124893188e-02 5.918578803539276123e-02 2.659577876329421997e-02
-7.990208454430103302e-03 1.477951183915138245e-02 2.190974727272987366e-02
1.196147059090435505e-03 -2.017511427402496338e-02 -4.095229506492614746e-02
1.050380319356918335e-01 3.450322151184082031e-02 -8.713844232261180878e-03
6.027767062187194824e-02 3.932168241590261459e-03 -1.298591867089271545e-02
4.138676449656486511e-02 4.603279754519462585e-02 2.987673878669738770e-02
6.012357026338577271e-02 3.051897510886192322e-02 -6.642098724842071533e-02
-2.287407405674457550e-03 -5.031630769371986389e-02 -1.112082153558731079e-01
2.055371413007378578e-03 -3.765430301427841187e-02 -4.731030017137527466e-02
9.576987475156784058e-03 -6.528980564326047897e-03 2.648583799600601196e-02
2.798292413353919983e-02 -3.396940976381301880e-02 3.029784746468067169e-02
2.122129499912261963e-02 3.289142251014709473e-02 -9.708101861178874969e-03
1.544872298836708069e-02 1.992102625081315637e-06 -2.202267013490200043e-02
-3.179015591740608215e-02 -4.245377331972122192e-02 2.399456314742565155e-02
4.524302203208208084e-03 3.945424780249595642e-02 -4.172270372509956360e-02
1.415208075195550919e-02 2.614223957061767578e-02 -3.205571556463837624e-03
4.130879789590835571e-02 -2.166328951716423035e-02 1.104100048542022705e-02
1.257141400128602982e-02 1.876582391560077667e-02 1.727541163563728333e-02
1.720777712762355804e-02 -2.307642623782157898e-02 -1.491188537329435349e-02
6.905394606292247772e-03 -9.459254890680313110e-02 4.074308276176452637e-02
-1.168311666697263718e-02 -1.543060503900051117e-02 -1.084492821246385574e-02
3.581731021404266357e-02 5.576502531766891479e-02 1.114848535507917404e-02
1.678057014942169189e-02 3.466225787997245789e-02 -4.080196097493171692e-02
-2.104687318205833435e-02 -1.637646369636058807e-02 1.957666128873825073e-02
-2.030197344720363617e-02 1.869883015751838684e-02 -1.745886914432048798e-02
1.593754068017005920e-02 4.606015980243682861e-02 7.399938255548477173e-02
1.166543830186128616e-02 4.130047559738159180e-02 5.681039765477180481e-02
4.615427181124687195e-02 8.391716331243515015e-02 4.429581388831138611e-02
-6.595750804990530014e-03 2.964678779244422913e-02 -1.014690846204757690e-01
2.019421756267547607e-02 2.122517675161361694e-02 -3.022872097790241241e-02
1.010092422366142273e-01 -1.611072942614555359e-02 1.356702297925949097e-02
7.270290702581405640e-02 -6.296321749687194824e-02 -2.721037901937961578e-02
2.754913177341222763e-03 2.739700861275196075e-02 -1.416828576475381851e-02
3.178460756316781044e-04 -6.079095881432294846e-03 -3.705769777297973633e-02
2.266686176881194115e-03 3.730434179306030273e-02 -3.589237853884696960e-02
-4.867239668965339661e-02 -2.784562483429908752e-02 1.051538740284740925e-03
1.601194962859153748e-02 3.408774361014366150e-02 -1.355917658656835556e-02
-1.808210462331771851e-02 -4.083022847771644592e-02 -5.659483373165130615e-02
6.627993285655975342e-02 1.209550653584301472e-03 2.159920521080493927e-02
9.383319877088069916e-03 1.300496608018875122e-01 -9.535247460007667542e-03
-2.095531485974788666e-02 3.384444490075111389e-02 1.077559310942888260e-03
-5.531192943453788757e-02 1.639048755168914795e-02 -6.161915883421897888e-02
-2.073496021330356598e-02 3.515226021409034729e-02 1.914612576365470886e-02
-5.262213200330734253e-02 7.431966811418533325e-02 -7.446924597024917603e-02
1.527791470289230347e-02 2.102118730545043945e-02 7.656344212591648102e-03
-4.266354080755263567e-04 6.683890707790851593e-03 -2.808512188494205475e-03
-4.945186432451009750e-03 -4.058662801980972290e-03 -2.017811685800552368e-02
9.685302153229713440e-03 -1.809224486351013184e-02 -2.232273668050765991e-02
-1.020571496337652206e-02 -1.259553013369441032e-03 -5.167993158102035522e-02
-2.241123467683792114e-03 -5.440274253487586975e-02 -3.406936675310134888e-02
-2.545480430126190186e-02 -2.104671113193035126e-02 -2.904198504984378815e-02
-1.403599511831998825e-02 -1.272127311676740646e-02 -1.048944052308797836e-02
-4.349685460329055786e-02 3.436543792486190796e-02 -1.819376088678836823e-02
3.309476003050804138e-02 2.622012794017791748e-02 7.867591083049774170e-02
9.619089961051940918e-02 -5.039848759770393372e-02 3.317833691835403442e-02
6.750945001840591431e-02 -6.938957422971725464e-02 -6.406246684491634369e-03
2.882262133061885834e-02 1.731002517044544220e-02 3.726028278470039368e-02
4.040383920073509216e-02 -4.990490525960922241e-02 2.775414660573005676e-02
-3.550694091245532036e-04 3.421574598178267479e-03 3.797780722379684448e-02
1.574454456567764282e-02 4.339770600199699402e-02 3.207797184586524963e-02
-4.658112674951553345e-02 6.293771415948867798e-02 -1.258440595120191574e-02
-5.120104178786277771e-02 4.749601334333419800e-02 -3.140968456864356995e-02
-2.248219773173332214e-02 3.084410354495048523e-02 -2.757033891975879669e-02
4.872691817581653595e-03 -1.031893584877252579e-02 -2.508603595197200775e-02
1.278214994817972183e-02 6.293786317110061646e-02 9.141387417912483215e-03
-2.089396817609667778e-03 -5.531866569072008133e-03 -2.851318754255771637e-02
-2.345396205782890320e-02 9.396711364388465881e-03 4.949393868446350098e-02
-4.910160601139068604e-02 1.677860133349895477e-02 -6.677536875940859318e-04
2.700581774115562439e-02 -4.372122883796691895e-02 -1.449071243405342102e-02
3.608933836221694946e-02 4.471192136406898499e-02 6.508623808622360229e-02
1.288402266800403595e-02 2.235742285847663879e-02 -5.944592412561178207e-03
-1.829178421758115292e-03 6.477262824773788452e-03 4.236283525824546814e-02
3.194092586636543274e-02 -2.370307035744190216e-02 -1.149952504783868790e-02
5.962268915027379990e-03 -3.598891943693161011e-02 -5.018969625234603882e-02
-5.823214538395404816e-03 -3.389611467719078064e-02 -2.299329265952110291e-03
4.216909036040306091e-02 -7.367253303527832031e-02 -2.601973712444305420e-03
-4.946702718734741211e-02 -2.662714384496212006e-02 3.251884365454316139e-03
2.235555648803710938e-02 -3.570595011115074158e-02 5.749918147921562195e-02
-5.335678905248641968e-02 -1.154340151697397232e-02 -2.384728193283081055e-02
-2.943562716245651245e-02 -3.578950464725494385e-02 4.962064791470766068e-03
1.506681460887193680e-02 -1.291814632713794708e-02 -7.245938479900360107e-02
-6.985595449805259705e-03 -1.756792142987251282e-02 -3.645113110542297363e-02
-6.565622985363006592e-02 2.276136912405490875e-02 -4.798413440585136414e-02
4.015233367681503296e-03 1.815896667540073395e-02 -4.930617287755012512e-03
-1.306696143001317978e-02 1.139933709055185318e-03 5.033605918288230896e-02
-1.007345039397478104e-02 -4.264198243618011475e-03 1.141232158988714218e-02
-7.770144380629062653e-03 -7.735221087932586670e-02 3.781443834304809570e-02
3.617012873291969299e-02 -5.981755908578634262e-03 5.960825830698013306e-03
-9.315915405750274658e-03 -3.727595880627632141e-02 2.901384979486465454e-02
-3.699020715430378914e-03 6.297822296619415283e-02 3.454854339361190796e-02
-6.773970276117324829e-02 1.263194251805543900e-02 2.490423806011676788e-02
-8.291435986757278442e-02 4.142838716506958008e-02 5.259805917739868164e-02
-3.770135715603828430e-02 -1.416581030935049057e-02 -3.630546387284994125e-03
1.598163158632814884e-03 -1.905696466565132141e-02 -2.707141079008579254e-02
2.652198448777198792e-02 -3.055710345506668091e-02 5.104031041264533997e-02
-3.570663684513419867e-04 2.786814421415328979e-02 1.476974133402109146e-02
-7.634802721440792084e-03 1.385580189526081085e-02 3.092074953019618988e-02
-2.561093680560588837e-02 2.759826602414250374e-04 -9.845218621194362640e-03
-2.464380674064159393e-02 1.960944756865501404e-02 6.256763823330402374e-03
-2.536933124065399170e-02 -3.818311542272567749e-02 4.474262148141860962e-02
-4.880913347005844116e-02 -4.582148790359497070e-02 2.746663056313991547e-02
-4.779635928571224213e-03 -4.721419420093297958e-03 3.067428432404994965e-02
-1.195047143846750259e-02 -4.325175657868385315e-02 -4.182849545031785965e-03
-1.442432682961225510e-02 -1.263575553894042969e-01 1.014350540935993195e-02
-6.979554891586303711e-02 1.546344254165887833e-02 3.263156116008758545e-02
-2.730816788971424103e-02 7.042478024959564209e-02 2.823797799646854401e-02
3.852468729019165039e-02 -2.669563330709934235e-02 -6.903449445962905884e-02
4.233942553400993347e-02 -7.188959978520870209e-03 -6.732750684022903442e-03
2.390857407590374351e-04 -3.977641928941011429e-03 -1.825568638741970062e-02
1.036084722727537155e-02 3.800920210778713226e-03 -3.197204321622848511e-02
-3.714777529239654541e-02 6.125928834080696106e-02 -3.616606071591377258e-02
1.757889799773693085e-02 4.525001347064971924e-02 -3.632549662142992020e-03
5.279699340462684631e-02 2.597723901271820068e-02 2.602574788033962250e-02
-1.660564728081226349e-02 -4.482868593186140060e-03 -5.435063038021326065e-03
2.597024291753768921e-02 1.037704348564147949e-01 7.691145688295364380e-02
-4.667363595217466354e-03 1.250090152025222778e-01 3.416403755545616150e-02
-1.510555576533079147e-02 7.164518348872661591e-03 9.725985117256641388e-03
3.744152560830116272e-02 -1.596318557858467102e-02 4.457434639334678650e-02
1.142408605664968491e-02 -9.534311480820178986e-03 1.262049097567796707e-02
1.506636664271354675e-02 -1.672896184027194977e-02 5.960334464907646179e-02
1.172394375316798687e-03 6.265723146498203278e-03 1.658199168741703033e-02
-6.482020765542984009e-02 1.853213086724281311e-02 -6.559095811098814011e-03
-3.240782767534255981e-02 2.471438981592655182e-02 2.111526578664779663e-02
-2.163222990930080414e-02 2.994380146265029907e-02 -5.241289734840393066e-02
3.895607776939868927e-03 -3.841771557927131653e-02 -3.210075572133064270e-02
-4.835369065403938293e-03 5.397258326411247253e-02 3.791379556059837341e-02
-5.138001590967178345e-02 2.502225153148174286e-02 2.220841869711875916e-02
-7.873916625976562500e-02 2.307866699993610382e-02 -4.931129887700080872e-02
-5.795224569737911224e-03 8.742173761129379272e-02 -7.798333652317523956e-03
1.508658938109874725e-02 1.540725305676460266e-02 4.584536328911781311e-02
-2.722922246903181076e-03 9.116148576140403748e-03 9.596926160156726837e-03
1.408429257571697235e-02 -3.876772150397300720e-02 2.969729527831077576e-02
2.046576142311096191e-02 8.222474571084603667e-05 1.468085963279008865e-02
-5.229336209595203400e-03 -6.341585516929626465e-02 2.676767529919743538e-03
3.236230462789535522e-02 2.513196319341659546e-03 2.858085371553897858e-02
4.177685081958770752e-02 3.316580504179000854e-02 -1.394740212708711624e-02
-1.402079220861196518e-02 2.152709849178791046e-02 -3.322530537843704224e-02
2.287367172539234161e-02 -4.880263470113277435e-03 -3.275214508175849915e-02
-2.022652886807918549e-02 -4.385307431221008301e-03 -5.436298251152038574e-02
-2.551640197634696960e-02 1.245900709182024002e-02 -2.321810461580753326e-02
2.003800589591264725e-03 7.675273809581995010e-03 3.596924617886543274e-02
-2.389013580977916718e-02 2.726406790316104889e-02 2.189019322395324707e-02
-2.652234956622123718e-02 7.264178711920976639e-03 1.164031773805618286e-02
2.607891522347927094e-02 -3.921704774256795645e-05 3.448390215635299683e-02
1.562985777854919434e-02 1.088087633252143860e-02 2.800436504185199738e-02
-5.353940650820732117e-02 3.306921571493148804e-02 -2.598903141915798187e-02
1.986452564597129822e-02 -8.575384318828582764e-02 -4.284948483109474182e-02
-7.304241508245468140e-02 -7.658913265913724899e-03 9.774705395102500916e-03
-4.052212089300155640e-02 -1.193299237638711929e-02 -4.758590459823608398e-02
-4.263823479413986206e-02 2.249661274254322052e-02 -6.904507055878639221e-03
2.947657555341720581e-02 -1.485914830118417740e-02 3.602761402726173401e-02
4.274141509085893631e-03 8.202747441828250885e-03 -3.355263732373714447e-03
2.461677044630050659e-02 -1.285342872142791748e-02 2.275689132511615753e-02
5.365139339119195938e-03 -4.408504813909530640e-02 5.673619359731674194e-02
-6.812458392232656479e-03 -3.929072991013526917e-03 2.286132797598838806e-02
3.343666717410087585e-02 1.666387729346752167e-02 6.595946848392486572e-03
-7.094991160556674004e-04 3.232052177190780640e-02 2.713578008115291595e-02
-1.778239198029041290e-02 3.967797756195068359e-02 1.738461852073669434e-02
6.269275397062301636e-02 -3.505318984389305115e-02 1.960464008152484894e-02
1.445802743546664715e-03 -2.367950417101383209e-02 3.018015809357166290e-02
1.885937154293060303e-02 -1.716785691678524017e-02 4.294936358928680420e-02
-1.867548562586307526e-03 4.386869445443153381e-02 -7.587121799588203430e-03
-2.455129986628890038e-03 1.034216117113828659e-02 -7.428804785013198853e-02
-1.160035189241170883e-02 7.273593544960021973e-02 -7.810384966433048248e-03
-2.819180488586425781e-02 -6.964240688830614090e-03 9.051846573129296303e-04
4.526625573635101318e-02 5.484662204980850220e-02 -5.747868493199348450e-02
2.734743291512131691e-03 -4.983850754797458649e-03 1.851732842624187469e-02
2.192875184118747711e-02 7.843691855669021606e-03 3.965116920880973339e-04
-1.960828714072704315e-02 1.957899890840053558e-03 -2.196148736402392387e-03
-2.149482257664203644e-02 -1.146968360990285873e-02 4.292567074298858643e-02
3.135215118527412415e-02 -2.955550886690616608e-02 1.759224943816661835e-02
2.554915845394134521e-02 1.491237431764602661e-02 2.077321894466876984e-02
1.289548724889755249e-02 2.127850614488124847e-02 -6.183451972901821136e-03
1.149940676987171173e-02 4.201154783368110657e-02 2.792376093566417694e-02
-1.888227066956460476e-03 2.736223116517066956e-02 2.209603227674961090e-02
3.648335812613368034e-03 -5.568807572126388550e-02 -4.456106573343276978e-02
-1.473711337894201279e-02 1.057730405591428280e-03 -2.567915059626102448e-02
-2.065372280776500702e-02 3.440881147980690002e-02 -1.782949827611446381e-02
6.194917857646942139e-02 1.796586439013481140e-02 -3.013351745903491974e-02
5.804762244224548340e-02 -3.969764336943626404e-02 -2.642772346735000610e-02
-1.160512119531631470e-02 -6.959199160337448120e-02 -3.345026867464184761e-03
8.988433517515659332e-03 6.313619762659072876e-02 1.248547155410051346e-02
-5.073152109980583191e-02 1.487325225025415421e-02 -3.142736107110977173e-02
-1.848436892032623291e-02 -8.431684225797653198e-03 1.848145201802253723e-02
-4.906854033470153809e-02 -1.283025648444890976e-02 -4.001504555344581604e-02
-9.381764568388462067e-03 -3.597098216414451599e-02 -7.261218968778848648e-03
-5.523643642663955688e-02 -6.666181143373250961e-03 3.466187044978141785e-02
-2.071527414955198765e-04 1.032378431409597397e-02 1.453264988958835602e-02
-3.539703413844108582e-02 -4.500813083723187447e-04 3.761038184165954590e-02
5.732984864152967930e-04 1.579717919230461121e-02 -3.658930212259292603e-02
-3.424296155571937561e-02 6.925287190824747086e-03 3.701471537351608276e-02
-2.426485903561115265e-02 6.911003962159156799e-03 2.185096219182014465e-02
1.045616995543241501e-02 -5.886593461036682129e-02 -3.932952135801315308e-02
-1.030443608760833740e-01 -3.029300272464752197e-02 4.289120435714721680e-02
-3.785137459635734558e-02 -4.928226768970489502e-02 1.132435444742441177e-02
5.058282054960727692e-03 6.769721955060958862e-02 1.438981201499700546e-02
-3.271703794598579407e-02 3.699456527829170227e-02 -6.985020823776721954e-03
-9.415255859494209290e-03 -9.402369149029254913e-03 -1.587882079184055328e-02
1.874239929020404816e-02 1.493348972871899605e-03 -1.138164475560188293e-02
8.816479705274105072e-03 3.456518054008483887e-02 4.964243620634078979e-02
-8.832254447042942047e-03 1.609092205762863159e-02 4.375571012496948242e-02
7.115121465176343918e-03 -7.897175848484039307e-03 1.958964392542839050e-02
-1.449796138331294060e-03 -6.144485087133944035e-05 -4.442083183676004410e-03
-2.224843949079513550e-02 -5.317609291523694992e-03 -2.296696230769157410e-02
-3.547000698745250702e-03 -1.022694996208883822e-04 -1.257831417024135590e-02
-5.663856398314237595e-03 6.839574873447418213e-02 3.015553578734397888e-03
4.922334477305412292e-02 4.023503977805376053e-03 4.924281686544418335e-02
3.404594212770462036e-02 8.924411376938223839e-04 3.644448891282081604e-02
3.372747451066970825e-02 2.311619929969310760e-02 -1.706178486347198486e-02
3.255268186330795288e-02 1.513263490051031113e-02 -2.489662729203701019e-02
2.135777287185192108e-02 1.439530402421951294e-02 -7.309279590845108032e-02
-9.226836264133453369e-03 2.274264208972454071e-02 -3.212802484631538391e-02
-1.112459599971771240e-02 2.209225203841924667e-03 3.969752788543701172e-02
-2.716643735766410828e-02 4.265531525015830994e-02 -1.948563149198889732e-03
-6.810275465250015259e-02 -3.335040435194969177e-02 -2.385096065700054169e-02
9.510120376944541931e-03 5.896364152431488037e-02 3.528741002082824707e-02
2.656707540154457092e-02 -4.785674158483743668e-03 -4.550068825483322144e-02
1.276675704866647720e-02 -5.843180790543556213e-02 2.513843774795532227e-02
1.572607783600687981e-03 -3.182055056095123291e-02 2.487706020474433899e-02
-3.172975778579711914e-02 -2.780709974467754364e-02 -1.862792111933231354e-02
-3.922371938824653625e-02 -3.713241964578628540e-02 -4.664061218500137329e-02
-4.119154810905456543e-02 4.413624294102191925e-03 -7.792080752551555634e-03
9.962806478142738342e-03 2.749543450772762299e-02 1.827825419604778290e-02
-4.010185599327087402e-02 4.749879240989685059e-02 1.379589177668094635e-02
2.371523715555667877e-02 4.313444346189498901e-02 4.094598814845085144e-02
1.145948283374309540e-02 5.266823992133140564e-02 4.328697919845581055e-02
3.791750641539692879e-03 5.317335203289985657e-02 3.333087265491485596e-02
4.128785803914070129e-02 -2.825831435620784760e-02 -1.518049556761980057e-02
-3.768400847911834717e-02 -1.349362079054117203e-02 -2.428306639194488525e-02
-2.029805630445480347e-02 -2.381138876080513000e-02 5.959996953606605530e-02
1.118910219520330429e-02 4.638316854834556580e-02 -1.145581901073455811e-02
-4.742337856441736221e-03 3.753384202718734741e-02 -5.874821543693542480e-02
3.271561861038208008e-02 -4.592989757657051086e-02 -5.661314353346824646e-02
-2.385141560807824135e-03 3.208165988326072693e-02 5.271263420581817627e-02
1.700428500771522522e-02 2.729961462318897247e-02 3.931527212262153625e-02
-2.324670553207397461e-02 -4.900459945201873779e-02 5.330917239189147949e-02
-1.714588957838714123e-03 1.678103394806385040e-02 5.138229206204414368e-02
6.860047578811645508e-02 2.020898088812828064e-02 -1.104095391929149628e-02
-3.348854556679725647e-02 -3.485390171408653259e-02 -1.888846792280673981e-02
-4.457209631800651550e-02 -8.078235201537609100e-03 6.300984881818294525e-03
2.911751903593540192e-02 1.427898928523063660e-02 5.831173434853553772e-02
-8.476939052343368530e-03 6.163723766803741455e-03 9.274681098759174347e-03
2.002385817468166351e-02 6.606651004403829575e-03 -2.410888858139514923e-02
1.014513149857521057e-02 2.621487714350223541e-03 -1.889164559543132782e-02
2.041281387209892273e-02 -1.296945195645093918e-02 -4.121811315417289734e-02
5.982251465320587158e-02 7.643067836761474609e-02 -6.269278377294540405e-02
7.377266301773488522e-04 -5.114399269223213196e-02 -5.078822001814842224e-02
-3.767661005258560181e-02 -4.341534897685050964e-02 -2.918688952922821045e-02
-2.985725179314613342e-02 -6.740208715200424194e-03 1.616694405674934387e-02
-4.027714952826499939e-02 -4.508705437183380127e-02 1.191587932407855988e-02
-2.737067081034183502e-02 -3.091643005609512329e-02 7.743549346923828125e-02
2.467329241335391998e-02 2.991284243762493134e-02 1.954898796975612640e-02
-8.295840583741664886e-03 1.402331236749887466e-02 6.677652895450592041e-02
-4.238033294677734375e-02 2.238260954618453979e-02 2.998978889081627131e-04
1.901905983686447144e-02 -3.177350386977195740e-02 -4.542038962244987488e-02
-7.059157639741897583e-02 3.270618245005607605e-02 -1.883072778582572937e-02
1.700657187029719353e-03 -1.630680169910192490e-03 8.169527864083647728e-04
-4.221652634441852570e-03 -1.318155601620674133e-02 3.072353824973106384e-02
-2.868391573429107666e-02 2.716552652418613434e-02 1.459545642137527466e-02
-2.427313104271888733e-02 3.380485624074935913e-02 1.011454220861196518e-02
-1.112249330617487431e-03 1.949859596788883209e-02 -4.437548667192459106e-02
2.815454639494419098e-02 7.215838413685560226e-03 9.897660464048385620e-03
5.750392563641071320e-03 -4.118538461625576019e-03 2.654325589537620544e-02
2.171878237277269363e-03 7.518053799867630005e-02 3.738665021955966949e-03
7.156711816787719727e-02 9.864966571331024170e-02 1.807494089007377625e-02
6.455729901790618896e-02 -2.297379076480865479e-02 -6.455304473638534546e-02
1.794757990865036845e-04 -2.109155058860778809e-02 -8.381550200283527374e-03
3.366549685597419739e-02 6.334809213876724243e-02 2.096801996231079102e-02
6.153371930122375488e-02 -2.392715308815240860e-03 1.299041439779102802e-03
-1.593481376767158508e-02 1.525411847978830338e-02 -2.749289944767951965e-02
-2.408926561474800110e-02 -2.361322008073329926e-02 -1.176312845200300217e-02
-2.775647211819887161e-03 -6.801582872867584229e-03 -1.359864603728055954e-02
5.443487898446619511e-04 -3.238372504711151123e-02 6.537305563688278198e-02
3.403226286172866821e-02 2.080774679780006409e-02 3.766375035047531128e-02
3.677954524755477905e-02 -2.647672314196825027e-03 2.166044898331165314e-02
2.627445757389068604e-02 1.562461443245410919e-02 -5.091014131903648376e-02
2.628074027597904205e-02 -1.332325860857963562e-03 -3.968049772083759308e-03
-3.360456228256225586e-02 -4.341834224760532379e-03 -7.592304795980453491e-02
-9.977532550692558289e-03 -1.939406432211399078e-02 3.673455864191055298e-02
2.670668065547943115e-03 2.633339725434780121e-03 -1.871679723262786865e-02
2.665470167994499207e-02 -4.718615673482418060e-03 -5.725525692105293274e-02
-3.161434084177017212e-02 -6.794156134128570557e-02 -3.342349454760551453e-02
-1.645687595009803772e-02 -3.217396885156631470e-02 -3.259166702628135681e-02
-9.262378327548503876e-03 -4.729297757148742676e-02 -4.674107767641544342e-04
2.721902169287204742e-02 -1.554763293825089931e-03 1.743097230792045593e-02
4.461240489035844803e-03 3.017720952630043030e-02 1.432491932064294815e-02
-1.748445816338062286e-02 1.082285121083259583e-02 2.505917102098464966e-02
2.792307361960411072e-02 8.154497481882572174e-03 -6.008492782711982727e-02
-2.543314546346664429e-02 1.127488259226083755e-02 2.351623261347413063e-03
1.625811681151390076e-02 -6.445207633078098297e-03 2.750587277114391327e-02
-3.112332150340080261e-02 -4.192817211151123047e-02 5.229096487164497375e-02
5.633261054754257202e-02 -5.049121379852294922e-02 5.315210297703742981e-02
-4.167030379176139832e-02 -3.728736564517021179e-02 -1.912812888622283936e-02
5.713228881359100342e-02 1.311156749725341797e-01 -1.520641241222620010e-02
7.385239750146865845e-02 5.692579597234725952e-02 -8.833942562341690063e-02
-6.944558117538690567e-03 -2.296583727002143860e-02 -2.867553755640983582e-02
5.279884114861488342e-02 -6.483476608991622925e-02 -4.904720559716224670e-02
-8.133211522363126278e-04 2.565552666783332825e-02 -1.539869885891675949e-02
2.249460853636264801e-02 3.127713128924369812e-02 3.575152368284761906e-04
1.294634211808443069e-02 -1.305471081286668777e-02 -8.588856086134910583e-03
2.602305263280868530e-02 1.985064335167407990e-02 -5.083651095628738403e-02
8.783187717199325562e-03 -1.729445648379623890e-03 -8.003192022442817688e-03
-4.591146856546401978e-02 -1.823146827518939972e-02 -4.070672206580638885e-03
1.366306655108928680e-02 4.437976330518722534e-02 -6.369819492101669312e-02
-3.257169947028160095e-02 -1.567986607551574707e-02 -4.039361700415611267e-02
1.333029591478407383e-03 -1.470735110342502594e-02 4.721332713961601257e-02
-3.025878965854644775e-02 2.257394790649414062e-02 -1.146152615547180176e-02
2.321519143879413605e-02 4.904757812619209290e-02 -1.849370636045932770e-02
-1.743124425411224365e-02 4.359815269708633423e-02 3.043547645211219788e-02
3.091694228351116180e-02 -1.633037254214286804e-02 -1.233810465782880783e-02
1.173809636384248734e-02 -1.787773706018924713e-02 7.813794072717428207e-04
1.104111876338720322e-02 1.837403688114136457e-04 4.173720628023147583e-02
-4.340214282274246216e-02 6.588567048311233521e-03 5.677734687924385071e-02
1.341672893613576889e-02 -1.250034198164939880e-02 -5.625233054161071777e-03
1.159271411597728729e-02 1.132516749203205109e-02 -5.856260657310485840e-02
7.021753583103418350e-03 -1.970008201897144318e-02 -5.363805219531059265e-02
4.158996790647506714e-02 -1.677987165749073029e-02 5.120921134948730469e-02
-1.246605301275849342e-03 1.928925327956676483e-02 -2.445048466324806213e-02
-9.390693157911300659e-02 5.306772142648696899e-02 1.197365019470453262e-02
-1.767182163894176483e-02 -2.456732280552387238e-02 2.928829938173294067e-02
-6.974434480071067810e-03 2.903788164258003235e-02 2.350007928907871246e-02
-1.762531138956546783e-02 4.037604480981826782e-02 5.057487264275550842e-02
-2.654703520238399506e-02 1.962116220965981483e-03 6.512273848056793213e-02
-1.942985691130161285e-02 2.272370457649230957e-02 -4.540098085999488831e-02
8.818905800580978394e-03 -5.169389024376869202e-02 -6.741765141487121582e-02
-1.218163175508379936e-03 3.119761531706899405e-04 -2.367395348846912384e-02
-8.625543676316738129e-03 1.579519361257553101e-02 -1.510466355830430984e-02
2.187917754054069519e-02 5.107924342155456543e-02 -2.925563231110572815e-02
3.488264977931976318e-02 -2.888510562479496002e-02 1.378453616052865982e-02
4.717750009149312973e-03 6.306669861078262329e-02 2.578548155725002289e-02
7.599715143442153931e-02 8.506041020154953003e-02 1.816380023956298828e-02
-7.945879362523555756e-03 6.476662307977676392e-02 -1.562969200313091278e-02
3.166676685214042664e-02 1.768532954156398773e-02 1.343776937574148178e-03
-3.329417668282985687e-03 1.667856797575950623e-02 3.622641786932945251e-03
-2.627090737223625183e-02 3.518104087561368942e-03 -5.639913678169250488e-02
-9.305610321462154388e-03 2.782231941819190979e-02 -6.532287690788507462e-03
-2.494776435196399689e-02 3.488432615995407104e-02 -6.567037780769169331e-04
-1.788923516869544983e-02 -6.106106564402580261e-03 7.921563461422920227e-03
3.223827481269836426e-02 5.599851906299591064e-02 -1.033809036016464233e-02
6.312798708677291870e-02 2.901370404288172722e-03 4.694914817810058594e-02
8.080619154497981071e-04 5.163569003343582153e-03 -1.269815303385257721e-02
2.590204216539859772e-02 -7.889405824244022369e-04 -1.410426571965217590e-02
6.878938525915145874e-02 -2.966579049825668335e-03 4.332252591848373413e-02
5.697237793356180191e-03 -5.145219154655933380e-03 -1.250109169632196426e-02
-4.468197468668222427e-03 -1.895253174006938934e-02 -2.749845571815967560e-02
-7.233473658561706543e-02 -4.333106055855751038e-02 -4.254364408552646637e-03
3.339872881770133972e-02 5.323341581970453262e-03 2.693828754127025604e-02
-5.450682342052459717e-02 -6.316234916448593140e-02 -8.914547972381114960e-03
5.540955811738967896e-02 -8.249365724623203278e-03 3.745994716882705688e-02
-2.222281135618686676e-02 -3.454611171036958694e-03 5.137474089860916138e-02
-5.862784106284379959e-03 9.390802006237208843e-04 3.207417577505111694e-02
8.856333792209625244e-03 -2.787997946143150330e-02 -1.287038065493106842e-02
-2.177737094461917877e-02 -1.632778532803058624e-02 -1.044137775897979736e-02
4.197462648153305054e-02 1.781111024320125580e-02 1.394691132009029388e-02
-1.007377053610980511e-03 -5.410174280405044556e-02 1.572361961007118225e-02
2.770772203803062439e-02 -5.473278462886810303e-03 -8.122831583023071289e-02
6.561242975294589996e-03 2.915003709495067596e-02 -2.799661271274089813e-02
5.780910328030586243e-02 4.926123842597007751e-02 1.262196712195873260e-02
1.616734452545642853e-02 -1.619943417608737946e-02 2.160941064357757568e-02
1.023182179778814316e-03 2.312417328357696533e-02 1.399279758334159851e-02
5.421388894319534302e-02 2.778091654181480408e-02 2.630164287984371185e-02
-3.907433524727821350e-02 -1.012945920228958130e-02 4.655307624489068985e-03
5.124572291970252991e-02 -9.509148076176643372e-03 -5.828064866364002228e-03
-2.199470531195402145e-03 1.158978231251239777e-02 1.288135349750518799e-02
2.003474161028862000e-02 -2.704111672937870026e-02 -2.795735001564025879e-02
