-3.870468586683273315e-02 -6.987398117780685425e-02 -2.604509145021438599e-02
-2.436876669526100159e-02 3.232454508543014526e-02 -6.457841396331787109e-02
3.684604773297905922e-03 8.396413922309875488e-02 3.541673719882965088e-02
-5.720615759491920471e-02 -7.494250684976577759e-02 -1.497775036841630936e-02
-3.182308375835418701e-02 3.685798728838562965e-03 1.142330374568700790e-02
6.198979448527097702e-03 -2.271018177270889282e-02 2.052431367337703705e-02
-9.758473606780171394e-04 1.753263361752033234e-02 -7.106412202119827271e-03
1.729108951985836029e-02 2.309021726250648499e-02 -1.412162557244300842e-02
-3.673138469457626343e-02 -1.738714426755905151e-02 2.594063431024551392e-02
4.613758623600006104e-02 5.165256932377815247e-02 -6.362071633338928223e-02
4.100331291556358337e-02 1.240839250385761261e-02 -7.371807936578989029e-03
-2.382924407720565796e-02 -8.479276299476623535e-02 -3.982280194759368896e-02
-4.273275285959243774e-02 -2.536997571587562561e-02 -1.996126957237720490e-02
-7.100947946310043335e-02 -6.244528666138648987e-02 -5.174716934561729431e-02
6.590346340090036392e-03 -5.384773015975952148e-02 8.479299955070018768e-03
1.872348412871360779e-02 4.937772452831268311e-02 -6.225089728832244873e-02
-2.739725820720195770e-02 -4.177269525825977325e-03 -2.375826798379421234e-02
-7.305355975404381752e-04 8.882106281816959381e-03 2.102637430652976036e-03
-3.622867166996002197e-02 4.460845608264207840e-03 -1.379504241049289703e-02
2.044263482093811035e-02 1.159042119979858398e-02 -1.275380514562129974e-02
4.459239542484283447e-02 -4.870555922389030457e-02 -1.050441488623619080e-01
-1.621616655029356480e-03 6.525746546685695648e-03 1.668789610266685486e-02
2.037997171282768250e-02 6.294076889753341675e-02 1.129237934947013855e-01
1.356313843280076981e-02 7.985340803861618042e-02 -6.902668159455060959e-03
5.401165038347244263e-02 2.652112208306789398e-02 3.112657368183135986e-02
2.307029627263545990e-02 -2.558987215161323547e-02 6.759360549040138721e-04
6.642005592584609985e-02 2.287500165402889252e-02 -4.580877721309661865e-03
-2.798393368721008301e-02 -4.440835118293762207e-02 1.681511290371417999e-02
-1.278763636946678162e-02 -2.671654894948005676e-02 1.145013328641653061e-02
3.293253853917121887e-02 5.062035843729972839e-02 2.189107052981853485e-02
5.420952290296554565e-02 4.691796377301216125e-02 -1.189165655523538589e-02
-1.694025285542011261e-02 -2.820022776722908020e-02 6.271840538829565048e-03
1.082668639719486237e-02 1.244753482751548290e-03 1.701286435127258301e-02
-4.413076862692832947e-02 4.378202557563781738e-02 2.694630809128284454e-02
6.561900489032268524e-03 3.663859516382217407e-02 -1.445372216403484344e-02
-6.176752224564552307e-02 -8.453319780528545380e-03 -7.006095256656408310e-03
3.754802048206329346e-02 3.135119006037712097e-02 -2.868516370654106140e-03
-3.299007192254066467e-02 3.692258521914482117e-02 -3.650183230638504028e-02
-9.830397367477416992e-02 -4.739360138773918152e-02 -1.068977639079093933e-01
3.824803233146667480e-02 4.476263374090194702e-02 8.625371754169464111e-02
-3.079777210950851440e-02 3.602398559451103210e-03 -2.732457220554351807e-02
-5.023442208766937256e-03 4.716721177101135254e-02 2.546304464340209961e-02
3.647090634331107140e-03 8.782630786299705505e-03 1.084335520863533020e-02
-5.046274047344923019e-03 2.689264900982379913e-02 -1.192006561905145645e-02
4.386939853429794312e-02 -2.498178184032440186e-02 -3.564581647515296936e-02
2.840156853199005127e-02 6.782482564449310303e-02 -1.359272375702857971e-02
8.940295130014419556e-02 9.153505414724349976e-02 -1.528436038643121719e-02
5.058643221855163574e-02 -2.188581787049770355e-02 2.418895997107028961e-02
4.084681347012519836e-02 -1.518726721405982971e-02 -8.556951768696308136e-03
-2.653741091489791870e-02 -9.695448912680149078e-03 1.693765819072723389e-02
5.539162084460258484e-02 2.532756887376308441e-02 5.083030462265014648e-02
3.456599079072475433e-03 1.863884925842285156e-02 2.615897357463836670e-02
-1.143889687955379486e-02 -8.364806324243545532e-02 -1.755108870565891266e-02
-1.746470853686332703e-02 3.869247157126665115e-03 -1.605071127414703369e-02
-2.950935997068881989e-02 7.487252820283174515e-03 -5.409288685768842697e-03
-4.816064611077308655e-02 -3.768165409564971924e-02 -4.934600368142127991e-02
-4.179090261459350586e-02 -1.325814872980117798e-01 3.415733948349952698e-02
2.225202508270740509e-02 -1.374214515089988708e-02 6.190231069922447205e-03
1.379375532269477844e-02 1.741934940218925476e-02 5.272195860743522644e-02
1.449935510754585266e-02 -4.916123300790786743e-02 4.670863598585128784e-02
-1.226688362658023834e-02 -6.358464062213897705e-02 5.649502202868461609e-02
1.854586601257324219e-02 2.205830812454223633e-02 -3.257119096815586090e-03
-1.352233812212944031e-02 -6.469317246228456497e-03 4.326291382312774658e-02
-1.804446615278720856e-02 2.839164808392524719e-02 4.928828775882720947e-02
-3.083298355340957642e-02 -2.080846577882766724e-02 -6.185861304402351379e-02
-1.417192257940769196e-02 1.196989137679338455e-02 -1.961163990199565887e-02
-2.380748093128204346e-02 -1.242395211011171341e-02 -3.111935220658779144e-02
8.898545056581497192e-03 -3.535854816436767578e-02 2.125713787972927094e-02
-1.142079383134841919e-02 -1.037114672362804413e-02 -3.158671408891677856e-02
3.844283148646354675e-02 -3.048044070601463318e-02 -2.891784347593784332e-02
1.218146737664937973e-02 -3.881423920392990112e-02 -8.694395422935485840e-03
3.214021399617195129e-02 -1.476537436246871948e-02 1.402821764349937439e-02
-2.518670633435249329e-03 9.482764638960361481e-03 3.523593023419380188e-02
5.672520771622657776e-02 -2.512521110475063324e-03 3.159621730446815491e-02
-1.559415180236101151e-02 1.972628943622112274e-02 4.665020387619733810e-03
6.555026024580001831e-02 1.721362583339214325e-02 3.700990602374076843e-02
5.537917837500572205e-02 6.257972214370965958e-03 2.827625721693038940e-02
-6.844817101955413818e-02 -3.956950083374977112e-02 -3.429777920246124268e-02
6.533396895974874496e-03 -2.226256579160690308e-02 -5.978995189070701599e-02
3.965315967798233032e-02 -1.235993951559066772e-02 -9.013043344020843506e-02
1.221614424139261246e-02 3.622209886088967323e-03 -6.441381294280290604e-03
-2.488350030034780502e-03 -3.162043169140815735e-02 -3.429843485355377197e-02
8.352926932275295258e-03 -1.776698231697082520e-02 -2.062619663774967194e-02
2.172759175300598145e-02 5.603372305631637573e-02 2.288181334733963013e-02
3.916437178850173950e-02 -1.912647485733032227e-02 -9.368243627250194550e-03
-3.041318431496620178e-02 -7.688831072300672531e-03 -4.099786654114723206e-02
-1.324491854757070541e-02 1.658888719975948334e-02 -7.069894671440124512e-02
-2.704848162829875946e-02 -2.829805761575698853e-02 6.244950369000434875e-02
-1.602122560143470764e-02 7.507993839681148529e-03 -4.246115218847990036e-03
-2.774200215935707092e-02 1.443649642169475555e-02 -7.952256128191947937e-03
4.080667346715927124e-02 -3.442707657814025879e-02 -1.079049333930015564e-02
-3.332576155662536621e-02 5.315686389803886414e-02 4.877728968858718872e-02
2.444454841315746307e-02 3.285875916481018066e-02 3.246528794988989830e-03
2.311242744326591492e-02 2.651832182891666889e-04 -6.330751813948154449e-03
7.712677866220474243e-02 -3.977009654045104980e-02 3.574870899319648743e-02
2.943525556474924088e-03 -3.362617641687393188e-02 4.609889537096023560e-02
4.865473508834838867e-02 -1.017101458273828030e-03 3.266316279768943787e-02
-3.454061225056648254e-02 1.703080162405967712e-02 -5.018918961286544800e-02
-3.611421957612037659e-02 -6.468842923641204834e-02 -9.190279245376586914e-02
5.818618461489677429e-03 -6.560950726270675659e-02 4.508519545197486877e-03
-3.476005420088768005e-02 4.334605112671852112e-02 -3.996928036212921143e-02
1.798566803336143494e-02 6.820084154605865479e-02 2.869641967117786407e-02
-3.020882233977317810e-02 1.172994226217269897e-01 3.896158561110496521e-02
-3.699029609560966492e-02 -4.263586923480033875e-02 -3.953666612505912781e-02
8.381426334381103516e-03 -3.556714579463005066e-02 -3.807780519127845764e-02
-2.541392296552658081e-02 -1.051824167370796204e-02 -6.996773928403854370e-02
-1.491511147469282150e-02 7.733840495347976685e-03 2.402411587536334991e-02
3.627513349056243896e-02 -2.324264496564865112e-02 1.226075924932956696e-02
1.169631816446781158e-02 -4.036578163504600525e-02 -3.938547521829605103e-02
4.132392629981040955e-02 1.345406100153923035e-02 3.793698176741600037e-02
1.436915597878396511e-03 -1.867738552391529083e-02 3.890014067292213440e-02
5.387170612812042236e-02 -2.650111913681030273e-02 2.999614924192428589e-02
-6.163337267935276031e-03 6.767092738300561905e-03 1.180144585669040680e-02
3.565439581871032715e-02 -4.500289633870124817e-02 -2.364096697419881821e-03
1.692693866789340973e-02 -8.302591741085052490e-03 -2.511816285550594330e-02
-2.610237337648868561e-03 -4.540693759918212891e-02 -1.483549177646636963e-02
-4.841050878167152405e-02 -2.278864011168479919e-02 5.594066902995109558e-02
4.348454251885414124e-02 2.169964136555790901e-03 2.127580530941486359e-02
1.035162433981895447e-02 2.370262332260608673e-02 1.878960430622100830e-02
3.246164694428443909e-02 -4.312509205192327499e-03 7.837346941232681274e-02
-9.584254585206508636e-03 -3.090016916394233704e-02 2.192911319434642792e-02
-3.016491606831550598e-02 -2.955456962808966637e-03 2.236410602927207947e-02
1.659833639860153198e-02 5.659908056259155273e-02 9.527919813990592957e-03
2.389668487012386322e-02 -3.382902219891548157e-02 7.407610770314931870e-03
2.713061403483152390e-03 -1.011849753558635712e-02 -1.436123903840780258e-02
-2.248899266123771667e-02 1.940813101828098297e-02 -1.358329318463802338e-02
-4.330505058169364929e-02 -4.322496708482503891e-03 2.697318978607654572e-02
-9.166849777102470398e-03 -3.945450857281684875e-02 -2.055015228688716888e-02
-3.463064134120941162e-02 3.663684055209159851e-02 9.295873343944549561e-03
9.691979736089706421e-03 2.243243716657161713e-02 1.577337458729743958e-02
-3.775947540998458862e-02 7.479220163077116013e-03 -1.806112565100193024e-02
-1.093249097466468811e-01 -4.966095462441444397e-02 -6.970291584730148315e-02
-8.885053545236587524e-02 2.496775239706039429e-02 1.388727594166994095e-02
2.591558173298835754e-02 -5.133291706442832947e-04 7.122324313968420029e-04
-2.258883602917194366e-02 -6.251145154237747192e-02 3.775787726044654846e-02
-2.159262634813785553e-02 1.727589033544063568e-02 -2.880340814590454102e-02
5.651742219924926758e-03 4.031585995107889175e-03 -2.465217746794223785e-02
-6.985289044678211212e-03 -4.313754290342330933e-02 -2.851131185889244080e-02
8.084705471992492676e-02 -6.271047051995992661e-03 -2.243527770042419434e-02
2.056946419179439545e-02 2.907208353281021118e-02 1.947063393890857697e-02
-9.283461607992649078e-03 5.511498078703880310e-02 -6.328526884317398071e-02
3.886056318879127502e-02 2.709004841744899750e-02 4.096394777297973633e-02
-3.672209382057189941e-02 1.535620260983705521e-02 -4.230123758316040039e-02
1.558348536491394043e-03 3.500485792756080627e-02 -2.042896486818790436e-02
4.647645354270935059e-02 5.765347927808761597e-02 1.200690399855375290e-02
2.922729402780532837e-02 4.059180151671171188e-03 -4.033023491501808167e-02
-4.724264889955520630e-02 -2.409210428595542908e-02 4.187603481113910675e-03
1.194433122873306274e-02 2.704003080725669861e-02 4.286012053489685059e-02
-2.609098143875598907e-02 -5.538805853575468063e-03 -2.709817886352539062e-02
-1.152796484529972076e-02 6.785845849663019180e-03 7.979427464306354523e-03
-5.018450692296028137e-02 -2.626485005021095276e-02 -4.271621629595756531e-02
-1.175811421126127243e-02 1.179941371083259583e-02 -4.209343716502189636e-02
1.756503828801214695e-03 -1.301807630807161331e-02 -1.212864089757204056e-02
-2.885873429477214813e-02 -3.865597536787390709e-03 -4.770954325795173645e-02
4.013412399217486382e-05 2.106623491272330284e-03 -3.973923623561859131e-03
-1.556145306676626205e-02 -2.107789926230907440e-02 8.086785674095153809e-03
3.927442803978919983e-02 -5.168221425265073776e-03 3.098841384053230286e-02
3.239511325955390930e-02 -2.579737920314073563e-03 4.007789120078086853e-02
-6.845974829047918320e-03 -1.516353990882635117e-02 2.070185728371143341e-02
-2.498879656195640564e-02 1.383707392960786819e-02 -1.927208341658115387e-02
2.545794472098350525e-02 9.360871464014053345e-02 4.471176490187644958e-02
-2.319144457578659058e-02 -5.334218032658100128e-03 3.146256133913993835e-02
-2.946982905268669128e-02 -1.035181898623704910e-02 1.461323909461498260e-02
3.586493059992790222e-02 -8.757214061915874481e-03 4.792574420571327209e-02
3.154866769909858704e-02 -7.547894865274429321e-02 -9.782918542623519897e-02
4.516007378697395325e-03 1.158471917733550072e-03 -1.124435570091009140e-02
-1.198174152523279190e-02 4.658658057451248169e-02 1.422013388946652412e-03
-7.831298746168613434e-03 -7.032315433025360107e-02 -3.586489707231521606e-02
-8.292730897665023804e-02 -2.640389464795589447e-02 -5.174106452614068985e-03
-1.088945753872394562e-02 1.783547364175319672e-02 4.128749016672372818e-03
5.223621148616075516e-03 -4.057542420923709869e-03 -2.483745291829109192e-02
3.228472918272018433e-02 -1.134653016924858093e-02 -1.824933104217052460e-02
-5.105182994157075882e-03 1.373203936964273453e-02 2.472769282758235931e-02
2.846206352114677429e-02 2.071531116962432861e-02 -3.031636588275432587e-02
-4.326376318931579590e-02 -1.330772601068019867e-02 1.317793689668178558e-02
-7.917943410575389862e-03 -1.268783025443553925e-02 -7.068039849400520325e-03
-1.014056615531444550e-02 5.368853360414505005e-02 2.038027532398700714e-02
-3.716627135872840881e-02 2.536517800763249397e-03 1.602591574192047119e-02
3.572452068328857422e-02 -9.410109370946884155e-03 -1.912926323711872101e-03
3.321496769785881042e-02 3.119315765798091888e-02 -1.388175878673791885e-04
6.600955501198768616e-03 -1.972477650269865990e-03 -7.202723529189825058e-03
7.621509023010730743e-03 -1.358999218791723251e-02 5.542028322815895081e-02
5.509032681584358215e-02 3.766424721106886864e-03 3.019822761416435242e-03
4.753267765045166016e-02 9.985428303480148315e-03 -5.054861772805452347e-03
1.798238418996334076e-02 5.133698228746652603e-03 -1.830826699733734131e-02
-1.699321530759334564e-02 -3.768730163574218750e-02 -6.177956610918045044e-02
3.251050366088747978e-03 -2.347474731504917145e-02 4.985183477401733398e-03
-1.507831271737813950e-02 2.542462013661861420e-02 -2.029794454574584961e-02
-3.976165130734443665e-02 -8.578538149595260620e-02 -3.338740020990371704e-02
3.987760841846466064e-02 -5.831441655755043030e-02 4.408671706914901733e-02
-7.739129941910505295e-03 4.825586453080177307e-02 1.540056895464658737e-02
-2.817480638623237610e-02 7.604182697832584381e-03 1.765451766550540924e-02
5.131349340081214905e-02 5.804668739438056946e-02 -4.552124813199043274e-02
5.703685805201530457e-02 1.909867301583290100e-02 -8.788369596004486084e-03
9.546334855258464813e-03 -8.104713261127471924e-02 -7.018198072910308838e-02
-3.766847029328346252e-02 1.321933045983314514e-02 1.013862341642379761e-02
-4.247755929827690125e-02 -4.229439795017242432e-02 4.397996887564659119e-02
5.949592590332031250e-02 -6.068903603591024876e-04 -7.490340620279312134e-02
4.482417367398738861e-03 7.915825583040714264e-03 2.680667303502559662e-02
3.530358150601387024e-02 -1.198159810155630112e-02 7.734085433185100555e-03
-3.264183923602104187e-02 2.074926346540451050e-02 -3.811362385749816895e-02
1.724881120026111603e-02 -3.601747378706932068e-02 -5.886524170637130737e-02
7.144152186810970306e-04 -1.082664355635643005e-01 -3.752582147717475891e-02
-1.430329214781522751e-02 6.151313707232475281e-02 -1.833338476717472076e-02
-1.622019335627555847e-02 3.048176504671573639e-02 4.608620330691337585e-02
8.090019226074218750e-03 6.721570342779159546e-02 3.870537132024765015e-02
-7.711127400398254395e-03 1.220959797501564026e-02 -3.971849009394645691e-02
3.144958615303039551e-02 5.330721288919448853e-02 1.905095018446445465e-02
1.920635253190994263e-02 5.464802309870719910e-02 2.968015149235725403e-03
-3.194601275026798248e-03 -5.186051875352859497e-02 -2.491023577749729156e-02
5.995557084679603577e-02 4.510285332798957825e-02 2.906114235520362854e-02
-1.844467595219612122e-02 -1.039346121251583099e-02 -3.381529077887535095e-02
-1.281818933784961700e-02 4.789334780070930719e-04 -1.498990599066019058e-02
-8.227794431149959564e-03 -1.174269127659499645e-03 -4.618126899003982544e-03
3.678971668705344200e-03 3.028027899563312531e-02 -7.566498592495918274e-03
-3.429418057203292847e-02 2.324968017637729645e-02 -4.874681588262319565e-03
4.632604867219924927e-02 -2.658203477039933205e-03 2.150987833738327026e-02
4.548459500074386597e-02 1.611973345279693604e-02 1.857876032590866089e-02
-1.214584056288003922e-02 2.691219095140695572e-03 -9.329015389084815979e-03
-2.637478173710405827e-04 -3.206536546349525452e-02 -9.423127397894859314e-03
1.630915328860282898e-02 2.755166403949260712e-02 -1.404158864170312881e-02
-2.432566322386264801e-02 -3.991660848259925842e-02 4.906132351607084274e-03
-3.877947106957435608e-02 1.928424648940563202e-02 4.741811752319335938e-02
-7.228527963161468506e-02 9.169393032789230347e-02 -3.481006249785423279e-02
-2.374306134879589081e-02 4.950956907123327255e-03 2.209795638918876648e-02
9.641153737902641296e-03 3.385016322135925293e-02 3.739472478628158569e-02
-2.115757577121257782e-02 5.265504121780395508e-02 -3.155574947595596313e-02
-3.981620073318481445e-02 -1.260723453015089035e-02 -3.367476630955934525e-03
-5.081818997859954834e-02 -5.006893724203109741e-02 -3.923001512885093689e-02
-4.417999833822250366e-02 -1.022636890411376953e-02 -6.499458849430084229e-02
-1.766274869441986084e-02 -2.840313827618956566e-03 -2.037419937551021576e-02
-2.863782644271850586e-02 -5.689507815986871719e-03 -8.431102149188518524e-03
9.634516201913356781e-03 -7.834754884243011475e-03 1.462064590305089951e-02
4.847448319196701050e-02 2.935506403446197510e-02 5.517381057143211365e-02
-5.138579756021499634e-02 -5.017702933400869370e-03 6.664863321930170059e-04
4.672699607908725739e-03 4.501975141465663910e-03 1.995886443182826042e-03
3.258822485804557800e-02 2.432606182992458344e-03 3.289641439914703369e-02
4.146361723542213440e-02 -4.428280144929885864e-02 4.668565094470977783e-02
1.898127608001232147e-02 1.450563129037618637e-02 1.194917783141136169e-02
-4.050434753298759460e-02 -1.360772177577018738e-02 6.651811301708221436e-02
-1.173885911703109741e-02 -4.269970208406448364e-02 2.003176882863044739e-02
-4.399073123931884766e-02 5.080768465995788574e-02 -6.663467502221465111e-05
-1.253903377801179886e-02 -7.021699100732803345e-02 -8.847343735396862030e-03
5.154985189437866211e-02 3.615402057766914368e-02 -3.902097046375274658e-02
7.176191546022891998e-03 4.742747172713279724e-02 -4.623894020915031433e-02
6.920910626649856567e-02 5.955802742391824722e-03 2.422106079757213593e-02
1.056976765394210815e-01 -7.081490755081176758e-02 2.224768325686454773e-02
3.927303850650787354e-02 3.755922988057136536e-02 1.696767983958125114e-03
-2.909132279455661774e-02 2.712735161185264587e-02 -2.051645889878273010e-02
7.342321425676345825e-02 -2.250581420958042145e-02 -4.540430754423141479e-02
5.412681028246879578e-02 3.093550167977809906e-02 -3.254299610853195190e-02
-8.894989266991615295e-03 -1.260220352560281754e-02 1.622177660465240479e-02
-4.779128730297088623e-02 1.264487057924270630e-01 4.708671569824218750e-02
1.961359195411205292e-02 5.439665168523788452e-02 2.327746339142322540e-02
-2.548353187739849091e-02 5.884330719709396362e-02 -6.810352951288223267e-02
-1.978343352675437927e-02 -1.283484138548374176e-02 -3.831895813345909119e-02
3.881024569272994995e-02 -2.600135654211044312e-02 6.764073856174945831e-03
-3.113863244652748108e-02 -9.427921846508979797e-03 -5.055726971477270126e-03
-5.135735496878623962e-02 -3.629754995927214622e-03 3.835812211036682129e-02
-2.569656074047088623e-02 -1.666378043591976166e-02 4.104500636458396912e-02
3.319040406495332718e-03 -4.052530974149703979e-02 -5.355932191014289856e-02
-2.691633813083171844e-02 -4.450889304280281067e-02 2.485024556517601013e-02
-2.660953439772129059e-02 1.775730587542057037e-02 3.793900366872549057e-03
-1.383294537663459778e-02 7.924344390630722046e-02 -8.799280971288681030e-03
3.175750002264976501e-02 2.719192765653133392e-02 -8.880853652954101562e-03
1.787238754332065582e-02 -1.294405665248632431e-02 -6.551997363567352295e-02
2.041731774806976318e-02 -4.165432229638099670e-02 -1.355749219655990601e-01
-5.751955136656761169e-02 -1.995303668081760406e-02 4.057991877198219299e-02
2.738632261753082275e-03 -8.734613656997680664e-03 5.897989496588706970e-02
1.713044568896293640e-02 6.136015802621841431e-02 6.170881912112236023e-02
-5.311067029833793640e-02 -2.264613285660743713e-03 -3.401921689510345459e-02
3.566192090511322021e-02 -1.060025300830602646e-02 4.594534635543823242e-02
-4.948689788579940796e-02 -5.858320742845535278e-02 3.046742826700210571e-02
2.990438789129257202e-02 -4.317772574722766876e-03 2.116104029119014740e-02
-1.576530863530933857e-03 -4.183772951364517212e-02 4.787894338369369507e-02
3.185164928436279297e-02 -7.242095656692981720e-03 -3.832217305898666382e-02
6.259597092866897583e-02 -5.784691870212554932e-02 4.441777244210243225e-02
-1.470641605556011200e-02 1.062060669064521790e-01 1.161618065088987350e-02
3.772753849625587463e-02 2.605943381786346436e-02 -4.830242693424224854e-02
5.059583485126495361e-02 -1.536943018436431885e-02 -3.672726824879646301e-02
-1.413132809102535248e-02 -3.349960222840309143e-02 -2.742654830217361450e-02
-3.286513686180114746e-02 -5.200074613094329834e-02 2.458796836435794830e-02
2.087366953492164612e-02 3.304661437869071960e-02 -5.115552246570587158e-02
8.767930418252944946e-02 -8.573635481297969818e-03 -5.336002632975578308e-02
-1.002776175737380981e-01 -2.883546054363250732e-02 4.857270047068595886e-02
6.174281239509582520e-02 -1.777034066617488861e-02 -3.218358010053634644e-02
6.017117947340011597e-02 6.084914878010749817e-02 -4.213262721896171570e-02
3.828240558505058289e-02 1.541792694479227066e-02 6.893707811832427979e-02
-3.527495265007019043e-02 -2.621644875034689903e-03 -3.869131952524185181e-02
9.402519091963768005e-03 2.196459285914897919e-02 -5.846289172768592834e-02
-6.919967383146286011e-02 -3.061526454985141754e-02 3.003628924489021301e-02
5.453554540872573853e-02 -2.668888121843338013e-02 -2.438981086015701294e-02
-3.556373342871665955e-02 7.448275573551654816e-03 -8.673438429832458496e-02
-1.524153631180524826e-03 3.066839464008808136e-02 1.332626561634242535e-03
-1.551374420523643494e-02 -4.855889454483985901e-02 -8.349860436283051968e-04
-6.947579234838485718e-02 9.283388033509254456e-03 2.822333760559558868e-02
1.553884800523519516e-02 -6.291371304541826248e-03 -6.684822030365467072e-03
5.172944627702236176e-03 -7.084453944116830826e-03 2.603985555469989777e-02
6.228690966963768005e-03 -7.338985800743103027e-03 -1.562219019979238510e-02
-8.531778305768966675e-02 -7.509065419435501099e-02 -4.103626683354377747e-02
2.704955823719501495e-02 -2.511991374194622040e-02 -2.657489478588104248e-02
6.523409858345985413e-03 1.207234617322683334e-02 2.064485847949981689e-02
-1.971734315156936646e-02 3.918994963169097900e-02 -1.121741440147161484e-02
-1.460377126932144165e-02 -2.980798296630382538e-02 -2.295847283676266670e-03
-3.219748288393020630e-02 -3.674415405839681625e-03 -3.715769201517105103e-02
-9.427725337445735931e-03 8.540113456547260284e-03 9.012663736939430237e-03
-5.451410263776779175e-02 -8.319882303476333618e-02 3.186539933085441589e-02
-5.620637163519859314e-02 -1.401693839579820633e-02 3.648477792739868164e-02
1.968619972467422485e-02 6.481618434190750122e-02 -4.385975003242492676e-02
-2.261945977807044983e-02 6.395664811134338379e-02 -1.208615396171808243e-02
4.377627745270729065e-02 3.827458620071411133e-02 8.533427864313125610e-02
6.444964557886123657e-02 -3.796117380261421204e-02 9.937997907400131226e-03
2.001878060400485992e-02 3.671909123659133911e-02 9.827478788793087006e-03
7.326515042223036289e-04 4.222498834133148193e-02 -2.896574884653091431e-02
-5.778427049517631531e-02 -3.430299088358879089e-02 -2.861613593995571136e-02
-4.807649925351142883e-02 -2.023621834814548492e-02 -3.319120779633522034e-02
1.889512315392494202e-02 -2.374782785773277283e-02 5.189670482650399208e-04
-6.218950450420379639e-02 -8.301952853798866272e-03 8.273150771856307983e-03
3.372049331665039062e-02 -2.604056149721145630e-02 1.137084676884114742e-03
-2.215996757149696350e-02 -2.260504104197025299e-02 3.956736996769905090e-02
-1.151287229731678963e-03 2.520954934880137444e-03 -1.228402256965637207e-01
9.440157562494277954e-03 -6.969949603080749512e-02 -6.772937625646591187e-02
9.080033749341964722e-02 2.434950508177280426e-02 -1.602407358586788177e-02
4.050824046134948730e-02 5.170942470431327820e-02 -8.929971954785287380e-06
-4.127046465873718262e-02 -3.825293097179383039e-04 -2.499568648636341095e-02
-3.124873898923397064e-02 4.714800789952278137e-02 -3.157911822199821472e-02
3.464751318097114563e-02 -1.257323077879846096e-03 2.664400078356266022e-02
5.019501969218254089e-02 2.343599498271942139e-02 -6.326943170279264450e-03
-9.192391298711299896e-03 2.224856428802013397e-02 -6.812735646963119507e-02
-9.972120076417922974e-02 -6.411382555961608887e-02 -8.449473977088928223e-02
5.975342914462089539e-02 4.813206847757101059e-03 -1.268338784575462341e-02
3.452244214713573456e-03 -2.559603564441204071e-02 -3.848384320735931396e-02
2.666323632001876831e-02 -7.150943391025066376e-03 -1.248079631477594376e-02
2.178621105849742889e-02 5.669397488236427307e-02 -3.948872908949851990e-02
-9.342052042484283447e-03 -2.475373633205890656e-02 -1.832238957285881042e-02
-1.925380900502204895e-02 -4.542005062103271484e-02 3.565920516848564148e-02
-2.194387838244438171e-03 -1.874419488012790680e-02 -1.227343454957008362e-02
-5.056838039308786392e-03 5.923905875533819199e-03 5.746011063456535339e-02
-3.238437697291374207e-02 2.805318869650363922e-02 4.085107892751693726e-02
6.546761840581893921e-02 3.061957471072673798e-02 -1.418678928166627884e-02
-3.245353465899825096e-03 -1.779215596616268158e-02 8.335703052580356598e-03
-3.260877355933189392e-02 -4.268520697951316833e-02 -2.387553639709949493e-02
-7.370539009571075439e-03 5.886530503630638123e-03 -2.018603682518005371e-02
-1.147863641381263733e-02 3.499285876750946045e-02 3.129025176167488098e-02
-3.057644516229629517e-02 6.622555106878280640e-02 -3.745510708540678024e-03
5.439431872218847275e-03 -5.020471755415201187e-03 2.346087619662284851e-02
-2.869994193315505981e-02 -1.978609245270490646e-03 -1.594405062496662140e-02
-6.253920495510101318e-02 9.196967631578445435e-02 1.105550304055213928e-02
-4.681961238384246826e-02 -3.046982223168015480e-03 -1.759312115609645844e-02
-5.060547590255737305e-02 -5.050419270992279053e-02 2.004534937441349030e-02
1.174161024391651154e-02 2.546510472893714905e-02 1.483442075550556183e-02
1.787750236690044403e-02 -1.443653553724288940e-02 2.868073619902133942e-02
-5.119906738400459290e-03 -2.378751896321773529e-02 2.860801480710506439e-02
6.039603613317012787e-03 -5.128033459186553955e-03 -8.663554326631128788e-04
-2.769404835999011993e-02 2.160477451980113983e-03 -4.845815419685095549e-04
4.714111611247062683e-02 7.298533618450164795e-02 3.270005807280540466e-03
2.941333502531051636e-02 5.084142833948135376e-02 5.270460993051528931e-02
-8.109598606824874878e-02 -5.186219513416290283e-02 -1.439302228391170502e-02
-8.791377185843884945e-04 -1.080605946481227875e-02 -4.025257658213376999e-03
3.982967138290405273e-02 1.882260292768478394e-02 4.511142522096633911e-02
1.939918845891952515e-02 -3.188862279057502747e-02 -4.349120706319808960e-02
-6.414593011140823364e-02 1.393540296703577042e-02 2.871797420084476471e-02
-4.073744267225265503e-02 -3.578228503465652466e-02 -3.427079692482948303e-02
3.595295175909996033e-02 4.277648031711578369e-02 -1.464693341404199600e-02
6.545132957398891449e-03 1.489865686744451523e-02 -4.589457809925079346e-02
4.251002520322799683e-02 9.447069838643074036e-03 1.073523890227079391e-02
-1.847749948501586914e-02 8.940520696341991425e-03 -2.698561176657676697e-02
3.159414231777191162e-02 -4.335313662886619568e-02 3.863903135061264038e-02
-2.820040099322795868e-02 3.108288720250129700e-02 -7.414524443447589874e-03
4.194009304046630859e-02 1.631247065961360931e-02 1.166061870753765106e-02
1.623391546308994293e-02 5.288443714380264282e-02 1.070503145456314087e-03
-1.841115206480026245e-02 -4.146371036767959595e-02 3.222532570362091064e-02
2.391552366316318512e-02 1.038624420762062073e-01 -3.227075189352035522e-02
9.560381993651390076e-03 4.276851564645767212e-02 -4.292096942663192749e-02
-7.500202208757400513e-02 1.162853557616472244e-02 -1.255761459469795227e-02
-3.595156222581863403e-02 -3.711935505270957947e-02 -3.479982540011405945e-02
-7.247948087751865387e-03 4.783779382705688477e-02 -2.107611484825611115e-02
-5.415718187578022480e-04 1.484021451324224472e-02 1.754016801714897156e-02
6.329231709241867065e-02 -3.317752480506896973e-02 9.929263032972812653e-04
3.530889376997947693e-02 -3.442976251244544983e-02 -4.335581138730049133e-02
6.065921392291784286e-03 2.435333654284477234e-02 3.471418097615242004e-02
-2.605046704411506653e-02 -3.844905877485871315e-03 -1.653230004012584686e-02
-2.566184848546981812e-04 1.800489425659179688e-02 3.026061318814754486e-02
-5.602948740124702454e-02 -1.685490086674690247e-02 2.535229362547397614e-02
3.488906100392341614e-02 -1.831270195543766022e-02 3.042784892022609711e-02
7.922850549221038818e-03 -1.995936036109924316e-02 3.995808959007263184e-02
-5.477460473775863647e-02 1.095873769372701645e-02 7.786637544631958008e-02
1.051646377891302109e-02 8.160622417926788330e-02 2.720959857106208801e-02
8.422140963375568390e-03 -1.037893933244049549e-03 9.302891790866851807e-03
3.132468089461326599e-02 7.615965441800653934e-04 -4.605370387434959412e-02
2.395080402493476868e-03 -7.806804496794939041e-03 -4.716304689645767212e-02
-6.857296917587518692e-03 -3.183115646243095398e-02 -2.041342481970787048e-02
-3.931419551372528076e-02 -6.500988453626632690e-02 -2.966219186782836914e-02
-8.375010639429092407e-02 -4.133004695177078247e-04 1.913705281913280487e-02
2.600862830877304077e-02 -2.852590568363666534e-02 -4.460966587066650391e-02
8.325133472681045532e-03 -3.135574981570243835e-02 -4.373206198215484619e-02
2.015590667724609375e-02 -3.755170851945877075e-02 -3.380472213029861450e-02
4.702002927660942078e-02 3.873174265027046204e-02 -2.810901962220668793e-02
-1.531654410064220428e-02 -5.511929467320442200e-02 -7.916292524896562099e-04
1.209926791489124298e-02 2.161273360252380371e-02 8.874575793743133545e-02
8.234740234911441803e-03 -3.362255915999412537e-02 2.978356182575225830e-02
2.834327518939971924e-02 3.043925575911998749e-02 7.765241898596286774e-03
-1.068529412150382996e-01 -3.548792749643325806e-02 -1.046862453222274780e-01
-1.446305541321635246e-03 -7.742147892713546753e-02 -7.278046756982803345e-02
3.654550760984420776e-02 -1.864418201148509979e-02 -4.682961851358413696e-02
-2.382463403046131134e-02 -5.743315070867538452e-02 -1.546495035290718079e-02
2.996489405632019043e-02 4.136284813284873962e-02 -8.220011368393898010e-03
1.849688030779361725e-02 -4.631918855011463165e-03 -6.035473197698593140e-03
-3.737148595973849297e-03 -6.812652945518493652e-02 -3.105197101831436157e-02
-2.282782923430204391e-03 1.251543313264846802e-02 3.636872628703713417e-03
-5.980225652456283569e-02 1.175557728856801987e-02 3.127517923712730408e-02
-4.462641477584838867e-02 -3.023423813283443451e-02 9.998130612075328827e-03
-1.413812581449747086e-02 3.570903465151786804e-02 -2.679493650794029236e-02
-2.621867693960666656e-03 -2.516726404428482056e-02 -3.367409482598304749e-02
1.983062177896499634e-02 2.441954612731933594e-02 2.550638467073440552e-02
3.036330826580524445e-02 1.121534965932369232e-02 2.891859505325555801e-03
3.430676832795143127e-02 1.682427478954195976e-03 -4.423479735851287842e-02
-5.304789915680885315e-02 -7.679578382521867752e-03 -5.061716213822364807e-02
-3.728324174880981445e-02 -5.006748810410499573e-02 -8.460053242743015289e-03
1.604300690814852715e-03 -1.088369358330965042e-02 -2.526996470987796783e-02
2.953606285154819489e-02 -2.614117972552776337e-02 -1.410984061658382416e-02
-1.924264058470726013e-02 -6.042832881212234497e-02 1.318876817822456360e-02
3.458169847726821899e-02 6.593547761440277100e-02 -1.085458695888519287e-02
-3.658729791641235352e-02 -2.480933442711830139e-02 -8.100886642932891846e-02
1.415231358259916306e-02 -2.007112093269824982e-02 2.133532799780368805e-02
1.734790764749050140e-02 -9.152404032647609711e-03 2.465565502643585205e-02
2.614551410079002380e-02 8.433924813289195299e-05 -5.758385732769966125e-02
-3.623145446181297302e-02 1.545457984320819378e-03 -2.989283017814159393e-02
-5.545024573802947998e-02 -4.062297288328409195e-03 7.918183691799640656e-03
-3.877731412649154663e-02 -4.951189458370208740e-02 -6.130939349532127380e-02
-2.596034668385982513e-02 -3.394664963707327843e-03 -2.471592463552951813e-02
1.156153529882431030e-02 -2.609892748296260834e-02 7.335940841585397720e-03
-3.174446895718574524e-02 -2.306694630533456802e-03 -1.177229359745979309e-02
-3.381641954183578491e-02 -5.157248675823211670e-02 -5.864968895912170410e-02
-6.277860701084136963e-02 -4.763314500451087952e-02 -4.447105154395103455e-02
-4.592077748384326696e-04 -1.611308939754962921e-02 6.637238897383213043e-03
-4.750539734959602356e-02 -4.204603657126426697e-02 -8.007948286831378937e-03
-3.332858160138130188e-02 -6.436230987310409546e-02 -9.031072258949279785e-03
1.707590743899345398e-02 1.203473750501871109e-02 5.652749910950660706e-03
1.228295732289552689e-03 3.266202658414840698e-02 2.049141190946102142e-02
4.290782660245895386e-02 7.771900296211242676e-02 9.806139767169952393e-02
-9.563054190948605537e-04 -1.991838775575160980e-02 4.616080224514007568e-02
1.998585090041160583e-02 4.381911456584930420e-02 3.034090064465999603e-02
-5.535675154533237219e-05 -4.436390474438667297e-02 2.412439323961734772e-02
9.595934301614761353e-03 -1.987813413143157959e-02 -1.557310484349727631e-02
6.941524799913167953e-03 -3.949701786041259766e-02 -3.984056413173675537e-02
-7.602488622069358826e-03 -3.518332913517951965e-02 -1.740191504359245300e-02
-5.406700819730758667e-02 -3.300698101520538330e-02 -7.475908380001783371e-03
-3.901743143796920776e-02 5.530167836695909500e-03 5.327795632183551788e-03
1.858966611325740814e-02 -2.709060907363891602e-02 4.995444789528846741e-02
-2.836056426167488098e-02 2.718303725123405457e-02 4.184625297784805298e-02
-4.073575604707002640e-03 9.975832886993885040e-03 6.934966146945953369e-02
-1.758156344294548035e-02 -3.040086850523948669e-02 -7.178309373557567596e-03
3.299041464924812317e-02 4.433546215295791626e-02 4.235327616333961487e-02
-1.361454743891954422e-02 2.921587973833084106e-02 1.342019159346818924e-02
4.044059198349714279e-03 -2.335430309176445007e-02 1.536219008266925812e-02
5.130733177065849304e-02 -3.686634125187993050e-03 2.457931637763977051e-02
8.472898975014686584e-03 1.955370418727397919e-03 4.142338410019874573e-02
-4.559799283742904663e-02 -2.110867761075496674e-02 1.914774440228939056e-02
-1.768096163868904114e-02 -5.575834307819604874e-03 2.359634824097156525e-02
-6.369646638631820679e-02 -6.878377497196197510e-02 1.407470181584358215e-02
6.983391358517110348e-04 6.727609783411026001e-02 2.673074789345264435e-02
2.018482051789760590e-02 4.070977680385112762e-03 4.022097215056419373e-02
-5.698694661259651184e-02 -4.536536335945129395e-02 3.576549887657165527e-02
-2.927905321121215820e-02 -6.091763451695442200e-02 -2.431832253932952881e-02
3.194295242428779602e-02 1.701546832919120789e-02 7.564314175397157669e-03
3.892810083925724030e-03 1.026615872979164124e-02 -3.248886438086628914e-03
4.842572845518589020e-03 3.784714965149760246e-03 -4.224624484777450562e-03
-1.187993120402097702e-02 1.981720700860023499e-02 -2.652023732662200928e-02
1.349861919879913330e-02 2.266521478304639459e-04 -7.029729895293712616e-04
-3.439609333872795105e-02 -1.608399488031864166e-02 5.460395477712154388e-03
-9.308357723057270050e-03 4.609690047800540924e-03 1.260815188288688660e-03
4.666977003216743469e-02 4.207288101315498352e-02 2.642608480527997017e-03
-1.232558302581310272e-02 -1.056633703410625458e-02 7.179578393697738647e-02
-2.518464345484972000e-03 8.459257893264293671e-03 4.102243110537528992e-03
3.279199823737144470e-02 4.811998922377824783e-03 6.734123453497886658e-04
4.408309981226921082e-02 -3.117858059704303741e-02 1.447176095098257065e-02
-4.637975990772247314e-02 -5.991762876510620117e-02 -4.308278113603591919e-02
3.050996456295251846e-03 7.756800390779972076e-03 1.345730270259082317e-03
6.601647939532995224e-03 1.009332947432994843e-02 4.753324761986732483e-02
-8.115329779684543610e-03 -5.417315661907196045e-02 -3.006711974740028381e-02
3.938003256916999817e-02 -1.214434206485748291e-02 -4.131710622459650040e-03
-2.139407210052013397e-02 6.078408658504486084e-02 -1.469550374895334244e-02
-1.059818826615810394e-02 6.715813651680946350e-03 1.038733776658773422e-02
-2.315523568540811539e-03 1.623527891933917999e-02 5.411199107766151428e-02
9.641396813094615936e-03 -3.018957562744617462e-02 5.537209101021289825e-03
6.578765809535980225e-02 3.960159793496131897e-02 1.229425612837076187e-02
1.190209388732910156e-02 1.898442022502422333e-02 -2.957283519208431244e-02
-6.694067269563674927e-02 -3.833060339093208313e-02 2.134065143764019012e-02
-3.025663085281848907e-02 7.942090742290019989e-04 4.551826044917106628e-03
-6.950815673917531967e-03 3.824526444077491760e-02 2.258780412375926971e-02
3.243444487452507019e-02 3.670226410031318665e-02 -5.617124494165182114e-03
-3.042196854948997498e-03 -9.988334029912948608e-03 -1.175973843783140182e-02
-1.504889409989118576e-02 -3.546808660030364990e-02 1.495424006134271622e-02
2.681492455303668976e-02 1.672787964344024658e-02 1.259651314467191696e-02
-1.912232115864753723e-02 3.785389661788940430e-02 1.194314449094235897e-03
-2.536959759891033173e-02 -5.007104948163032532e-02 6.025629118084907532e-02
2.029342018067836761e-02 -3.180319815874099731e-02 5.079904571175575256e-03
-4.377665463835000992e-03 4.336209967732429504e-02 5.373180657625198364e-02
-1.057387795299291611e-02 1.132251601666212082e-02 3.371900692582130432e-02
-2.770283073186874390e-02 -2.713878080248832703e-02 5.305567383766174316e-02
-5.049651488661766052e-02 3.263352438807487488e-02 -6.295548286288976669e-03
-8.439993485808372498e-03 6.383184343576431274e-03 1.891241781413555145e-02
1.295607071369886398e-03 -2.203580550849437714e-02 1.254580542445182800e-02
1.305143442004919052e-02 2.463247440755367279e-02 4.178368672728538513e-02
2.291170321404933929e-02 -1.043417584151029587e-02 -9.028675034642219543e-03
-2.209136076271533966e-02 -4.624079167842864990e-02 -6.185959652066230774e-02
-2.291212417185306549e-02 -2.073173224925994873e-02 1.123327109962701797e-02
3.454414382576942444e-02 2.762569673359394073e-02 -2.599184773862361908e-02
-7.143303286284208298e-03 -9.586837142705917358e-03 -8.467761427164077759e-02
4.684371873736381531e-02 4.286457225680351257e-02 3.060699673369526863e-03
4.894382879137992859e-02 -1.739437319338321686e-02 -2.621671557426452637e-02
-5.213181301951408386e-02 -3.856283426284790039e-02 -5.668751150369644165e-02
-7.837626338005065918e-02 -1.337982807308435440e-02 -1.616919226944446564e-02
-1.510924077592790127e-03 -2.595893852412700653e-02 1.259572617709636688e-02
-4.998545721173286438e-02 1.898220367729663849e-02 3.503106068819761276e-03
7.390128821134567261e-02 -2.507452666759490967e-02 -4.607071727514266968e-02
3.692422062158584595e-02 7.109518349170684814e-02 -2.435247227549552917e-02
-6.620929576456546783e-03 5.101094767451286316e-02 -3.275227919220924377e-02
5.321564152836799622e-02 1.348683238029479980e-02 2.921792864799499512e-02
3.078024461865425110e-02 1.170425093732774258e-03 -3.886423259973526001e-02
-2.027024514973163605e-02 3.528011590242385864e-02 -2.254182100296020508e-02
-3.612823039293289185e-02 9.372791275382041931e-03 1.464429497718811035e-02
3.701102454215288162e-03 2.986639738082885742e-02 7.696507126092910767e-02
2.642196416854858398e-02 1.285526063293218613e-02 9.426344931125640869e-02
-2.531158179044723511e-02 3.788902610540390015e-02 2.361205639317631721e-03
-1.460126601159572601e-02 4.164195805788040161e-02 4.919768869876861572e-02
-3.570115938782691956e-02 4.824499133974313736e-03 1.460365578532218933e-02
-3.821107000112533569e-02 7.277717348188161850e-03 -1.575886458158493042e-02
-3.273139521479606628e-02 -2.332076616585254669e-02 -2.031864970922470093e-02
-3.416084870696067810e-02 -9.095511585474014282e-02 -3.491902351379394531e-02
2.020156942307949066e-03 -2.672760933637619019e-02 -2.180968411266803741e-02
-3.781988285481929779e-03 -2.567955525591969490e-03 -7.179833948612213135e-02
3.041574917733669281e-02 1.021788362413644791e-02 -2.379639819264411926e-02
-9.080526418983936310e-03 -4.307132586836814880e-02 -3.435695543885231018e-02
-4.016071185469627380e-02 2.196579799056053162e-02 -8.231583237648010254e-02
-1.912873983383178711e-02 -6.122160702943801880e-03 -3.575162589550018311e-02
7.893155328929424286e-03 -7.739944383502006531e-03 3.664208203554153442e-02
-1.747724413871765137e-02 -3.749210759997367859e-02 4.085158184170722961e-02
-4.781342297792434692e-02 -7.863418012857437134e-02 -2.000936493277549744e-02
6.103430874645709991e-03 1.087519899010658264e-02 4.601752758026123047e-02
9.937473386526107788e-02 2.198928780853748322e-02 1.228221226483583450e-03
4.114114865660667419e-02 5.585332401096820831e-03 -3.648795187473297119e-02
4.482435807585716248e-02 5.695657804608345032e-02 3.294470952823758125e-03
7.481238245964050293e-02 1.107778586447238922e-02 -8.243014663457870483e-02
1.997570693492889404e-02 3.092567808926105499e-02 -1.353527884930372238e-02
1.365783158689737320e-02 -1.253797579556703568e-02 -3.424023464322090149e-02
-8.848394267261028290e-03 -9.032873436808586121e-03 -2.086367085576057434e-02
-6.354635581374168396e-03 4.194876551628112793e-02 5.755207687616348267e-02
-2.897302992641925812e-02 1.745468750596046448e-02 1.575118862092494965e-02
-4.208346456289291382e-02 -3.175925835967063904e-02 4.296522587537765503e-03
1.013092324137687683e-01 2.254034951329231262e-02 8.637574315071105957e-02
-3.793675824999809265e-02 -2.421970292925834656e-02 2.168319933116436005e-02
1.474228687584400177e-03 4.747007414698600769e-02 2.784375101327896118e-03
-3.492514789104461670e-02 -2.628792263567447662e-02 6.391637772321701050e-02
-7.323036342859268188e-02 -6.997453514486551285e-03 3.710087388753890991e-02
4.271873831748962402e-02 3.515524044632911682e-02 9.265553206205368042e-02
4.954957589507102966e-02 -1.760981511324644089e-03 6.222588010132312775e-03
1.269189827144145966e-02 -1.481779664754867554e-02 3.760086372494697571e-02
-3.976530395448207855e-03 -1.829707529395818710e-03 5.816287174820899963e-02
-9.694520384073257446e-03 -6.790439784526824951e-02 -3.486740961670875549e-02
1.411008741706609726e-02 -2.051408216357231140e-02 -8.448866754770278931e-02
-3.817420452833175659e-02 3.237839322537183762e-03 -6.744097173213958740e-02
-2.712568733841180801e-03 1.944544725120067596e-02 -3.398422896862030029e-02
1.431620400398969650e-02 5.921879410743713379e-02 5.993947014212608337e-02
7.182088494300842285e-02 -5.789601802825927734e-02 6.883726269006729126e-02
5.797952041029930115e-02 1.947784051299095154e-02 6.673660129308700562e-02
3.208671137690544128e-02 3.472014144062995911e-02 -2.414372190833091736e-02
-9.245163761079311371e-03 1.300288178026676178e-02 -2.694327384233474731e-02
-4.693028330802917480e-02 1.352610648609697819e-03 1.294068899005651474e-02
9.416154772043228149e-02 5.823026876896619797e-03 -5.277748405933380127e-02
-2.254820615053176880e-02 -1.427042856812477112e-02 -7.846147567033767700e-02
-5.480181425809860229e-02 7.315057516098022461e-02 -2.387566026300191879e-03
-1.776445470750331879e-02 -4.010873660445213318e-02 -3.888792917132377625e-02
-2.994167059659957886e-02 -8.468064479529857635e-03 4.212315008044242859e-02
3.817051276564598083e-02 -1.644964329898357391e-02 2.936031483113765717e-02
-1.315898168832063675e-02 3.372877137735486031e-03 -4.333027079701423645e-02
3.801577910780906677e-02 1.884330995380878448e-02 -2.564757503569126129e-02
3.385860100388526917e-02 2.522076293826103210e-02 2.912306971848011017e-02
-1.304530166089534760e-02 -7.276153564453125000e-02 1.106086466461420059e-02
-3.292567282915115356e-02 9.509740630164742470e-04 2.579485625028610229e-02
-1.559387613087892532e-02 -8.240723982453346252e-04 -8.620426990091800690e-03
4.374225065112113953e-02 -3.252483159303665161e-02 -1.141007710248231888e-02
-3.075637854635715485e-03 -2.808344736695289612e-02 8.346553891897201538e-03
6.688420474529266357e-02 -3.976351022720336914e-02 -6.803491152822971344e-03
-1.951491460204124451e-02 -2.219962887465953827e-02 3.926560282707214355e-02
2.051454968750476837e-03 3.612174093723297119e-02 4.930917546153068542e-02
2.480614185333251953e-02 -4.618798941373825073e-02 -3.435017913579940796e-02
-4.903066903352737427e-02 3.291022265329957008e-03 1.132246851921081543e-02
-3.967604786157608032e-02 2.029161714017391205e-02 4.778724163770675659e-02
1.089475769549608231e-02 -2.723067998886108398e-02 1.120720338076353073e-02
-2.685289643704891205e-02 -6.834206730127334595e-02 -6.330850534141063690e-03
-7.322163879871368408e-02 2.303184010088443756e-03 -6.483796983957290649e-02
-3.253309987485408783e-03 4.014011844992637634e-02 3.649665415287017822e-02
2.691538259387016296e-02 -7.569156121462583542e-03 4.046827554702758789e-02
3.754742443561553955e-02 6.749588996171951294e-03 7.010101526975631714e-02
-2.126503549516201019e-02 -4.717521369457244873e-02 -5.284722521901130676e-02
-1.136120595037937164e-02 -6.059271097183227539e-02 -2.913811616599559784e-02
-6.248067319393157959e-02 2.893156930804252625e-02 5.589305236935615540e-02
-4.621317610144615173e-02 1.684271730482578278e-02 -3.873892873525619507e-02
-5.933923646807670593e-02 -1.312937960028648376e-02 3.176309540867805481e-02
5.311728455126285553e-03 -5.955269560217857361e-03 -4.010249301791191101e-02
-4.262441396713256836e-02 -7.587732747197151184e-03 -1.684384793043136597e-02
-1.136542782187461853e-01 1.537560950964689255e-02 -3.034346364438533783e-02
-1.550624053925275803e-02 4.752968996763229370e-02 7.203692570328712463e-03
-2.533319965004920959e-02 -4.470040649175643921e-02 -2.626162022352218628e-02
-1.106445640325546265e-01 -7.485401816666126251e-03 -2.497759275138378143e-02
-5.205637589097023010e-02 -8.774249814450740814e-03 6.517698056995868683e-04
-4.469062387943267822e-02 -2.857659198343753815e-02 -1.862756162881851196e-02
-4.621445760130882263e-02 -5.438810214400291443e-02 -1.042880117893218994e-01
8.577646687626838684e-03 -5.465475842356681824e-03 -1.129881851375102997e-02
-6.962448358535766602e-02 -7.907888293266296387e-02 9.264398366212844849e-03
-5.695652216672897339e-02 4.179007560014724731e-02 -5.285118240863084793e-03
-2.097311243414878845e-02 -2.028855681419372559e-02 1.874633319675922394e-02
3.336515650153160095e-02 8.567931130528450012e-03 -9.937860071659088135e-03
-1.190289668738842010e-02 3.180934116244316101e-02 -4.044150933623313904e-02
-2.927072532474994659e-02 -3.254513069987297058e-02 5.215748772025108337e-02
3.896872699260711670e-02 1.182016544044017792e-02 1.034660339355468750e-01
1.630355045199394226e-02 5.477646738290786743e-02 4.696489125490188599e-02
3.418228402733802795e-02 -2.473264932632446289e-02 9.863380342721939087e-03
3.437670320272445679e-02 -3.757918253540992737e-02 3.501832485198974609e-02
-3.096405230462551117e-02 -5.702408961951732635e-03 -6.561059504747390747e-02
-5.415515601634979248e-02 1.656205952167510986e-02 -5.230258777737617493e-02
-4.176903516054153442e-02 -5.206608027219772339e-02 -2.240177709609270096e-03
-1.570479758083820343e-02 -1.277896761894226074e-02 1.122773904353380203e-02
-2.906679362058639526e-02 -5.147748440504074097e-02 4.805624112486839294e-02
2.689816616475582123e-02 -2.356452122330665588e-02 -2.755925990641117096e-02
-6.317292898893356323e-02 -2.654402889311313629e-02 1.338318176567554474e-02
-5.417153588496148586e-04 2.030471339821815491e-02 4.355464130640029907e-02
-3.522357717156410217e-02 3.535444615408778191e-03 3.186736255884170532e-02
-3.880172222852706909e-02 1.537289191037416458e-02 -3.672051057219505310e-02
-6.518367212265729904e-03 -4.725635983049869537e-03 7.058070041239261627e-04
-2.249420247972011566e-02 -2.142296172678470612e-03 -3.016390837728977203e-02
-1.719578355550765991e-02 9.132306277751922607e-02 2.032412774860858917e-02
-2.842228300869464874e-02 2.120684273540973663e-02 -4.471541196107864380e-02
1.250303722918033600e-02 3.350345417857170105e-02 -1.551392208784818649e-02
-1.016350928694009781e-02 -8.021026849746704102e-03 1.083487365394830704e-02
-2.881917357444763184e-02 2.938944287598133087e-02 -9.776924736797809601e-03
8.200740441679954529e-03 3.164795413613319397e-02 -2.088819444179534912e-02
4.950727894902229309e-02 -3.940406814217567444e-02 9.180036373436450958e-03
4.661078751087188721e-02 3.134920075535774231e-02 -2.405813708901405334e-02
5.103678628802299500e-02 -2.953800838440656662e-03 -1.246290933340787888e-02
1.519548334181308746e-02 -2.433431148529052734e-02 -7.089004502631723881e-04
7.360967341810464859e-03 -2.318462822586297989e-03 6.997886579483747482e-03
3.182713687419891357e-02 -4.086618497967720032e-02 1.019467692822217941e-02
4.659332334995269775e-03 -2.648076228797435760e-02 8.905141614377498627e-03
1.681992411613464355e-02 -6.422899197787046432e-03 5.506441928446292877e-03
-1.170365046709775925e-02 6.475524604320526123e-02 3.959116339683532715e-02
-1.151793003082275391e-01 -7.847024500370025635e-02 -1.215563714504241943e-02
-6.834822893142700195e-02 -2.523394767194986343e-03 3.383794426918029785e-02
-1.491322927176952362e-02 4.201209917664527893e-02 -1.546099432744085789e-03
5.410295352339744568e-02 5.949913524091243744e-03 -4.744781181216239929e-02
-4.076214879751205444e-02 -2.506383880972862244e-02 -8.180411532521247864e-03
-4.195953533053398132e-02 -7.905163802206516266e-03 -2.338918671011924744e-02
-6.735543161630630493e-02 3.052049688994884491e-02 -8.013133704662322998e-02
-1.450536213815212250e-02 -8.186666667461395264e-02 -6.134514510631561279e-02
8.682694286108016968e-02 -6.184975150972604752e-03 -1.507366634905338287e-02
2.343054860830307007e-02 1.459394115954637527e-02 9.456631727516651154e-03
1.469486765563488007e-02 6.053169444203376770e-02 4.181808978319168091e-02
-2.511438168585300446e-02 2.399730868637561798e-02 4.102701693773269653e-02
2.364003565162420273e-03 5.868685618042945862e-02 -3.552112728357315063e-02
-2.442556060850620270e-02 -5.288906861096620560e-03 3.422498703002929688e-02
4.554762691259384155e-02 3.143609501421451569e-03 -6.114003062248229980e-02
2.589598484337329865e-02 -2.387544885277748108e-02 3.200971335172653198e-02
1.657495461404323578e-02 5.133894458413124084e-02 3.899291530251502991e-02
-7.823447138071060181e-02 -2.067347802221775055e-02 1.990296319127082825e-02
5.278187338262796402e-03 1.867409679107367992e-03 -4.070070572197437286e-03
2.522374689579010010e-02 1.064975559711456299e-02 8.169504813849925995e-03
-3.526721149682998657e-02 -1.540706679224967957e-02 5.002553761005401611e-02
3.876240551471710205e-02 1.314337272197008133e-02 3.529619425535202026e-02
1.433964818716049194e-02 -2.254825271666049957e-02 7.236511260271072388e-02
-4.676101729273796082e-03 -4.200987517833709717e-02 -4.802642017602920532e-02
2.272258512675762177e-02 3.644696623086929321e-02 -1.706488244235515594e-02
2.668916620314121246e-02 2.084069885313510895e-02 -2.246162481606006622e-02
-2.251510322093963623e-02 -1.078344415873289108e-02 -3.757042437791824341e-02
-6.391000468283891678e-03 1.417898945510387421e-02 5.797829478979110718e-02
-4.596887156367301941e-03 3.280348144471645355e-03 -2.916496805846691132e-02
8.831209689378738403e-02 -8.445457555353641510e-03 1.819849386811256409e-02
-8.235253393650054932e-02 2.586423233151435852e-02 2.079256623983383179e-02
-5.694894865155220032e-02 2.300146408379077911e-02 -8.420921862125396729e-03
-6.566911190748214722e-02 -4.669488966464996338e-02 -1.099354401230812073e-02
7.108730822801589966e-02 7.030793279409408569e-02 5.644766986370086670e-02
4.929226636886596680e-02 3.344404697418212891e-02 6.961497664451599121e-02
-7.678994908928871155e-03 -6.525945384055376053e-03 1.305781956762075424e-02
1.920830458402633667e-02 -2.476709149777889252e-02 5.100693926215171814e-02
-3.303601965308189392e-02 3.294212743639945984e-02 5.027893930673599243e-02
-3.813715279102325439e-02 6.112340092658996582e-02 3.627336397767066956e-02
3.689480200409889221e-02 2.726748213171958923e-02 -1.577804610133171082e-02
7.295747101306915283e-02 3.979545831680297852e-02 -3.964428789913654327e-03
4.699787497520446777e-02 2.511000260710716248e-02 1.749564334750175476e-02
-4.186565056443214417e-02 -6.725715100765228271e-02 2.800673805177211761e-02
-2.939756587147712708e-02 -6.498337723314762115e-03 -6.992023438215255737e-03
-2.198179624974727631e-02 -1.083352975547313690e-02 1.002880278974771500e-02
5.368838831782341003e-02 6.678272783756256104e-02 9.988066554069519043e-02
1.021843962371349335e-02 -1.562943495810031891e-02 -1.492461748421192169e-02
-1.278604008257389069e-02 -2.207572571933269501e-02 -2.277985028922557831e-02
-1.057513710111379623e-02 3.682683408260345459e-02 -1.014386769384145737e-02
2.732102014124393463e-02 6.782229989767074585e-03 -8.461434394121170044e-03
1.178145408630371094e-02 -2.918474189937114716e-02 -6.910199671983718872e-02
5.513672903180122375e-02 4.161462560296058655e-02 5.581235140562057495e-02
-7.323180790990591049e-03 -4.689890891313552856e-02 -7.544216513633728027e-02
1.724624307826161385e-03 -5.863609164953231812e-02 -5.074264109134674072e-02
-2.005319111049175262e-02 -4.957235604524612427e-02 -5.605653300881385803e-02
6.453298777341842651e-02 -9.196892380714416504e-03 -2.295437455177307129e-02
8.274810761213302612e-02 5.088239163160324097e-02 8.881645649671554565e-02
3.732616826891899109e-02 2.977043762803077698e-02 -1.984794996678829193e-02
3.029016219079494476e-02 -1.365970354527235031e-03 -5.005470663309097290e-02
-3.132792562246322632e-02 8.768063271418213844e-04 -4.953623935580253601e-02
-4.928157478570938110e-02 -4.189107194542884827e-02 -2.055652625858783722e-02
-1.913418434560298920e-02 1.601896435022354126e-02 -1.118811685591936111e-02
3.644549055024981499e-03 -4.402803257107734680e-02 4.252911021467298269e-04
-3.961276635527610779e-02 3.505970584228634834e-03 -3.221933171153068542e-02
2.865178883075714111e-02 -4.323252011090517044e-03 2.191810868680477142e-02
-1.991874538362026215e-02 -3.254590183496475220e-02 -9.675255045294761658e-03
-5.863925069570541382e-02 2.372032776474952698e-02 -3.462342778220772743e-03
3.937026858329772949e-02 2.078234776854515076e-02 -1.794341951608657837e-02
1.729875244200229645e-02 3.116756305098533630e-02 -2.236688882112503052e-02
3.435857221484184265e-02 3.879983723163604736e-02 9.665885940194129944e-03
-9.281848557293415070e-03 -3.771700896322727203e-03 -2.135106176137924194e-02
-3.587482869625091553e-02 9.937710128724575043e-03 -1.900916546583175659e-02
-2.972369082272052765e-02 -3.911635279655456543e-02 -4.061883781105279922e-03
-6.736162467859685421e-04 -3.347962349653244019e-02 -3.624217212200164795e-02
5.643152818083763123e-02 -3.144242614507675171e-02 -5.846818536520004272e-02
3.515612706542015076e-02 5.815849825739860535e-02 2.957813255488872528e-02
5.889819934964179993e-02 1.478445436805486679e-02 6.036253180354833603e-03
-5.839515477418899536e-03 2.876300830394029617e-03 1.015327963978052139e-02
8.674522861838340759e-03 -3.422243148088455200e-02 -1.897971518337726593e-02
-3.076686337590217590e-02 -2.333312109112739563e-02 4.692983999848365784e-02
3.536066412925720215e-02 -6.718753278255462646e-02 2.392942458391189575e-02
-2.064685523509979248e-02 2.402745001018047333e-02 -4.269006848335266113e-02
-7.198587805032730103e-02 -2.647595107555389404e-02 -4.259206354618072510e-02
-3.985486924648284912e-02 -2.000059187412261963e-02 6.152234505861997604e-03
-3.301274403929710388e-02 4.422583058476448059e-02 1.059358473867177963e-02
2.328396588563919067e-02 2.642016857862472534e-02 3.626695647835731506e-02
-3.964508417993783951e-03 -4.888438619673252106e-03 -3.381871804594993591e-02
5.022947490215301514e-02 2.012075297534465790e-02 1.982948556542396545e-02
3.046759404242038727e-02 2.827299199998378754e-02 -2.497425116598606110e-02
-6.665844470262527466e-02 3.578217467293143272e-03 8.469218015670776367e-02
-7.434355211444199085e-04 8.614183217287063599e-02 8.802616968750953674e-03
7.334213238209486008e-03 4.179668053984642029e-02 -3.149871155619621277e-02
2.814943902194499969e-02 4.744523391127586365e-02 -1.890327595174312592e-02
3.071331605315208435e-02 3.161882609128952026e-02 4.717853292822837830e-02
1.530732214450836182e-02 -3.090854361653327942e-02 2.111213840544223785e-02
8.017157204449176788e-03 -6.082655861973762512e-02 1.696400530636310577e-02
-1.206282246857881546e-02 2.900689281523227692e-02 5.412489175796508789e-02
-6.841231882572174072e-02 -4.043766111135482788e-02 -7.842824608087539673e-02
-2.437330968677997589e-02 -4.047336801886558533e-02 -2.049937658011913300e-02
-3.433672338724136353e-02 7.116249762475490570e-03 6.577855907380580902e-03
1.531329099088907242e-02 5.157652124762535095e-02 -2.128124982118606567e-02
-9.664165787398815155e-03 1.821414753794670105e-02 -8.582923561334609985e-02
-1.534029562026262283e-02 -4.438101872801780701e-02 -7.526825368404388428e-02
5.409713834524154663e-02 -5.636982992291450500e-02 -8.086474984884262085e-02
3.250253573060035706e-02 -3.860474377870559692e-02 -3.123767860233783722e-02
-1.126265805214643478e-02 5.926570389419794083e-03 -6.218201294541358948e-02
1.179681159555912018e-02 -1.392995193600654602e-02 1.775144040584564209e-02
-5.790929496288299561e-02 1.880991831421852112e-02 1.371106319129467010e-02
1.315204519778490067e-02 -2.030036598443984985e-02 3.584236605092883110e-03
-4.883770272135734558e-02 -3.363212570548057556e-02 9.386789053678512573e-03
4.039751365780830383e-03 -6.272071599960327148e-02 -5.636271089315414429e-03
-5.562381446361541748e-02 -6.333079654723405838e-03 3.898513689637184143e-02
-2.670365571975708008e-02 1.760594360530376434e-02 -2.663410082459449768e-02
-3.562578931450843811e-02 9.219327941536903381e-03 3.562355414032936096e-02
-2.543078176677227020e-02 8.054055273532867432e-03 -3.000811301171779633e-02
-3.863280639052391052e-02 7.634894922375679016e-03 3.465030109509825706e-03
-5.352696403861045837e-02 -7.748986594378948212e-03 2.080929838120937347e-02
1.036549452692270279e-03 2.429734729230403900e-02 2.305675670504570007e-02
6.427159160375595093e-02 5.087733734399080276e-03 -3.810454159975051880e-03
-3.686759248375892639e-02 -5.580876022577285767e-02 -5.349935032427310944e-03
6.799239665269851685e-02 6.068171188235282898e-02 1.314721852540969849e-01
6.678508222103118896e-02 8.370330929756164551e-02 4.491759836673736572e-02
-6.020424142479896545e-02 -1.481918618083000183e-02 -4.286174103617668152e-02
-3.459380567073822021e-02 -1.001207157969474792e-02 4.178862273693084717e-02
-9.381610900163650513e-03 1.457285229116678238e-02 2.477402612566947937e-02
1.723319478332996368e-02 -1.858696714043617249e-02 -4.755376838147640228e-03
-3.374269977211952209e-02 3.507914021611213684e-02 1.226925943046808243e-02
4.516948759555816650e-02 2.131794393062591553e-02 -2.341788820922374725e-02
1.773237809538841248e-02 -5.381929688155651093e-03 -8.095011860132217407e-02
4.948245361447334290e-02 -1.979407481849193573e-02 -2.208918333053588867e-02
5.868271365761756897e-02 4.275893792510032654e-03 -4.403925314545631409e-02
-2.010203897953033447e-02 -9.137473534792661667e-04 -6.189642101526260376e-02
-1.170649845153093338e-02 -1.708033867180347443e-02 -2.691838704049587250e-02
2.495684474706649780e-02 6.749974098056554794e-03 3.941623028367757797e-03
-4.433537274599075317e-02 4.754675179719924927e-02 -4.157232865691184998e-02
4.257699474692344666e-02 2.269865199923515320e-02 -3.999405726790428162e-02
2.989736385643482208e-02 -2.879676595330238342e-02 -5.907016806304454803e-03
3.165617957711219788e-02 -2.637146227061748505e-02 2.024843171238899231e-02
-1.339107006788253784e-02 1.011863723397254944e-01 3.951948508620262146e-02
-1.138863060623407364e-02 2.763573452830314636e-02 1.243483461439609528e-02
-1.746206916868686676e-02 -1.393119897693395615e-02 -2.624046243727207184e-02
-4.514591768383979797e-02 -2.552902442403137684e-04 -2.063938416540622711e-02
-3.915575519204139709e-02 -4.235232248902320862e-02 -2.714774012565612793e-02
-4.770719259977340698e-02 -4.427087306976318359e-02 2.502059191465377808e-02
2.843789383769035339e-02 2.149122301489114761e-03 -2.114754915237426758e-02
-2.838432788848876953e-02 -8.551263250410556793e-03 -2.189112128689885139e-03
-4.996542632579803467e-02 1.213970710523426533e-03 3.098340705037117004e-02
-2.626698696985840797e-03 -2.075233124196529388e-02 -3.060607239603996277e-03
-1.642359420657157898e-02 1.123142428696155548e-02 -5.089663434773683548e-03
1.813383027911186218e-02 2.237744070589542389e-02 1.738608628511428833e-02
2.510703168809413910e-02 2.300458215177059174e-02 -1.335268747061491013e-02
-1.286385208368301392e-02 -1.710958406329154968e-02 -5.687561351805925369e-03
-1.662913709878921509e-02 3.701102733612060547e-02 6.306739896535873413e-02
-4.360701888799667358e-02 4.694586619734764099e-02 2.924410440027713776e-02
-3.881969675421714783e-02 -3.520975261926651001e-02 -1.218307204544544220e-02
1.245902013033628464e-02 6.824686657637357712e-03 5.518482252955436707e-02
3.141476213932037354e-02 3.333761170506477356e-02 5.723635107278823853e-02
1.118101924657821655e-02 -3.424497321248054504e-02 -1.133077777922153473e-02
-1.621743082068860531e-03 -3.293477743864059448e-02 -4.997840151190757751e-02
2.746764943003654480e-02 -1.171403750777244568e-02 3.198920562863349915e-02
6.748436018824577332e-03 -3.606170415878295898e-02 4.936364665627479553e-02
-5.925339646637439728e-03 -1.813544705510139465e-02 -8.850113488733768463e-03
3.066526260226964951e-03 1.279646437615156174e-02 4.778307303786277771e-02
1.493958756327629089e-02 -4.476799070835113525e-02 3.587884828448295593e-02
2.233245410025119781e-02 -1.508098212070763111e-03 2.225057780742645264e-02
-1.550325751304626465e-02 -4.306475445628166199e-02 5.826394632458686829e-02
-3.074182942509651184e-02 -5.535136442631483078e-03 -6.212941929697990417e-02
-1.058931183069944382e-02 -3.117909841239452362e-02 -3.239929676055908203e-02
3.398200869560241699e-02 3.627271577715873718e-02 -5.181536823511123657e-02
5.639148131012916565e-02 -4.608015343546867371e-02 -9.577494859695434570e-02
-3.811726719141006470e-02 -3.798999264836311340e-02 -3.477830439805984497e-02
8.106392621994018555e-02 3.291837871074676514e-02 1.544420979917049408e-02
7.165265828371047974e-02 4.574905708432197571e-02 -7.545296102762222290e-03
-1.876713521778583527e-02 -1.866598986089229584e-02 -7.804016023874282837e-02
-3.219589218497276306e-02 3.126940503716468811e-02 -1.267694029957056046e-02
5.746454373002052307e-02 6.392072886228561401e-02 4.220297932624816895e-02
2.653980627655982971e-02 2.453952655196189880e-02 -1.702218502759933472e-02
-6.275673210620880127e-02 -3.777427598834037781e-02 4.953261464834213257e-03
-8.189760148525238037e-03 -9.174144826829433441e-03 1.088939420878887177e-02
3.938331082463264465e-02 -2.362092398107051849e-02 2.209613099694252014e-02
1.130975503474473953e-02 3.109967894852161407e-02 2.248791605234146118e-02
-3.444122150540351868e-02 -1.482124067842960358e-02 6.219837069511413574e-02
-2.755462937057018280e-02 -2.251816540956497192e-02 1.836768351495265961e-02
1.357953809201717377e-02 -1.252458430826663971e-02 -4.370557889342308044e-02
-9.375914931297302246e-03 -3.007348626852035522e-02 3.910396620631217957e-02
2.309279283508658409e-03 3.512845188379287720e-02 1.582315377891063690e-02
-7.797987782396376133e-04 -3.671311959624290466e-02 -2.996260300278663635e-02
-1.375825237482786179e-02 -1.240566023625433445e-03 1.133155263960361481e-02
5.724039301276206970e-02 4.356829077005386353e-02 8.702155202627182007e-03
-1.473660301417112350e-02 3.959239646792411804e-02 -6.343389302492141724e-02
1.613024063408374786e-02 3.351391106843948364e-02 5.837850272655487061e-03
1.093365065753459930e-02 -1.091316342353820801e-02 -2.893387340009212494e-02
1.384558901190757751e-02 1.757143996655941010e-02 -4.194776341319084167e-02
-1.171618886291980743e-02 -6.024150177836418152e-02 1.724548987112939358e-03
-2.612752141430974007e-03 -4.345575347542762756e-02 2.683288231492042542e-02
2.521981857717037201e-02 1.962185464799404144e-02 -5.441963672637939453e-03
2.059200778603553772e-02 -3.382103051990270615e-03 5.698545835912227631e-03
1.034033298492431641e-02 -1.865828968584537506e-02 -2.621657773852348328e-02
3.681951016187667847e-02 -3.160056890919804573e-03 -4.349685832858085632e-02
-5.743426084518432617e-02 3.735051676630973816e-02 3.066713921725749969e-02
1.950813643634319305e-02 -4.145136848092079163e-02 -2.604294568300247192e-03
-1.970978826284408569e-02 7.900659926235675812e-03 -4.855690896511077881e-02
2.229401469230651855e-02 4.894549492746591568e-04 -1.852278597652912140e-02
-3.271321952342987061e-02 -2.140108309686183929e-02 -1.936651207506656647e-02
6.703314837068319321e-03 2.745071239769458771e-02 2.182404696941375732e-02
5.596125032752752304e-03 2.504021674394607544e-02 1.365044806152582169e-02
2.958855591714382172e-02 -3.406872227787971497e-02 7.615473866462707520e-02
-5.991167947649955750e-02 1.547576626762747765e-03 -4.903314262628555298e-02
-2.521462179720401764e-02 4.605455789715051651e-03 -4.466548562049865723e-02
5.362170282751321793e-03 -2.045348845422267914e-02 -1.577826915308833122e-03
-1.357018854469060898e-02 2.891629189252853394e-02 5.709275603294372559e-02
-7.911859080195426941e-03 1.367965899407863617e-02 -5.480920523405075073e-02
3.105077706277370453e-02 3.106166608631610870e-03 -4.465622361749410629e-03
2.710109576582908630e-02 7.696649990975856781e-03 4.818108677864074707e-02
-1.762036583386361599e-03 -2.845753729343414307e-02 -6.491056084632873535e-02
-2.063827216625213623e-02 1.954585686326026917e-02 -5.470272153615951538e-03
6.430066190659999847e-03 1.696212403476238251e-02 3.138839453458786011e-02
-1.804341212846338749e-03 5.700733046978712082e-03 6.101028993725776672e-03
4.322729539126157761e-03 -3.422588109970092773e-02 2.802159264683723450e-02
-2.863917499780654907e-02 -5.968420300632715225e-03 -2.196587994694709778e-02
-2.799970330670475960e-03 -9.783649817109107971e-03 -2.193863503634929657e-03
-1.593395695090293884e-02 -5.455081164836883545e-02 3.091897070407867432e-02
-5.522523447871208191e-02 -8.242019265890121460e-02 -7.254479825496673584e-02
3.851742669939994812e-02 -1.558054005727171898e-03 -6.146298721432685852e-02
6.694278866052627563e-02 4.145462438464164734e-02 1.591680571436882019e-03
-2.986804954707622528e-02 -5.293611064553260803e-02 2.396487444639205933e-02
-2.530231839045882225e-03 -9.251948213204741478e-04 -3.579763323068618774e-02
1.392865669913589954e-03 1.044150721281766891e-02 5.874934792518615723e-02
-3.881732746958732605e-02 2.198361605405807495e-02 -1.046805176883935928e-02
-3.248293697834014893e-02 2.960005588829517365e-02 -1.130931731313467026e-02
-1.265823841094970703e-02 4.722751304507255554e-02 -5.335393920540809631e-02
4.400541633367538452e-02 -7.930914871394634247e-03 -6.229446828365325928e-02
1.111577544361352921e-02 -3.819492086768150330e-02 -1.769665256142616272e-02
-4.128069803118705750e-02 1.998867280781269073e-02 2.173041552305221558e-02
-5.771541036665439606e-03 1.655293069779872894e-02 -2.390570752322673798e-02
-1.456247176975011826e-02 -4.055152460932731628e-02 7.838647812604904175e-03
2.490771189332008362e-02 5.586691945791244507e-02 3.329946100711822510e-02
-2.501199953258037567e-02 -5.790842697024345398e-02 -2.834627591073513031e-02
-1.864295452833175659e-02 -5.121458787471055984e-03 -6.593982689082622528e-03
1.567156240344047546e-02 4.015023820102214813e-03 -9.499319829046726227e-03
2.738373354077339172e-02 -2.065760642290115356e-02 -5.802528187632560730e-02
7.723426073789596558e-02 2.924742922186851501e-02 -1.176148536615073681e-03
5.700355023145675659e-02 2.786997007206082344e-03 -3.138801548629999161e-03
7.806848268955945969e-03 3.409800678491592407e-02 8.883061818778514862e-03
1.246221736073493958e-02 3.021472506225109100e-02 -2.129106223583221436e-02
1.809421367943286896e-02 -1.895345747470855713e-02 1.537567656487226486e-02
1.805773749947547913e-02 4.752666130661964417e-02 -2.058544941246509552e-02
3.526171296834945679e-02 -2.462263405323028564e-02 1.025606971234083176e-02
1.161361229605972767e-03 -2.274367958307266235e-03 -3.428342938423156738e-02
2.179485373198986053e-02 -1.069406792521476746e-02 2.155432291328907013e-02
-3.474925458431243896e-02 1.414216589182615280e-02 4.472250118851661682e-02
-4.974985122680664062e-02 2.721405401825904846e-02 1.873057521879673004e-02
-3.512929752469062805e-02 2.383344806730747223e-02 1.690587215125560760e-02
2.694780007004737854e-02 4.857110977172851562e-02 5.870272964239120483e-02
-5.212140455842018127e-02 4.319142177700996399e-02 -3.605192154645919800e-02
-2.689916826784610748e-02 1.799368113279342651e-02 -8.688143454492092133e-03
-7.781801978126168251e-04 -2.064585452899336815e-03 6.140423472970724106e-03
-2.977912500500679016e-02 2.698023058474063873e-02 -6.530164740979671478e-03
-1.204609591513872147e-02 1.596702635288238525e-02 -1.958191394805908203e-02
6.768280267715454102e-02 -2.654236555099487305e-02 3.876701369881629944e-02
-6.025506649166345596e-03 -3.636774048209190369e-02 -8.219344541430473328e-03
-8.076656609773635864e-02 -8.029840141534805298e-02 -3.209173679351806641e-02
-3.805528581142425537e-02 -2.880729734897613525e-02 5.307379760779440403e-04
2.395169995725154877e-02 1.316994335502386093e-02 6.226004101336002350e-03
1.740998961031436920e-02 -2.766923233866691589e-02 4.316836595535278320e-02
6.765760481357574463e-03 1.576021611690521240e-01 3.427747637033462524e-02
-4.961809888482093811e-02 4.505547881126403809e-02 1.878103427588939667e-02
-2.722194604575634003e-02 2.256612665951251984e-02 1.551417447626590729e-02
1.798589155077934265e-02 -8.247639983892440796e-03 3.134212270379066467e-02
3.960367292165756226e-02 -8.941374835558235645e-04 2.755348943173885345e-02
5.201438069343566895e-02 2.356962300837039948e-02 -4.464637860655784607e-02
2.973262220621109009e-02 6.955063436180353165e-03 3.406194597482681274e-02
-4.312758147716522217e-02 3.906146809458732605e-02 -4.282097145915031433e-02
-4.009480774402618408e-02 -1.161201298236846924e-02 1.308657601475715637e-02
-4.133322089910507202e-02 1.801123842597007751e-02 -2.457884140312671661e-03
9.680563583970069885e-03 3.867738693952560425e-02 -1.453665364533662796e-02
-6.304119527339935303e-02 2.727706730365753174e-02 2.209340967237949371e-02
3.374885022640228271e-02 -3.486363589763641357e-02 -1.931209862232208252e-02
3.838608739897608757e-03 5.192871019244194031e-02 -4.752188979182392359e-04
-6.552783772349357605e-03 3.081933595240116119e-03 1.273597939871251583e-03
-5.004622042179107666e-02 -1.461762096732854843e-02 1.948336698114871979e-02
1.688679563812911510e-03 2.699852455407381058e-03 -6.427488289773464203e-03
-5.364608019590377808e-03 -2.180511690676212311e-02 1.252005249261856079e-02
-5.771783739328384399e-02 -7.937961816787719727e-02 5.330255255103111267e-02
-4.350670427083969116e-02 -2.665193937718868256e-02 -1.331754680722951889e-02
-1.131082070060074329e-03 6.914314627647399902e-02 5.054122954607009888e-02
-1.019116304814815521e-02 -4.575390368700027466e-02 -1.871785148978233337e-02
-7.121036201715469360e-02 -1.139810215681791306e-02 -1.269527478143572807e-03
5.225168541073799133e-03 4.859349224716424942e-03 -4.385901987552642822e-02
1.339281816035509109e-02 6.299544125795364380e-02 -3.028445132076740265e-02
2.012136392295360565e-02 -5.779264494776725769e-02 7.033357769250869751e-02
-1.515043154358863831e-02 1.948072388768196106e-02 -1.206418778747320175e-02
-3.030065260827541351e-02 2.741493226494640112e-04 3.687878325581550598e-02
-5.583805963397026062e-02 -2.936071343719959259e-02 -3.324456140398979187e-02
-3.368319943547248840e-02 4.041799530386924744e-02 1.921451650559902191e-03
9.702065028250217438e-03 3.137340024113655090e-02 9.553712792694568634e-03
-9.266308625228703022e-04 -1.802619732916355133e-02 -1.870442740619182587e-02
1.446118950843811035e-02 -1.188732590526342392e-02 -6.298511754721403122e-03
3.612061217427253723e-02 3.892122209072113037e-02 -3.983744885772466660e-03
-1.882029138505458832e-02 4.846457764506340027e-02 -6.876071449369192123e-03
1.153382193297147751e-02 -5.246818810701370239e-02 6.012221332639455795e-03
5.586852505803108215e-02 8.573710918426513672e-02 -4.327027127146720886e-03
4.877084121108055115e-02 5.749308690428733826e-02 2.151147276163101196e-02
-4.882087931036949158e-02 3.609853237867355347e-02 -6.469187140464782715e-02
-6.250667572021484375e-02 -1.052496396005153656e-02 -1.347964908927679062e-02
-3.952214960008859634e-03 3.511213511228561401e-02 -3.239437192678451538e-02
-5.076133459806442261e-02 7.043376564979553223e-03 -6.050294637680053711e-02
-5.657313391566276550e-03 -4.139663651585578918e-02 -4.002583771944046021e-02
-4.080389067530632019e-02 2.234482578933238983e-02 -9.280705824494361877e-03
8.022530935704708099e-03 3.027354134246706963e-03 4.225168749690055847e-02
-1.440530735999345779e-02 1.074447389692068100e-02 -1.549333240836858749e-02
1.786663569509983063e-02 -1.687473617494106293e-02 8.404207415878772736e-03
-5.758716911077499390e-02 8.298366330564022064e-03 -1.967929489910602570e-02
-8.204597234725952148e-02 -2.957411855459213257e-02 2.057866379618644714e-02
-5.247227102518081665e-02 -8.150037378072738647e-03 -4.553814232349395752e-02
4.847891628742218018e-02 9.055093978531658649e-04 5.846362560987472534e-02
-4.789936169981956482e-02 4.155730456113815308e-02 3.237035125494003296e-02
-4.704712424427270889e-03 7.922048121690750122e-02 6.291200965642929077e-02
5.905396863818168640e-02 4.727682471275329590e-02 1.775282435119152069e-02
-2.420961536699905992e-04 3.684790804982185364e-02 6.201794743537902832e-02
4.651382192969322205e-02 1.020095497369766235e-02 -9.110907092690467834e-03
-9.431983344256877899e-03 -2.251648530364036560e-02 3.848002525046467781e-03
1.741344109177589417e-03 -2.093028277158737183e-02 3.581366688013076782e-02
4.706221818923950195e-02 -2.860037982463836670e-02 -1.864282600581645966e-02
-8.001803606748580933e-02 -3.892646357417106628e-02 -4.314098134636878967e-02
-4.924003779888153076e-02 -6.218618154525756836e-02 -3.973599523305892944e-02
-4.342749342322349548e-02 1.034325826913118362e-02 -2.518441528081893921e-02
-2.057637460529804230e-02 7.652046624571084976e-03 -3.167805820703506470e-02
-1.481827697716653347e-03 3.989883884787559509e-02 -4.659682512283325195e-02
3.260157257318496704e-02 -7.814103737473487854e-04 -5.623120442032814026e-02
-2.242564223706722260e-02 -4.171210527420043945e-02 -2.814753912389278412e-02
3.182660788297653198e-02 -2.285598218441009521e-02 -2.393121272325515747e-02
3.824868053197860718e-02 1.539908815175294876e-02 -8.661528117954730988e-03
4.980798810720443726e-02 -6.458994466811418533e-03 4.532544687390327454e-02
4.733526706695556641e-02 4.043026268482208252e-02 -2.085215225815773010e-02
-2.394199557602405548e-02 2.319192886352539062e-02 3.395680710673332214e-02
3.336426988244056702e-02 -5.070542544126510620e-02 -1.691985502839088440e-02
4.134979844093322754e-02 1.829294674098491669e-02 -2.866204641759395599e-02
4.484757408499717712e-02 -2.121950685977935791e-02 -1.109611317515373230e-01
1.649781502783298492e-02 6.025862414389848709e-03 -2.549733035266399384e-02
-3.347130725160241127e-03 -3.228259086608886719e-02 -6.977279484272003174e-02
8.378287404775619507e-02 -1.271968241780996323e-02 1.917305053211748600e-03
7.334927469491958618e-02 -1.016625948250293732e-02 -1.135884877294301987e-02
9.259945712983608246e-03 2.464512735605239868e-02 -3.432733565568923950e-02
6.602614372968673706e-02 5.764885246753692627e-02 3.735595941543579102e-02
1.003757864236831665e-01 -3.359726443886756897e-02 -2.164958789944648743e-02
9.914202988147735596e-02 -8.496083319187164307e-03 -5.152477324008941650e-02
2.998380921781063080e-02 -1.793928071856498718e-02 1.006823033094406128e-03
6.877582520246505737e-02 -1.074924133718013763e-03 -3.608442470431327820e-02
2.305544912815093994e-02 2.254910022020339966e-02 -3.728270903229713440e-02
-2.820785343647003174e-02 -3.199889138340950012e-02 6.437514908611774445e-03
-5.598018318414688110e-02 -1.249895803630352020e-02 -5.108226090669631958e-03
-1.906883716583251953e-02 -4.086008761078119278e-03 3.540259972214698792e-02
-3.803531453013420105e-02 2.768454514443874359e-02 -1.106126755475997925e-01
-7.329928874969482422e-02 -1.204287353903055191e-02 2.421116828918457031e-02
-2.641467191278934479e-02 -2.958042174577713013e-02 -4.040052369236946106e-02
-3.909921739250421524e-03 -1.867214776575565338e-02 -2.702010050415992737e-02
-5.345439910888671875e-02 3.069967217743396759e-02 -5.390328541398048401e-02
-2.194408513605594635e-02 -1.698582060635089874e-02 1.626061834394931793e-02
1.243563834577798843e-02 3.639968857169151306e-02 4.755691438913345337e-02
9.341924637556076050e-02 9.336102753877639771e-03 1.343702804297208786e-02
1.079445332288742065e-01 -1.387415919452905655e-02 8.060880936682224274e-03
2.579256147146224976e-02 -7.532067596912384033e-03 -6.136443838477134705e-02
-4.909113422036170959e-02 -6.197485327720642090e-02 -3.406482748687267303e-03
-1.355482358485460281e-02 -1.745095103979110718e-02 -3.159332647919654846e-02
-2.020865306258201599e-02 1.063975784927606583e-02 1.480565126985311508e-02
2.417954802513122559e-02 4.184355959296226501e-03 1.738167740404605865e-02
1.173146534711122513e-02 -2.583546005189418793e-02 -2.053766325116157532e-02
1.505471765995025635e-02 1.044866070151329041e-02 -4.610420390963554382e-02
-3.539223968982696533e-02 2.275533415377140045e-02 -5.373664200305938721e-02
-6.910434365272521973e-02 -3.443963080644607544e-02 -3.157152608036994934e-02
-1.715219020843505859e-02 -5.494555830955505371e-02 -7.286293059587478638e-02
-5.456032976508140564e-02 2.371227182447910309e-02 7.180106826126575470e-03
-5.536756291985511780e-02 2.107257582247257233e-02 9.168499149382114410e-03
3.391569852828979492e-02 9.161883965134620667e-03 -1.061222050338983536e-03
1.399815827608108521e-02 -3.700762614607810974e-02 -1.303317490965127945e-02
2.133099548518657684e-02 3.623822703957557678e-02 -2.487860433757305145e-02
5.551898106932640076e-02 -6.624922156333923340e-02 -3.806245326995849609e-02
-3.039499744772911072e-02 6.011938303709030151e-02 6.634279340505599976e-02
-1.221933681517839432e-02 -1.913115009665489197e-02 -2.155177528038620949e-03
-2.223650179803371429e-02 2.512803534045815468e-03 4.189312458038330078e-02
2.142332307994365692e-02 5.633034557104110718e-02 1.014268249273300171e-01
9.377073496580123901e-03 2.395870350301265717e-02 5.638777837157249451e-02
5.006442219018936157e-02 -3.061987832188606262e-02 1.258043665438890457e-02
5.686083436012268066e-02 -1.705468073487281799e-02 -4.944873601198196411e-02
-8.898538537323474884e-03 -4.485797137022018433e-02 -5.677965655922889709e-02
-4.569857567548751831e-02 -2.599401585757732391e-02 -8.983504027128219604e-02
-1.738368906080722809e-02 -1.124161295592784882e-02 -2.670360915362834930e-02
-2.210940048098564148e-02 -2.069764398038387299e-02 -6.800025701522827148e-03
-1.981064304709434509e-02 -2.974904887378215790e-02 1.216677366755902767e-03
-4.343496635556221008e-02 3.363938257098197937e-02 -1.588546112179756165e-02
-2.143569104373455048e-02 1.209286134690046310e-02 -4.751231521368026733e-02
4.687028005719184875e-03 4.513458907604217529e-02 9.609988890588283539e-03
-1.276129018515348434e-02 4.428873956203460693e-02 1.900405064225196838e-02
1.560046616941690445e-02 9.995313361287117004e-03 -1.288916077464818954e-02
6.372682750225067139e-02 1.464095432311296463e-02 -1.432998292148113251e-02
-6.765180081129074097e-02 -4.691706597805023193e-02 -4.985748324543237686e-03
2.131816931068897247e-02 -2.149474620819091797e-02 -3.148151328787207603e-03
-5.083023756742477417e-02 -7.200292497873306274e-02 1.994894817471504211e-02
3.891421109437942505e-02 -3.963386267423629761e-02 1.001162733882665634e-02
4.442251846194267273e-02 -1.049233898520469666e-01 -4.071627929806709290e-02
6.763075292110443115e-02 -4.412784799933433533e-02 1.070409920066595078e-02
-3.544008126482367516e-03 -2.146996185183525085e-02 4.267869889736175537e-02
-4.396913107484579086e-03 4.015408083796501160e-02 -1.437631435692310333e-02
-1.103687006980180740e-02 1.889998675324022770e-03 -3.660740912891924381e-04
-4.863459616899490356e-02 -3.734920173883438110e-02 -5.776098929345607758e-03
3.844657912850379944e-02 2.758523821830749512e-02 1.247731782495975494e-02
-1.614858582615852356e-02 -5.445435643196105957e-02 1.971119269728660583e-02
-1.268077790737152100e-01 -2.235269173979759216e-03 -3.944342955946922302e-02
-8.903873711824417114e-02 -4.742553830146789551e-02 1.596836559474468231e-02
-4.356587305665016174e-02 4.179336875677108765e-02 8.317542821168899536e-02
-1.067152917385101318e-01 3.488683328032493591e-02 1.966948620975017548e-03
-5.853215605020523071e-02 2.090675570070743561e-02 -1.232776418328285217e-02
-7.132861763238906860e-02 1.438553538173437119e-02 -2.078652568161487579e-02
-6.887669861316680908e-02 -3.957816213369369507e-02 -4.626262933015823364e-03
-2.537407213822007179e-03 -2.547607198357582092e-02 1.689418405294418335e-02
4.749044403433799744e-02 8.658507838845252991e-03 5.574655532836914062e-02
4.968114942312240601e-02 5.127229914069175720e-02 4.852446913719177246e-02
-4.868612159043550491e-03 3.657459095120429993e-02 -1.392792351543903351e-02
-4.337200894951820374e-03 2.661696402356028557e-03 -3.900942206382751465e-02
3.219522908329963684e-02 1.394024211913347244e-02 1.018509045243263245e-01
2.251038141548633575e-02 1.835180073976516724e-02 8.395142853260040283e-02
-5.032714456319808960e-02 8.965107612311840057e-03 -5.052949418313801289e-04
4.410374909639358521e-02 2.050207555294036865e-02 -5.465424433350563049e-02
2.930094674229621887e-02 1.983072794973850250e-02 -3.991762548685073853e-02
-6.759708048775792122e-04 -1.990274060517549515e-03 5.179569590836763382e-03
2.359464298933744431e-03 2.000084705650806427e-02 3.783439844846725464e-02
3.336224704980850220e-02 -3.876974433660507202e-02 -2.152992528863251209e-04
-2.907013893127441406e-02 1.932627893984317780e-02 -8.965716697275638580e-03
-4.030463099479675293e-02 -3.880788013339042664e-02 -7.617653813213109970e-03
-1.964648067951202393e-02 -5.658484995365142822e-02 3.045835532248020172e-02
2.058557979762554169e-02 1.292599458247423172e-02 -5.145707726478576660e-02
7.726603746414184570e-02 -7.892215996980667114e-02 2.946877852082252502e-02
1.775719597935676575e-02 -5.523702129721641541e-02 5.980468168854713440e-02
-3.336659818887710571e-02 -2.660715021193027496e-02 7.262074947357177734e-02
-6.741056591272354126e-02 -7.376842945814132690e-02 -6.460932083427906036e-03
-5.188646912574768066e-02 5.087403953075408936e-02 9.736699052155017853e-03
7.982742041349411011e-02 -7.575127761811017990e-03 3.957806155085563660e-02
8.736529201269149780e-02 1.987545751035213470e-02 -2.943406812846660614e-02
3.732693195343017578e-02 2.751917019486427307e-02 -2.375696226954460144e-02
-2.834684960544109344e-02 -5.385733768343925476e-02 1.533686369657516479e-02
-1.594481244683265686e-02 2.751570194959640503e-02 3.620420396327972412e-02
-2.056496776640415192e-02 -4.653078969568014145e-03 -1.239871885627508163e-02
-1.659632846713066101e-02 -3.773750737309455872e-02 9.772051125764846802e-04
2.726893872022628784e-02 2.883250638842582703e-02 3.101958706974983215e-02
1.962763816118240356e-02 7.627505809068679810e-02 -2.450079098343849182e-02
-7.737377285957336426e-02 -4.530788399279117584e-03 8.199431933462619781e-03
1.066607311367988586e-01 -1.447462663054466248e-02 -5.337500572204589844e-02
3.457904234528541565e-02 -7.346066832542419434e-02 -2.807101048529148102e-02
-3.393831476569175720e-02 -4.899795725941658020e-02 -6.977253407239913940e-02
1.922385767102241516e-02 4.502361174672842026e-03 -4.378466680645942688e-02
2.000310458242893219e-02 2.185217477381229401e-02 -4.351084679365158081e-02
2.319064363837242126e-02 4.642834141850471497e-02 3.873746842145919800e-03
-3.920370712876319885e-02 3.258547559380531311e-02 1.265762466937303543e-02
9.279215708374977112e-03 -8.557572960853576660e-03 -1.047300454229116440e-02
1.065424364060163498e-02 -1.105645112693309784e-02 6.117741018533706665e-02
-5.037436634302139282e-02 -1.107597872614860535e-01 -3.749379888176918030e-02
-4.730105865746736526e-03 1.229680143296718597e-02 5.883545801043510437e-02
4.867611452937126160e-02 3.078301250934600830e-02 3.505355119705200195e-02
-1.414233297109603882e-01 4.498220607638359070e-02 3.616257011890411377e-02
-7.988274097442626953e-02 4.775160178542137146e-02 -4.249312332831323147e-04
-2.063471823930740356e-02 7.956526242196559906e-03 7.549651712179183960e-02
1.373397409915924072e-01 5.892894417047500610e-02 2.467704936861991882e-02
3.983952850103378296e-02 4.522807896137237549e-02 1.561233890242874622e-03
1.387936901301145554e-02 5.895254202187061310e-03 1.863912306725978851e-02
2.670841664075851440e-02 6.617823150008916855e-03 -4.245703294873237610e-02
-2.047587558627128601e-02 8.247127756476402283e-03 1.403394341468811035e-02
1.146180406212806702e-01 6.817206740379333496e-02 3.137686103582382202e-02
-9.511575847864151001e-02 -1.694997772574424744e-02 1.676837727427482605e-02
-5.852297693490982056e-02 -3.293234854936599731e-02 -1.478526834398508072e-02
6.067574955523014069e-03 -7.499006390571594238e-02 5.259084980934858322e-03
4.876654595136642456e-02 3.940467908978462219e-02 2.462094463407993317e-02
1.833357661962509155e-02 -4.988173954188823700e-03 -8.483147621154785156e-02
8.561913855373859406e-03 6.932290643453598022e-02 3.123392537236213684e-02
-9.287130832672119141e-02 1.650483580306172371e-03 -3.122645057737827301e-02
-2.629096247255802155e-02 4.321765620261430740e-03 1.288092415779829025e-02
-3.108096681535243988e-02 3.197097778320312500e-02 -1.156836561858654022e-02
2.869410440325737000e-02 -2.984029054641723633e-02 -6.354542076587677002e-02
2.007256448268890381e-02 2.447626739740371704e-02 1.134966220706701279e-02
3.540217503905296326e-02 7.353688124567270279e-03 -8.532322011888027191e-03
-5.015120375901460648e-03 -1.080125942826271057e-02 -3.232229873538017273e-02
-2.118664607405662537e-02 -2.107509877532720566e-03 -1.585610210895538330e-02
-8.457854390144348145e-02 -2.352343127131462097e-02 -1.194965559989213943e-02
3.298350423574447632e-02 -2.994798310101032257e-02 -5.812286958098411560e-02
-8.144582621753215790e-03 -5.266147106885910034e-02 -1.006198395043611526e-02
-3.248868137598037720e-02 9.073956869542598724e-03 2.675280161201953888e-02
-5.624599382281303406e-02 -1.953993923962116241e-02 -5.348815023899078369e-02
-1.076573133468627930e-01 3.067111363634467125e-03 3.872736170887947083e-02
2.468639798462390900e-02 -1.453580043744295835e-04 -2.056278660893440247e-02
2.148680388927459717e-02 1.265104580670595169e-02 4.124579951167106628e-02
2.161103114485740662e-02 -3.096944652497768402e-02 5.132156237959861755e-02
-3.876740485429763794e-02 -1.659123599529266357e-02 4.133966565132141113e-02
1.201143604703247547e-03 -1.405546721071004868e-02 6.796542555093765259e-02
-3.921500872820615768e-03 1.008637621998786926e-02 6.451505422592163086e-02
3.373927623033523560e-02 2.386710233986377716e-02 -3.399218246340751648e-02
1.672097668051719666e-02 -6.543261115439236164e-04 1.927358098328113556e-02
-2.671082317829132080e-02 -2.579127997159957886e-02 -5.895022302865982056e-02
-3.854753449559211731e-02 -1.739328354597091675e-02 1.893012970685958862e-02
-4.773402586579322815e-02 -5.154797341674566269e-03 2.878896705806255341e-02
-1.887077093124389648e-02 -3.944346681237220764e-03 1.757427118718624115e-03
1.267860829830169678e-02 4.701254423707723618e-03 -6.789319217205047607e-02
-9.079082310199737549e-02 4.398404061794281006e-02 -1.982258819043636322e-02
1.395080937072634697e-03 2.586971037089824677e-02 -3.457565978169441223e-02
-6.548319011926651001e-02 -2.982150763273239136e-02 -1.770263351500034332e-02
6.205905228853225708e-02 3.985395189374685287e-03 8.659496903419494629e-03
-2.758796140551567078e-02 5.239233747124671936e-02 -9.505797177553176880e-03
5.359711125493049622e-03 1.377600431442260742e-02 3.979767113924026489e-02
2.358610363444313407e-04 -1.780560426414012909e-02 3.670850023627281189e-02
-6.820867955684661865e-02 -2.187270484864711761e-02 -1.373824663460254669e-02
-7.882863283157348633e-03 -7.850057631731033325e-02 -5.940829217433929443e-02
-4.093289375305175781e-02 -9.072607010602951050e-02 -7.196683902293443680e-03
3.011277294717729092e-04 -4.880790784955024719e-02 -1.961617730557918549e-02
-3.689205506816506386e-03 -1.154870446771383286e-02 -8.406211622059345245e-03
1.182490680366754532e-02 -1.673704758286476135e-02 4.107807762920856476e-03
1.940802484750747681e-02 1.813021861016750336e-02 -4.197675734758377075e-02
3.434642776846885681e-02 -9.385542012751102448e-03 -2.012135647237300873e-02
-4.478570073843002319e-02 -5.732046812772750854e-02 -4.921152815222740173e-02
-5.424882844090461731e-02 -6.940285116434097290e-02 -4.044218733906745911e-02
1.159352343529462814e-02 -1.512765325605869293e-02 -1.313644740730524063e-02
-1.550519000738859177e-02 -3.103739395737648010e-02 7.563512306660413742e-03
-3.049900755286216736e-02 -4.025426879525184631e-02 1.836833544075489044e-02
-2.682996913790702820e-02 -7.365670986473560333e-03 1.660537905991077423e-02
-6.608233600854873657e-02 -5.666390061378479004e-02 -1.245742477476596832e-02
4.050256311893463135e-02 -4.055559262633323669e-02 -2.142007835209369659e-02
1.076880376785993576e-02 1.272359210997819901e-02 -5.346224084496498108e-02
-6.793392356485128403e-03 -6.142123602330684662e-04 2.322505973279476166e-02
-5.772127769887447357e-03 -5.611056461930274963e-03 -1.273259148001670837e-02
5.301127582788467407e-02 -3.757198574021458626e-03 -6.516968831419944763e-03
-3.063739277422428131e-04 2.421219274401664734e-02 -4.194068536162376404e-02
2.609966089949011803e-03 2.139147603884339333e-03 3.020581975579261780e-02
2.341892756521701813e-02 3.524108557030558586e-03 -5.545302852988243103e-02
5.806980282068252563e-02 5.467663332819938660e-02 5.765246599912643433e-02
-2.497169189155101776e-02 -4.350826516747474670e-02 1.475730724632740021e-02
8.281537448056042194e-04 1.359487790614366531e-02 -3.011585213243961334e-02
-2.114336006343364716e-02 4.940517619252204895e-02 -1.116016786545515060e-02
1.890815421938896179e-02 2.447225525975227356e-02 -8.776395581662654877e-03
-6.765843182802200317e-02 1.987210661172866821e-02 1.966648548841476440e-02
-2.591146156191825867e-02 -2.400318533182144165e-02 -4.858630150556564331e-02
1.398341637104749680e-02 2.975692041218280792e-02 1.871793717145919800e-02
-7.822253741323947906e-03 2.716906741261482239e-02 4.090633615851402283e-02
4.818848520517349243e-02 2.073914185166358948e-02 3.666039556264877319e-02
-1.739799045026302338e-02 1.926250196993350983e-02 -2.685587108135223389e-02
-2.366016805171966553e-02 1.397288142470642924e-04 -4.180032387375831604e-02
8.095588535070419312e-03 -2.063963189721107483e-02 3.226449340581893921e-02
2.391646802425384521e-02 3.632349148392677307e-02 3.837757557630538940e-02
-4.055203869938850403e-02 -2.228865772485733032e-02 -5.372859910130500793e-02
2.599375788122415543e-03 -6.385982781648635864e-02 3.000986017286777496e-02
2.719677286222577095e-03 2.647562185302376747e-03 -5.796439200639724731e-02
6.327067036181688309e-03 1.943926792591810226e-03 1.951777562499046326e-02
7.134221494197845459e-03 3.358992282301187515e-03 -5.410652607679367065e-02
-1.772439666092395782e-02 -1.051691919565200806e-02 -3.241879865527153015e-02
-2.067551575601100922e-02 4.939145594835281372e-02 -1.043085847049951553e-02
-2.989049628376960754e-02 2.317517064511775970e-02 -5.561163183301687241e-03
-1.713855005800724030e-02 -3.879031166434288025e-02 5.041707679629325867e-02
-5.320020020008087158e-02 -6.860812008380889893e-02 1.065865624696016312e-02
-2.708158642053604126e-02 -1.868612365797162056e-03 4.125265777111053467e-02
-3.876884002238512039e-03 -8.552037616027519107e-05 3.209672495722770691e-02
5.379994399845600128e-04 1.227108389139175415e-02 4.360850900411605835e-02
-2.882043085992336273e-02 -3.120937012135982513e-02 -6.080313771963119507e-02
3.120949305593967438e-02 -4.406120628118515015e-03 -2.847068011760711670e-02
6.860202550888061523e-02 7.353910803794860840e-02 3.456912003457546234e-03
1.295831613242626190e-02 4.273986071348190308e-02 3.101056814193725586e-02
1.827361434698104858e-02 1.676430553197860718e-02 3.096633777022361755e-02
4.460101202130317688e-02 2.717089653015136719e-02 -1.806498877704143524e-02
-5.131405964493751526e-02 -6.569332629442214966e-02 -4.124121367931365967e-02
-8.062722161412239075e-03 -1.503736712038516998e-02 -2.325475215911865234e-03
5.230801552534103394e-02 -3.008611500263214111e-03 7.908244617283344269e-03
2.703171223402023315e-02 2.035085670650005341e-02 1.074142158031463623e-01
5.671621765941381454e-03 6.645588437095284462e-04 3.614265471696853638e-02
-2.985178492963314056e-02 -4.548120126128196716e-02 4.449548199772834778e-02
6.489322334527969360e-02 5.020637437701225281e-02 5.901581607758998871e-03
1.502534188330173492e-02 1.979114115238189697e-02 -4.103402048349380493e-02
-5.428906902670860291e-02 4.676865413784980774e-02 -5.080801993608474731e-02
1.704791001975536346e-02 3.888734057545661926e-02 7.170659303665161133e-02
-4.460973665118217468e-02 -2.560443617403507233e-02 -3.760060761123895645e-03
2.498909889254719019e-04 -2.330336906015872955e-02 -1.825578138232231140e-02
-1.208373066037893295e-02 3.230205737054347992e-03 1.654791459441184998e-02
-9.135625325143337250e-03 5.738484486937522888e-02 1.557980664074420929e-02
-8.944329805672168732e-03 4.324502497911453247e-02 4.039322957396507263e-02
1.328948698937892914e-02 -5.263476446270942688e-02 -5.432955455034971237e-03
-9.976318106055259705e-03 2.263038550154305995e-05 1.522412803024053574e-02
7.285037636756896973e-02 4.665339738130569458e-02 -2.475448884069919586e-02
-1.149558229371905327e-03 -2.188873477280139923e-02 2.677999727893620729e-04
-1.006482448428869247e-02 1.298290956765413284e-02 3.586050868034362793e-02
7.050462998449802399e-03 -1.816705986857414246e-02 3.559577837586402893e-02
1.266818493604660034e-02 2.473099157214164734e-02 6.325147300958633423e-02
-1.740772835910320282e-02 -2.793101035058498383e-02 4.885829612612724304e-02
-1.145188603550195694e-02 -3.102278336882591248e-02 7.325457781553268433e-02
-3.782282024621963501e-02 3.170805424451828003e-02 -3.272308781743049622e-02
-5.129595845937728882e-02 7.135880738496780396e-02 -4.896111786365509033e-02
4.143358394503593445e-02 4.232203960418701172e-02 -2.026759274303913116e-02
-5.315811187028884888e-02 -2.094651199877262115e-02 -5.008924007415771484e-02
-5.814049020409584045e-02 -5.505780130624771118e-02 -3.537828475236892700e-02
1.253969967365264893e-03 -2.046394534409046173e-02 2.589762210845947266e-02
2.093021012842655182e-02 -7.074628025293350220e-03 1.848326623439788818e-02
8.181523531675338745e-03 1.565236411988735199e-02 -6.652116775512695312e-02
7.972241379320621490e-03 3.678868338465690613e-02 -1.134240552783012390e-01
8.877396583557128906e-03 -7.899423362687230110e-04 -2.904607914388179779e-02
-2.988832257688045502e-02 2.127918181940913200e-03 -1.276055816560983658e-03
-3.431699238717556000e-03 -3.109347634017467499e-02 -2.144030109047889709e-02
-1.885470002889633179e-02 -3.626536205410957336e-02 3.847131878137588501e-02
-1.442866586148738861e-02 -3.140904754400253296e-02 6.725574843585491180e-03
1.458900608122348785e-02 -4.692340269684791565e-02 -7.747605443000793457e-02
1.334826461970806122e-03 1.790835522115230560e-02 -4.231819882988929749e-03
-2.079577371478080750e-02 -1.809249073266983032e-02 4.119673743844032288e-02
1.875965110957622528e-02 -4.367533698678016663e-02 3.410359844565391541e-02
-2.257660031318664551e-02 -5.395746976137161255e-02 -7.950731553137302399e-03
-2.023470960557460785e-02 -1.054531149566173553e-02 -1.560057280585169792e-03
-1.696125976741313934e-02 -1.451343018561601639e-02 -7.903761416673660278e-02
1.910082809627056122e-02 4.045173525810241699e-03 -2.574098110198974609e-02
2.811920270323753357e-02 2.205842733383178711e-02 -1.402843836694955826e-02
2.212134376168251038e-02 3.525431826710700989e-02 -1.634189859032630920e-02
-3.826275095343589783e-02 -3.095555864274501801e-02 -2.463169954717159271e-02
-5.308896675705909729e-02 -4.280286282300949097e-02 -3.462297376245260239e-03
-1.567415148019790649e-02 -2.155871316790580750e-02 6.429005414247512817e-03
1.698104431852698326e-03 3.105714684352278709e-03 -2.717767376452684402e-03
-1.393915805965662003e-02 -2.189776673913002014e-02 -4.386176541447639465e-02
3.394114971160888672e-02 1.112039759755134583e-02 -3.458000486716628075e-03
1.344292797148227692e-02 2.160140685737133026e-02 -2.056614123284816742e-02
-4.786365479230880737e-02 -7.550718635320663452e-02 -2.376138232648372650e-02
-6.896760314702987671e-03 -4.947047308087348938e-02 1.703202724456787109e-02
9.333186782896518707e-03 5.447225272655487061e-02 2.185213752090930939e-02
-2.420375868678092957e-02 -8.124663494527339935e-03 -5.655852612107992172e-03
-4.386175796389579773e-02 -1.955965347588062286e-02 2.593099325895309448e-02
-3.925357386469841003e-02 7.946707308292388916e-03 6.122158095240592957e-02
3.700614348053932190e-02 1.056614890694618225e-02 3.972484543919563293e-02
-4.960980638861656189e-02 2.231106394901871681e-03 -1.888375170528888702e-02
2.887396141886711121e-02 1.148406998254358768e-03 -1.491868868470191956e-03
-1.949507370591163635e-02 -3.276650561019778252e-03 -2.368745161220431328e-03
-5.070784315466880798e-02 9.407225996255874634e-03 -6.032855808734893799e-02
2.702185418456792831e-03 3.910413384437561035e-02 2.463355893269181252e-03
1.167283300310373306e-02 5.989091936498880386e-03 3.760233055800199509e-03
1.798756234347820282e-02 -2.011667564511299133e-02 9.958504699170589447e-03
-2.930286154150962830e-02 -3.571214154362678528e-02 -1.676562125794589520e-03
-8.502538315951824188e-03 -1.316758920438587666e-03 -9.528945200145244598e-03
-1.966851949691772461e-02 5.284385383129119873e-02 1.526819728314876556e-02
3.630999475717544556e-02 -7.206019945442676544e-03 -1.640151254832744598e-02
5.964199081063270569e-02 7.990049570798873901e-02 7.127638161182403564e-02
1.459228061139583588e-02 5.949977412819862366e-02 -3.091454505920410156e-02
-2.379187941551208496e-02 6.176458299160003662e-02 4.637637734413146973e-02
-5.435182526707649231e-02 1.110118161886930466e-02 -3.268900094553828239e-03
