1.021861936897039413e-02 -2.311991993337869644e-03 2.179837785661220551e-02
-4.075593128800392151e-02 3.585816919803619385e-02 3.414979204535484314e-02
-4.435581341385841370e-02 8.094905875623226166e-03 1.195351127535104752e-02
1.987014524638652802e-02 7.163410075008869171e-03 6.134862825274467468e-02
1.051873341202735901e-02 2.759357448667287827e-03 1.317124906927347183e-02
4.183095414191484451e-03 -1.366045977920293808e-02 2.928381552919745445e-03
-1.380238123238086700e-02 -2.892778068780899048e-02 2.682730369269847870e-02
1.231851335614919662e-02 -1.129531767219305038e-02 3.301843255758285522e-02
3.015513159334659576e-02 6.082659959793090820e-02 1.100278575904667377e-03
9.468789212405681610e-03 -4.773402959108352661e-02 4.359742999076843262e-02
3.895214945077896118e-02 -1.352153439074754715e-02 -1.232992764562368393e-02
-8.032758487388491631e-04 -4.085608944296836853e-02 2.794865146279335022e-02
6.243710592389106750e-02 2.534791640937328339e-02 3.888307139277458191e-02
5.831442400813102722e-02 -7.819181308150291443e-03 -3.223912790417671204e-03
2.715790085494518280e-02 -3.222353383898735046e-02 3.505146503448486328e-02
-2.854381315410137177e-02 2.050679177045822144e-02 1.222185324877500534e-02
2.160631120204925537e-02 -6.277114152908325195e-02 2.967028319835662842e-02
-4.173855483531951904e-02 -2.749815396964550018e-02 8.157306001521646976e-04
-5.050686746835708618e-02 -3.722156106960028410e-04 -1.865433715283870697e-02
6.507493089884519577e-03 -7.991053164005279541e-02 -1.653711870312690735e-02
7.237353129312396049e-04 -2.758467569947242737e-02 2.064206451177597046e-02
-5.606111884117126465e-02 8.967936970293521881e-03 -6.301451474428176880e-02
-2.497464977204799652e-02 -3.240914270281791687e-02 -8.329347521066665649e-02
2.044416964054107666e-02 3.649853635579347610e-03 -2.441075071692466736e-02
6.051877140998840332e-02 7.164549548178911209e-03 9.403994306921958923e-03
3.504139930009841919e-02 -4.382441937923431396e-02 2.777924574911594391e-02
3.780011087656021118e-02 -2.419250644743442535e-02 -3.309339657425880432e-02
7.898353971540927887e-03 -2.651229873299598694e-02 -1.537177618592977524e-02
3.372887149453163147e-02 1.626622676849365234e-02 1.244667079299688339e-02
-3.365410119295120239e-02 -1.482356991618871689e-02 -4.600547254085540771e-03
-9.506890922784805298e-02 -3.739018365740776062e-02 -2.490884438157081604e-02
8.036827668547630310e-03 -4.699273034930229187e-02 -3.157296776771545410e-02
-3.981294110417366028e-02 -3.179833665490150452e-02 1.705267839133739471e-02
2.459735795855522156e-02 6.846629083156585693e-02 1.351142860949039459e-02
7.439503446221351624e-03 2.022743783891201019e-02 -1.299692969769239426e-02
-1.770637556910514832e-02 -2.728444896638393402e-02 -2.129490487277507782e-02
-8.100808598101139069e-03 -1.449274551123380661e-02 -2.283558994531631470e-02
-6.618206202983856201e-02 -1.665600016713142395e-02 2.417150884866714478e-02
-2.523495629429817200e-02 -3.472533449530601501e-02 -2.732386998832225800e-02
-5.161560606211423874e-03 2.127173915505409241e-02 5.815612152218818665e-02
-3.853602567687630653e-03 -4.735390096902847290e-02 3.763063251972198486e-02
-7.446386007359251380e-05 2.108358033001422882e-02 2.815675362944602966e-02
2.466347627341747284e-02 1.676180027425289154e-02 -8.018961176276206970e-03
1.090404670685529709e-02 -6.368242902681231499e-04 3.960986807942390442e-02
-1.556833647191524506e-02 2.677968889474868774e-02 1.749172620475292206e-02
-1.904251752421259880e-03 -7.074400782585144043e-02 -4.526988603174686432e-03
9.487989358603954315e-03 -6.821731221862137318e-04 3.091973811388015747e-02
-4.186887666583061218e-02 -5.432901903986930847e-02 -2.838323824107646942e-02
-3.500455990433692932e-02 -7.150734961032867432e-02 1.819539442658424377e-02
-8.735001087188720703e-02 -1.162463892251253128e-02 1.182740461081266403e-02
-4.386640712618827820e-02 -8.853258192539215088e-02 -2.627754770219326019e-02
-5.928774364292621613e-03 -2.309943176805973053e-02 -4.880083724856376648e-03
-2.736202627420425415e-02 1.873135939240455627e-02 6.859878078103065491e-03
-3.219012171030044556e-02 -1.644631288945674896e-02 -6.216290593147277832e-02
2.313341246917843819e-03 1.032788306474685669e-02 1.274963282048702240e-02
3.835267852991819382e-03 -1.391234528273344040e-02 1.774073578417301178e-02
-9.999591857194900513e-03 3.857986629009246826e-02 1.239447109401226044e-02
1.533739268779754639e-02 4.775001108646392822e-02 6.402299040928483009e-04
3.063044138252735138e-02 1.513379067182540894e-02 -1.123464759439229965e-02
-2.448236569762229919e-02 3.776042908430099487e-02 -1.664130762219429016e-02
-5.081620812416076660e-02 -6.183484569191932678e-02 -4.491830617189407349e-02
-7.117134984582662582e-03 3.136218339204788208e-02 -4.253014177083969116e-02
4.637005552649497986e-02 2.397776395082473755e-02 5.255901440978050232e-02
1.653607003390789032e-03 -7.924499921500682831e-03 3.747073560953140259e-02
1.932873763144016266e-02 1.550297997891902924e-02 2.525639161467552185e-02
-2.814786694943904877e-02 -2.901834994554519653e-02 3.927534818649291992e-02
3.054615482687950134e-02 9.969754610210657120e-04 2.129166573286056519e-02
4.557296261191368103e-02 5.407740548253059387e-02 4.825744777917861938e-02
-8.953983779065310955e-04 4.278769344091415405e-02 1.829021796584129333e-02
-5.073677003383636475e-02 -1.709152571856975555e-02 -9.668651968240737915e-03
-5.802087252959609032e-05 -8.968888223171234131e-02 -4.877377673983573914e-02
7.785830181092023849e-03 -2.780878543853759766e-02 -3.008330054581165314e-02
-1.299699116498231888e-02 8.770314045250415802e-03 -2.818466350436210632e-02
4.108082130551338196e-02 -6.150842830538749695e-02 -2.300212718546390533e-02
3.571039438247680664e-02 3.005074337124824524e-02 -7.330684922635555267e-03
3.605868294835090637e-02 6.020129844546318054e-02 -1.562247984111309052e-02
-1.750043965876102448e-02 -1.818048395216464996e-02 -7.895908202044665813e-04
5.655169859528541565e-02 3.475200152024626732e-03 5.840761587023735046e-03
-3.164991736412048340e-02 -3.349312767386436462e-02 -2.049660496413707733e-02
-6.669809669256210327e-02 -3.229302540421485901e-02 -4.030913487076759338e-02
-2.040546201169490814e-02 -5.907483026385307312e-02 -4.021222516894340515e-02
1.161552406847476959e-02 -4.399961605668067932e-02 1.870893128216266632e-02
2.376969903707504272e-02 4.823220893740653992e-02 8.502461947500705719e-03
-5.254098796285688877e-04 4.437998682260513306e-02 4.091714695096015930e-02
-3.253583982586860657e-02 -3.886297345161437988e-03 -2.372135408222675323e-02
-1.743017882108688354e-02 3.365360945463180542e-02 -6.600914150476455688e-02
-1.204678043723106384e-02 4.241099581122398376e-02 -4.300399497151374817e-02
-2.292530611157417297e-02 -1.587610691785812378e-02 5.246098618954420090e-03
3.944576531648635864e-02 -3.836128115653991699e-02 3.099552169442176819e-02
1.525872293859720230e-02 5.554625019431114197e-02 -3.966289572417736053e-03
-7.034166902303695679e-02 8.123832941055297852e-02 4.230786859989166260e-02
2.221741713583469391e-02 1.235029287636280060e-02 -8.834136649966239929e-03
5.021000280976295471e-02 1.793313957750797272e-02 4.400999099016189575e-02
-1.507844682782888412e-02 -3.302760794758796692e-02 -5.360493063926696777e-02
-2.953930012881755829e-02 3.661537542939186096e-02 -3.558408096432685852e-02
-7.674978696741163731e-04 -1.558444369584321976e-02 2.904486283659934998e-02
-4.517629742622375488e-02 -7.677488774061203003e-02 -2.503096498548984528e-02
1.752201234921813011e-03 -8.314567804336547852e-02 3.290408477187156677e-02
-1.602044142782688141e-02 1.407198794186115265e-02 -3.006572276353836060e-02
1.853953301906585693e-02 -1.019008643925189972e-02 -4.990157485008239746e-02
1.116313971579074860e-02 6.329470872879028320e-02 5.170939955860376358e-03
1.740350201725959778e-02 3.876565769314765930e-02 -1.971281878650188446e-02
-1.169064547866582870e-02 -2.224575262516736984e-03 -8.991725742816925049e-03
-1.748799718916416168e-02 -1.665295474231243134e-02 -2.479344233870506287e-02
2.347064018249511719e-02 1.278556417673826218e-02 -1.009630598127841949e-02
2.527729421854019165e-02 -2.332743071019649506e-02 1.811471953988075256e-02
-2.474967017769813538e-02 -8.344229310750961304e-03 -1.476227585226297379e-02
-4.424917325377464294e-02 -4.392776172608137131e-03 2.250772342085838318e-02
-6.309905089437961578e-03 1.745782233774662018e-02 1.636818610131740570e-02
-3.661061171442270279e-03 2.020360715687274933e-02 7.254193071275949478e-03
1.948766969144344330e-02 -4.023997113108634949e-02 -7.792652118951082230e-03
-8.112636953592300415e-02 -3.417260944843292236e-02 -2.897995524108409882e-02
-5.704573169350624084e-02 -2.911798097193241119e-02 8.471115492284297943e-03
5.012965295463800430e-03 -7.914919406175613403e-03 -1.261945627629756927e-02
-4.273137822747230530e-02 1.820472883991897106e-03 1.764170825481414795e-02
-1.354622561484575272e-02 4.724198952317237854e-03 -3.041844256222248077e-02
-4.842575639486312866e-02 -4.415383189916610718e-02 3.421978652477264404e-02
5.402716994285583496e-02 2.245396748185157776e-02 -2.445522509515285492e-02
-6.374636664986610413e-03 -8.036461658775806427e-03 9.935664944350719452e-03
-3.677196055650711060e-02 1.463889330625534058e-02 -4.764983803033828735e-02
-2.294570952653884888e-02 -5.036983266472816467e-02 -5.921085923910140991e-02
-3.089779242873191833e-02 -2.542845904827117920e-02 -7.575624622404575348e-03
-1.575208455324172974e-02 -2.280768193304538727e-02 -1.010820176452398300e-02
-2.753034792840480804e-02 -2.228043414652347565e-02 5.303008854389190674e-02
-3.861762583255767822e-02 -1.070720702409744263e-01 -1.024307236075401306e-01
-3.178261220455169678e-02 -5.463729426264762878e-02 -5.125277116894721985e-02
-1.335704000666737556e-03 -9.078734554350376129e-03 -4.794578067958354950e-03
-1.026358827948570251e-02 -1.746034808456897736e-02 -2.270637452602386475e-02
1.175163872539997101e-02 -7.046665251255035400e-02 -2.140060812234878540e-02
-2.914872206747531891e-02 -6.381866056472063065e-03 5.543386097997426987e-03
-1.218825764954090118e-02 2.175190858542919159e-02 -2.307981811463832855e-02
-4.929602611809968948e-03 -6.397076416760683060e-03 -1.362640131264925003e-02
3.371909027919173241e-03 -6.537146982736885548e-04 1.512783020734786987e-02
-4.025779291987419128e-02 1.699307374656200409e-02 -1.758152619004249573e-02
-2.264322899281978607e-02 -3.753231093287467957e-02 1.834489032626152039e-02
-6.305429618805646896e-03 2.713605295866727829e-03 5.675632273778319359e-04
-2.783642150461673737e-02 2.832224406301975250e-02 3.693725168704986572e-02
-2.059181407094001770e-02 -6.576218176633119583e-03 6.664899736642837524e-02
4.174442961812019348e-03 3.849954577162861824e-03 -2.498616464436054230e-02
-3.988838568329811096e-02 -1.683797501027584076e-02 1.253661606460809708e-02
2.768847718834877014e-02 3.985675983130931854e-03 2.249256335198879242e-02
1.423462759703397751e-03 -5.868978425860404968e-02 2.357744611799716949e-03
-4.800367727875709534e-02 2.255820436403155327e-03 8.694767951965332031e-03
-3.977797925472259521e-02 3.408419713377952576e-02 3.102591261267662048e-03
5.846236273646354675e-02 1.771837286651134491e-02 9.024165570735931396e-03
-4.503839835524559021e-02 4.090488073416054249e-04 1.501685939729213715e-02
-1.606515049934387207e-02 1.758946687914431095e-03 -2.486360445618629456e-02
-9.235206991434097290e-03 7.599342614412307739e-02 2.471675164997577667e-02
2.544032037258148193e-02 4.343188554048538208e-02 7.150094490498304367e-03
4.153212904930114746e-02 1.963675767183303833e-02 -2.570329047739505768e-02
1.079948525875806808e-02 -3.303582593798637390e-02 1.641353219747543335e-02
-3.785990551114082336e-02 -3.172915056347846985e-02 -1.067527104169130325e-02
1.617276342585682869e-03 -3.197167534381151199e-03 -1.027931831777095795e-02
-2.100391499698162079e-02 -3.733618557453155518e-02 -7.928835600614547729e-02
-4.679386317729949951e-02 -5.510318651795387268e-02 -1.635090447962284088e-02
-2.658220566809177399e-02 -4.336983337998390198e-02 -4.325239732861518860e-02
3.006990626454353333e-02 -1.497629471123218536e-02 2.455960214138031006e-02
-1.541951950639486313e-02 4.523915238678455353e-03 -1.084969192743301392e-02
2.704166062176227570e-02 1.650686934590339661e-02 4.490200802683830261e-02
1.272022165358066559e-02 -5.964120104908943176e-02 5.410460289567708969e-03
2.061252668499946594e-02 -1.951945945620536804e-02 -1.704305969178676605e-02
-4.970999434590339661e-03 -6.608502008020877838e-04 6.330383569002151489e-02
-4.855011776089668274e-02 -7.337277382612228394e-02 1.399505976587533951e-02
-1.718676649034023285e-02 -2.890121750533580780e-02 2.490405179560184479e-02
5.722384899854660034e-03 4.281767178326845169e-03 3.846856579184532166e-02
2.585306018590927124e-02 -4.023549146950244904e-03 1.526650227606296539e-02
3.067994117736816406e-02 2.377258427441120148e-02 -1.141141913831233978e-02
-1.213867310434579849e-02 9.730644524097442627e-03 3.098914213478565216e-02
2.237102761864662170e-02 -3.645707294344902039e-02 -3.384103998541831970e-02
2.936139702796936035e-02 -7.548763602972030640e-02 2.269743382930755615e-02
-2.100359462201595306e-02 -6.475304719060659409e-03 8.315898478031158447e-03
-1.881119981408119202e-02 -2.048898115754127502e-02 6.838421523571014404e-02
-4.028242081403732300e-02 -4.421738162636756897e-02 -8.335408754646778107e-03
-7.127430289983749390e-03 1.615444052731618285e-04 -2.782585844397544861e-02
-7.096638530492782593e-02 -6.405004858970642090e-02 -5.226606130599975586e-02
-4.440828412771224976e-02 -6.140193715691566467e-02 -3.900208696722984314e-02
-3.201608359813690186e-02 4.070366919040679932e-02 -2.076761424541473389e-02
1.023896038532257080e-02 2.110071666538715363e-02 -3.102899156510829926e-02
-2.495120279490947723e-02 1.045776717364788055e-02 -4.724877327680587769e-02
5.882345139980316162e-03 2.787052467465400696e-02 2.599472180008888245e-03
-3.848304226994514465e-02 -3.307411819696426392e-02 -4.201608896255493164e-02
4.619996622204780579e-02 6.393380463123321533e-02 -1.317691057920455933e-02
-2.454371191561222076e-02 -2.744868583977222443e-02 3.573041781783103943e-02
1.843107864260673523e-02 1.316907443106174469e-02 -2.418054267764091492e-02
2.311337366700172424e-02 5.073793604969978333e-02 -6.263104081153869629e-02
1.915214024484157562e-02 -4.797223024070262909e-03 9.643585071898996830e-04
-1.767764426767826080e-02 -2.991306968033313751e-02 -1.782148145139217377e-02
-5.750920623540878296e-02 -5.233910679817199707e-02 2.089043846353888512e-03
-2.943234704434871674e-02 -1.940000988543033600e-02 -5.563936382532119751e-02
-1.430819835513830185e-02 -1.266315672546625137e-02 4.148348048329353333e-02
-2.188292145729064941e-02 -3.781211003661155701e-02 -3.335461020469665527e-03
3.576172515749931335e-02 1.029796060174703598e-02 1.111043989658355713e-02
-4.516316950321197510e-02 -3.242746740579605103e-02 -4.822812229394912720e-02
-1.074454002082347870e-02 4.485639277845621109e-03 5.550328642129898071e-03
8.103984594345092773e-02 -8.980681188404560089e-03 -1.296583283692598343e-02
5.325712263584136963e-02 6.713435798883438110e-02 3.655973449349403381e-02
3.332349285483360291e-02 6.110227480530738831e-02 1.605777069926261902e-04
4.703119397163391113e-02 8.084108121693134308e-03 3.832126676570624113e-04
-1.951380260288715363e-02 -3.624381870031356812e-02 -3.990845382213592529e-02
-1.901970058679580688e-02 -1.183238718658685684e-02 1.336445007473230362e-02
-3.038196358829736710e-03 -1.077917777001857758e-02 -4.353350400924682617e-02
-1.766694337129592896e-02 2.861171960830688477e-02 6.236549094319343567e-02
9.785102680325508118e-03 3.171546012163162231e-02 1.441487576812505722e-02
8.429023437201976776e-03 -6.844725459814071655e-02 -4.230423644185066223e-02
-6.119416281580924988e-02 -4.524327814579010010e-02 2.740290947258472443e-02
5.721342749893665314e-03 -1.543544139713048935e-02 -2.108958922326564789e-02
-3.217560425400733948e-02 5.564494989812374115e-03 2.038945816457271576e-02
2.720292191952466965e-03 4.732287675142288208e-02 -1.710871420800685883e-02
-2.026671916246414185e-02 4.520292952656745911e-02 3.491275757551193237e-02
6.126209162175655365e-03 -2.374727837741374969e-02 7.294240873306989670e-03
-1.758378930389881134e-02 -2.046690322458744049e-02 -3.717013448476791382e-02
-7.618393748998641968e-02 -4.825885221362113953e-02 -4.983931779861450195e-02
-3.730969503521919250e-02 -8.540330827236175537e-02 -2.577595040202140808e-02
4.395622294396162033e-03 -7.329362630844116211e-02 -3.579162806272506714e-02
-7.686709612607955933e-02 -9.218483418226242065e-02 -5.468748882412910461e-02
-2.932910434901714325e-02 -1.013719756156206131e-02 -1.251119934022426605e-02
-2.476884424686431885e-02 7.873587310314178467e-03 1.371907070279121399e-02
2.810260280966758728e-02 2.634191513061523438e-02 4.704242944717407227e-02
2.904273383319377899e-02 -8.771074499236419797e-05 -3.349604085087776184e-02
2.977330796420574188e-02 -1.322189811617136002e-02 -3.524029627442359924e-02
-3.440956771373748779e-02 2.066501975059509277e-02 3.291338682174682617e-02
1.006891205906867981e-02 9.392224252223968506e-03 4.580055922269821167e-02
-1.549040060490369797e-02 -2.496607415378093719e-02 -4.367634281516075134e-02
-2.415808849036693573e-02 -5.030626431107521057e-02 -8.357244543731212616e-03
-3.835429251194000244e-02 -4.095159098505973816e-02 -2.403341978788375854e-02
-3.536402480676770210e-03 1.381016429513692856e-02 2.765578031539916992e-02
-3.646289557218551636e-02 -3.274533897638320923e-02 1.089162193238735199e-03
1.353185530751943588e-02 -4.067800939083099365e-03 9.914525784552097321e-03
5.106851086020469666e-02 -6.214773282408714294e-02 1.503933593630790710e-02
9.425615891814231873e-03 2.546293660998344421e-03 -2.520869020372629166e-03
4.647067189216613770e-02 -7.656277623027563095e-03 -4.886779002845287323e-03
-4.266916587948799133e-02 -2.437179535627365112e-02 -5.795832257717847824e-03
-2.168238162994384766e-02 2.190089412033557892e-02 1.254524663090705872e-02
-4.336072504520416260e-02 5.569828301668167114e-02 -5.110421776771545410e-02
1.401025219820439816e-04 2.617067471146583557e-02 -2.210249751806259155e-02
-1.195564866065979004e-02 -2.059429138898849487e-02 -1.761885546147823334e-02
2.817979454994201660e-02 1.608284749090671539e-02 3.008676692843437195e-03
2.158028073608875275e-02 4.656614363193511963e-02 4.075128212571144104e-02
-5.511758103966712952e-02 -6.782943848520517349e-03 -4.622045438736677170e-03
3.203080035746097565e-03 -4.060149937868118286e-02 -1.098175812512636185e-02
-4.790855571627616882e-02 1.853017695248126984e-02 3.010204248130321503e-02
-3.085014643147587776e-03 4.958777874708175659e-02 -4.650174826383590698e-02
-9.941977448761463165e-03 -1.787849329411983490e-02 2.202861709520220757e-03
2.603757008910179138e-02 -4.772611707448959351e-02 -1.298199500888586044e-02
-5.745538976043462753e-03 -1.730340346693992615e-02 -1.450212020426988602e-02
-3.247282467782497406e-03 -6.385774910449981689e-02 -3.523391112685203552e-02
3.124594874680042267e-02 -5.266639869660139084e-03 2.617953531444072723e-02
1.773657090961933136e-02 -3.464327380061149597e-02 -2.346678823232650757e-02
-5.390432663261890411e-03 4.556867107748985291e-02 1.818128116428852081e-02
-8.460369892418384552e-03 -3.734037652611732483e-02 2.931781113147735596e-03
1.678022183477878571e-02 -1.911625266075134277e-02 -2.265897393226623535e-02
-7.033288478851318359e-03 -9.618621319532394409e-03 -9.527564980089664459e-03
4.286761954426765442e-02 2.613926120102405548e-02 -4.352218937128782272e-03
-2.760830335319042206e-02 -5.169622227549552917e-02 -3.687499463558197021e-02
1.594159565865993500e-02 -1.275361422449350357e-02 -2.731209993362426758e-02
-2.488086931407451630e-03 -4.489118978381156921e-02 -2.057274058461189270e-02
2.910267747938632965e-02 3.271236643195152283e-02 -3.246665745973587036e-02
1.978025957942008972e-02 -1.025418867357075214e-03 3.199006244540214539e-02
3.009432554244995117e-02 5.446788296103477478e-02 2.664643712341785431e-02
2.445583604276180267e-02 -2.260993001982569695e-03 7.195519655942916870e-02
-1.324461214244365692e-02 5.129892379045486450e-02 2.733665890991687775e-02
2.005040273070335388e-02 -6.846727803349494934e-03 -4.407482594251632690e-02
2.280698157846927643e-03 8.300413377583026886e-03 7.231323514133691788e-03
1.348298788070678711e-02 -2.046605758368968964e-02 2.683060243725776672e-02
6.964333355426788330e-03 3.573678899556398392e-03 -1.711014285683631897e-02
-3.218814730644226074e-02 -3.389063850045204163e-02 -2.351241558790206909e-02
-1.059781983494758606e-01 -3.971882164478302002e-02 -1.982756145298480988e-02
2.684996463358402252e-02 3.600866720080375671e-02 -3.657725406810641289e-03
6.406606733798980713e-02 -2.977258991450071335e-03 2.162276767194271088e-02
-6.417192518711090088e-03 2.089184895157814026e-02 3.343245759606361389e-02
2.265427447855472565e-02 -2.861166000366210938e-02 -4.673717170953750610e-02
-3.479539975523948669e-02 -3.981884568929672241e-02 3.905768506228923798e-03
1.697443053126335144e-02 -3.634625300765037537e-02 5.229781195521354675e-02
-4.373354837298393250e-03 1.481441315263509750e-02 -2.111733332276344299e-02
-9.585063904523849487e-03 -1.249137055128812790e-02 5.703885480761528015e-02
4.204524680972099304e-02 -3.761903196573257446e-02 -1.524894498288631439e-02
5.212352145463228226e-03 4.924152977764606476e-03 -8.677174337208271027e-03
-2.261942438781261444e-02 -1.514934934675693512e-02 -2.791306190192699432e-02
-3.581713512539863586e-02 -4.833000246435403824e-03 2.842260897159576416e-02
1.808592490851879120e-02 2.854470163583755493e-03 1.432207971811294556e-02
2.482760697603225708e-02 -3.732539713382720947e-02 2.436888217926025391e-02
9.581403806805610657e-03 -1.246892753988504410e-02 -1.070539746433496475e-02
3.933747485280036926e-02 2.178904041647911072e-02 -2.570372074842453003e-02
-1.528905425220727921e-02 -1.399953570216894150e-02 1.003150548785924911e-02
4.007559642195701599e-02 2.672127261757850647e-02 -1.209937129169702530e-02
-1.858749240636825562e-02 2.937945351004600525e-02 6.791769713163375854e-02
-3.569455817341804504e-02 -1.239211205393075943e-02 1.385135110467672348e-02
1.266957353800535202e-02 3.481414914131164551e-02 -9.012538008391857147e-03
-1.577321439981460571e-02 8.654426783323287964e-03 2.691532857716083527e-02
-4.172146320343017578e-03 -1.342928782105445862e-02 9.624585509300231934e-03
1.388311013579368591e-02 6.557064596563577652e-03 -5.455343797802925110e-02
-1.551932189613580704e-02 -6.513774394989013672e-02 -8.160138502717018127e-03
-4.442369937896728516e-02 -6.041016802191734314e-02 -6.098758894950151443e-03
1.153462007641792297e-02 -1.041431725025177002e-02 4.839536268264055252e-03
-3.211630135774612427e-02 -1.179147139191627502e-02 2.915615402162075043e-02
-1.235865511262090877e-05 -1.738471351563930511e-02 -1.071786973625421524e-02
-3.860376402735710144e-02 5.066608078777790070e-03 1.319673843681812286e-02
1.088072918355464935e-02 3.982087597250938416e-02 -4.153791815042495728e-02
-1.386870723217725754e-02 1.340007502585649490e-02 -1.554602291435003281e-02
-2.089039189741015434e-03 1.659444067627191544e-03 -3.034652210772037506e-02
2.648320980370044708e-02 -2.260013297200202942e-02 -3.869212418794631958e-02
4.483382031321525574e-02 6.035949569195508957e-03 2.997102774679660797e-02
2.120889490470290184e-03 2.316285681445151567e-04 4.382416605949401855e-02
-2.532788924872875214e-02 -4.693385958671569824e-02 -2.966748364269733429e-02
4.476661328226327896e-03 -2.359650097787380219e-03 -5.332939326763153076e-03
-7.762704044580459595e-04 7.822503335773944855e-03 3.313853964209556580e-02
-6.522335857152938843e-02 -5.323690176010131836e-02 -1.993016712367534637e-02
1.745562255382537842e-02 -2.413563989102840424e-02 3.351500257849693298e-02
-2.922326792031526566e-03 3.985529765486717224e-02 2.479354105889797211e-02
-2.558569796383380890e-02 -2.854015119373798370e-02 4.363140463829040527e-02
-3.569618985056877136e-02 6.213676184415817261e-02 -3.275662288069725037e-02
-3.985485062003135681e-02 -3.313770284876227379e-03 -6.865115836262702942e-03
-6.139978021383285522e-02 -6.663132458925247192e-02 -7.415516674518585205e-02
-4.349593445658683777e-02 -2.414402365684509277e-02 -2.400674670934677124e-02
-6.823941320180892944e-02 -7.022231817245483398e-02 -5.329379811882972717e-02
-2.360322512686252594e-02 -1.565519906580448151e-02 -2.845851331949234009e-02
-2.463561855256557465e-02 -8.256520144641399384e-03 -2.132108248770236969e-02
-9.630312211811542511e-03 -1.817065291106700897e-02 1.072995085269212723e-02
1.022014766931533813e-02 2.400124445557594299e-02 8.676962926983833313e-03
-3.409147262573242188e-02 -5.690103396773338318e-02 -9.412951767444610596e-03
-3.517311066389083862e-02 -1.270417217165231705e-02 -7.156793028116226196e-02
-3.517930209636688232e-02 -4.889117926359176636e-02 2.203102223575115204e-02
6.828861311078071594e-03 -2.078645676374435425e-02 -1.191520411521196365e-02
2.467239275574684143e-02 2.450885437428951263e-02 4.246140271425247192e-02
3.698209766298532486e-03 -1.647936552762985229e-02 2.847876586019992828e-02
-1.009056251496076584e-02 9.220046922564506531e-03 -3.458470851182937622e-02
3.405571356415748596e-02 -5.466410890221595764e-02 -1.550366578157991171e-04
3.106625005602836609e-02 2.594080567359924316e-02 1.738956943154335022e-02
3.800008818507194519e-02 1.518299221061170101e-03 4.611585289239883423e-03
3.140766918659210205e-02 3.639085218310356140e-02 1.040223520249128342e-02
6.152868270874023438e-03 -3.056125715374946594e-02 2.338751778006553650e-02
2.251617051661014557e-02 2.318912185728549957e-02 -1.691360957920551300e-02
-4.688876494765281677e-02 4.640380575438030064e-05 1.795594394207000732e-02
-2.751187048852443695e-02 -1.183316260576248169e-01 6.316759623587131500e-03
-3.713268414139747620e-02 -4.793503135442733765e-02 -2.266379073262214661e-02
3.882250934839248657e-02 2.702356874942779541e-02 1.702133938670158386e-02
-4.279130324721336365e-02 -3.461471199989318848e-02 7.729520648717880249e-02
6.382799241691827774e-03 -1.589921675622463226e-02 1.438867114484310150e-02
7.414717227220535278e-02 1.389294583350419998e-02 3.391643241047859192e-02
-4.313168674707412720e-02 -2.842873148620128632e-02 -1.998268254101276398e-02
2.212386950850486755e-02 -1.202554535120725632e-02 3.811199218034744263e-02
3.784433379769325256e-02 2.586491778492927551e-02 -2.010240592062473297e-02
-7.290147244930267334e-03 3.030067496001720428e-02 4.773874301463365555e-03
3.297538310289382935e-02 7.031784858554601669e-03 -1.606196910142898560e-02
-5.487680062651634216e-02 2.298182435333728790e-02 6.748598068952560425e-03
-5.107321962714195251e-02 -1.004909500479698181e-01 -4.939007014036178589e-02
-3.032069839537143707e-02 -6.525804847478866577e-02 -6.482728570699691772e-02
-3.478959575295448303e-02 -8.524282835423946381e-03 -5.297961458563804626e-02
-5.088557675480842590e-02 -5.067379027605056763e-02 2.596290223300457001e-02
-3.527642041444778442e-02 -9.782710112631320953e-03 -2.490628324449062347e-02
4.822901973966509104e-04 -4.432513378560543060e-03 1.522221416234970093e-02
7.027209270745515823e-03 -2.105447463691234589e-02 -4.842843115329742432e-02
7.649490609765052795e-03 -1.744750514626502991e-02 -3.972667828202247620e-02
-1.197894685901701450e-03 -2.012483030557632446e-02 1.409474574029445648e-02
-2.647334709763526917e-02 -3.011848777532577515e-02 -4.354916140437126160e-02
-8.799404837191104889e-03 2.485291101038455963e-02 -3.537988662719726562e-02
-1.582886464893817902e-02 -1.502519124187529087e-03 1.028376258909702301e-02
2.266135439276695251e-02 1.709905453026294708e-02 -3.421442583203315735e-02
-2.859888039529323578e-02 -6.880154460668563843e-02 2.577218227088451385e-03
1.119185984134674072e-02 -7.334451191127300262e-03 -9.533640928566455841e-03
2.940173074603080750e-02 2.097641117870807648e-02 2.970908302813768387e-03
8.165302686393260956e-03 -2.654420025646686554e-02 -4.557600989937782288e-02
4.159402102231979370e-03 1.738002407364547253e-03 -4.054982960224151611e-02
1.460972614586353302e-02 4.653614014387130737e-02 4.435249418020248413e-02
8.905585855245590210e-03 -1.989418826997280121e-02 -1.482898090034723282e-02
-2.154526859521865845e-02 2.935370989143848419e-02 -2.269016113132238388e-03
-4.073860868811607361e-02 -3.705054521560668945e-02 -5.357092618942260742e-02
-4.371304064989089966e-02 -6.003753840923309326e-02 1.140375807881355286e-02
-4.787043109536170959e-02 1.842220127582550049e-02 -1.161597575992345810e-02
1.933798007667064667e-02 3.125007078051567078e-02 -1.675761886872351170e-03
-4.748716205358505249e-02 -2.867329679429531097e-02 -2.409029006958007812e-02
4.512245766818523407e-03 -1.169887930154800415e-02 -2.776226587593555450e-02
-3.528897091746330261e-02 1.726452820003032684e-02 -2.900669723749160767e-02
-1.593606732785701752e-02 -3.287972509860992432e-02 -1.106227468699216843e-02
1.063311565667390823e-02 -9.705047123134136200e-03 -1.429186481982469559e-02
-5.133226979523897171e-03 -1.128905825316905975e-02 -1.020701695233583450e-02
8.871840313076972961e-03 -1.559167355298995972e-02 -2.054318785667419434e-03
3.920667245984077454e-02 7.378155365586280823e-03 1.171423238702118397e-03
-2.207650803029537201e-02 2.477036044001579285e-02 -1.896006241440773010e-02
-5.210883542895317078e-02 -4.837440326809883118e-02 -6.777018308639526367e-02
-3.127931058406829834e-02 -5.397955328226089478e-02 -5.753090977668762207e-02
3.585644066333770752e-02 1.689932122826576233e-02 3.926572203636169434e-02
1.086063566617667675e-03 -2.417013421654701233e-02 -5.382964853197336197e-03
-7.034085690975189209e-03 8.976496756076812744e-03 3.749759867787361145e-02
-2.999924123287200928e-02 -2.654003165662288666e-02 -1.820168457925319672e-02
-3.061605244874954224e-02 -5.019854009151458740e-02 -1.136586163192987442e-02
-2.201687358319759369e-02 -1.288000866770744324e-02 5.438796058297157288e-02
-1.142522785812616348e-02 1.653298549354076385e-02 4.025045782327651978e-03
8.388040005229413509e-04 -4.443041980266571045e-03 3.920954093337059021e-02
1.049690321087837219e-02 1.850331760942935944e-02 2.445572055876255035e-03
3.214770928025245667e-02 -1.102675311267375946e-02 -3.734258562326431274e-02
4.635543003678321838e-02 -4.832092672586441040e-02 -4.801719333045184612e-04
-4.151258990168571472e-02 2.640759572386741638e-02 1.811634632758796215e-03
-2.546403184533119202e-02 -1.849103160202503204e-02 -5.180047824978828430e-02
6.857285276055335999e-03 -6.578213069587945938e-03 7.180755957961082458e-03
6.305255461484193802e-03 1.902659982442855835e-02 -4.121261462569236755e-02
2.045451197773218155e-03 -7.715208083391189575e-02 -4.310832172632217407e-02
-5.557738244533538818e-03 -6.798990815877914429e-02 1.406782306730747223e-02
-4.185659810900688171e-02 6.462545599788427353e-03 2.483122423291206360e-02
1.171076484024524689e-02 -5.774292349815368652e-02 -4.913392663002014160e-02
-6.127996835857629776e-03 1.618206128478050232e-02 -5.640027113258838654e-03
-1.077544759027659893e-03 2.938229963183403015e-02 -2.067933976650238037e-02
-8.284017094410955906e-04 -6.676349323242902756e-03 -3.721269220113754272e-02
-3.811125829815864563e-02 -4.578317701816558838e-02 -2.317083440721035004e-02
-6.213699653744697571e-02 9.717702865600585938e-03 -1.013507544994354248e-01
-3.262012824416160583e-02 -5.072943866252899170e-02 -7.971789687871932983e-03
-4.265570268034934998e-02 -4.156995564699172974e-02 -3.210390731692314148e-02
-5.954043567180633545e-02 -3.974860906600952148e-02 -4.008967056870460510e-02
-2.330273762345314026e-02 -2.275923453271389008e-02 1.843240484595298767e-02
2.208024263381958008e-02 -1.822517253458499908e-02 1.136084459722042084e-02
1.995953265577554703e-03 -3.018888086080551147e-02 3.393129631876945496e-02
-2.178985998034477234e-02 -1.148476637899875641e-02 1.955156680196523666e-03
1.272498257458209991e-02 1.149364374577999115e-02 -2.355091087520122528e-02
3.054592572152614594e-02 -1.241046935319900513e-02 -2.039198204874992371e-02
-3.735665231943130493e-02 -7.443931698799133301e-02 -5.974129214882850647e-02
-1.111926138401031494e-02 -2.929507382214069366e-02 -1.658897614106535912e-03
-2.808481827378273010e-02 -5.070265755057334900e-02 -3.401785716414451599e-02
-2.779914438724517822e-02 -4.008247330784797668e-02 -1.049342658370733261e-02
-1.402701437473297119e-02 -2.628706023097038269e-02 -1.763051375746726990e-02
-3.810491785407066345e-02 -1.502109225839376450e-02 -2.164984866976737976e-02
-2.976438589394092560e-02 -4.232193902134895325e-02 -3.285510838031768799e-02
2.772196754813194275e-02 8.740294724702835083e-03 -7.053832709789276123e-02
4.777086898684501648e-03 -9.291662834584712982e-03 4.859454929828643799e-02
8.897741325199604034e-03 -1.836861483752727509e-02 2.187841385602951050e-02
-3.441648185253143311e-02 2.243063040077686310e-02 -5.347676575183868408e-02
-3.590843826532363892e-02 -3.644791617989540100e-02 -1.670457422733306885e-02
-5.654064938426017761e-03 -1.724573411047458649e-02 6.792092463001608849e-04
4.206750541925430298e-03 -3.807070478796958923e-02 1.587622426450252533e-02
-1.054605375975370407e-02 2.678265981376171112e-02 -9.601555764675140381e-03
1.803936995565891266e-02 2.767201885581016541e-02 1.315801125019788742e-02
-1.870736945420503616e-03 4.122808168176561594e-04 -1.554586552083492279e-02
-3.776908153668045998e-03 -4.396634176373481750e-02 -5.099056661128997803e-02
-7.704710587859153748e-03 -4.751702770590782166e-03 2.889246121048927307e-02
1.501995790749788284e-02 -4.275770485401153564e-02 -3.931915014982223511e-02
6.701269652694463730e-03 -2.310991985723376274e-03 -2.819919213652610779e-02
-1.841874979436397552e-02 1.334335841238498688e-02 -1.928563788533210754e-02
-2.368468977510929108e-02 -8.473679423332214355e-02 7.089511025696992874e-03
-3.681030869483947754e-02 -2.606107853353023529e-02 -5.289561301469802856e-02
1.862443238496780396e-02 -4.566280171275138855e-03 -7.033127825707197189e-03
5.104901641607284546e-02 -2.801175229251384735e-02 1.490020006895065308e-02
1.945871114730834961e-02 -2.608684264123439789e-02 1.326212100684642792e-02
-3.503963351249694824e-02 -5.794747546315193176e-02 1.645215786993503571e-02
4.018326289951801300e-03 6.854310166090726852e-03 -7.232796400785446167e-02
-1.806955225765705109e-02 -5.266756750643253326e-03 -6.019535940140485764e-03
-8.366644382476806641e-02 -1.823588460683822632e-02 -2.961843833327293396e-02
2.123239450156688690e-02 9.542969055473804474e-03 -1.409572735428810120e-02
-1.764288730919361115e-02 5.567466840147972107e-03 3.282313467934727669e-03
-5.740403011441230774e-02 4.045202210545539856e-02 -6.531788036227226257e-03
-2.055137604475021362e-02 -1.204422023147344589e-02 1.651408709585666656e-02
2.927024662494659424e-02 8.017851039767265320e-03 -1.738855428993701935e-02
-1.556867081671953201e-02 5.881583690643310547e-02 4.620655998587608337e-02
3.834409639239311218e-02 3.193532302975654602e-02 6.243889406323432922e-02
5.288768187165260315e-02 6.772696506232023239e-03 -2.995914220809936523e-02
3.837547823786735535e-02 2.737016603350639343e-02 -1.427953597158193588e-02
-6.261765956878662109e-03 -1.607241667807102203e-02 2.892867848277091980e-02
2.911040373146533966e-02 7.805017754435539246e-03 -4.285487160086631775e-02
7.018972933292388916e-02 -2.978046424686908722e-02 -8.825476281344890594e-03
-1.536524761468172073e-02 5.186918750405311584e-02 8.755130693316459656e-04
5.994497612118721008e-02 2.463030070066452026e-02 5.488983169198036194e-02
-3.613042086362838745e-02 1.772015728056430817e-02 -1.565225049853324890e-02
2.478199824690818787e-02 -4.430845379829406738e-02 -2.571320906281471252e-02
1.655470021069049835e-02 2.260682545602321625e-02 -5.144484806805849075e-03
-1.030178274959325790e-02 -7.198030594736337662e-03 -7.034546229988336563e-03
-3.989608958363533020e-02 -3.425095975399017334e-02 -9.370618313550949097e-02
3.108886070549488068e-02 -7.365229725837707520e-02 -3.802046924829483032e-02
3.261696174740791321e-02 1.823417656123638153e-02 -5.595740303397178650e-02
5.258521065115928650e-02 3.538826107978820801e-02 4.185029864311218262e-02
7.500194478780031204e-04 1.746654277667403221e-03 8.172846864908933640e-04
-4.976993426680564880e-02 -3.077883087098598480e-02 4.265609383583068848e-02
-2.186265215277671814e-02 -4.185796156525611877e-02 -1.704904809594154358e-02
4.197726026177406311e-02 -2.517462521791458130e-02 2.438099868595600128e-02
-5.872253328561782837e-02 7.261556386947631836e-02 -4.476481990423053503e-04
-2.592376619577407837e-02 -1.234702952206134796e-02 2.516416274011135101e-02
2.962028607726097107e-02 6.007679924368858337e-02 1.438312605023384094e-02
2.483490388840436935e-04 1.412035664543509483e-03 -2.025890134973451495e-04
-1.877756603062152863e-02 -2.522411523386836052e-03 1.189795974642038345e-02
-1.424233708530664444e-02 2.009809575974941254e-02 -7.900242693722248077e-03
2.881057187914848328e-02 -7.467726245522499084e-03 1.938624493777751923e-02
-2.112002857029438019e-02 -1.719325408339500427e-02 3.295135125517845154e-02
-1.987174525856971741e-02 2.666360884904861450e-02 -1.841644756495952606e-02
-8.745227940380573273e-03 -1.715832576155662537e-02 3.153459355235099792e-02
-4.712243378162384033e-02 1.244929851964116096e-03 3.721661493182182312e-02
-1.795000024139881134e-02 -4.070124850841239095e-05 -3.918629884719848633e-02
-2.050721831619739532e-02 -3.807580471038818359e-02 -3.436798974871635437e-02
-5.833577364683151245e-03 9.651431813836097717e-03 -1.972852088510990143e-02
-3.779847174882888794e-02 1.416846876963973045e-03 7.268508896231651306e-03
-1.878583431243896484e-02 2.378559112548828125e-02 1.697863638401031494e-02
-9.694634354673326015e-04 -1.050407066941261292e-02 1.926529593765735626e-02
1.735888607800006866e-02 -3.823595121502876282e-02 3.680792450904846191e-02
3.656902536749839783e-02 4.613756667822599411e-03 1.255166158080101013e-02
2.794110774993896484e-02 -1.792159304022789001e-02 -9.405273012816905975e-03
4.080481082201004028e-02 -3.892292827367782593e-02 3.157106041908264160e-02
7.934777066111564636e-03 -1.616399269551038742e-03 -4.245578777045011520e-03
3.607477759942412376e-03 2.832861244678497314e-02 9.676952846348285675e-03
-2.003675140440464020e-02 3.201265260577201843e-02 6.840896327048540115e-03
2.271004021167755127e-02 -2.738850004971027374e-02 4.899983294308185577e-03
2.133219875395298004e-02 -2.015286497771739960e-02 -2.076176181435585022e-02
-2.919022366404533386e-02 -9.072963148355484009e-03 -1.876143366098403931e-02
-1.464404724538326263e-02 1.589989475905895233e-02 -1.467866916209459305e-02
-1.796279335394501686e-03 -4.968637973070144653e-02 -1.879720017313957214e-02
1.464006397873163223e-02 -1.197854336351156235e-02 3.350546211004257202e-02
-2.242649160325527191e-02 -2.568899281322956085e-02 -2.472984418272972107e-02
5.531862378120422363e-02 -1.420097891241312027e-02 1.066291891038417816e-02
-3.638562513515353203e-03 -7.258236408233642578e-02 -1.585991587489843369e-03
-2.248894609510898590e-02 -5.406682193279266357e-02 -3.270150395110249519e-03
-1.430067233741283417e-02 -4.795997962355613708e-02 -2.026392146944999695e-03
-1.249796897172927856e-02 -5.449628457427024841e-02 -2.994628064334392548e-02
-2.775886282324790955e-02 -7.487981580197811127e-03 -1.574649289250373840e-02
-7.940383628010749817e-03 2.518854662775993347e-02 -2.173826098442077637e-02
3.616726258769631386e-03 -1.765237003564834595e-02 -1.463106600567698479e-03
-1.948375068604946136e-02 -3.388919681310653687e-02 -3.441869467496871948e-02
2.496083267033100128e-02 -1.730394549667835236e-02 -2.397225704044103622e-03
-3.353523463010787964e-02 -2.451395429670810699e-02 5.242059007287025452e-03
-1.559318881481885910e-02 -1.576655171811580658e-02 -3.246403299272060394e-03
1.579666323959827423e-02 -1.204587984830141068e-02 -1.831005513668060303e-02
-9.943605400621891022e-03 -4.888690635561943054e-02 3.576241806149482727e-02
2.329460531473159790e-02 -1.370859518647193909e-02 4.292505607008934021e-02
-6.230920553207397461e-04 -2.286194823682308197e-02 2.710473025217652321e-03
2.351165562868118286e-02 1.121359132230281830e-02 -1.643779128789901733e-02
1.312594208866357803e-02 -1.676113693974912167e-03 -1.810501143336296082e-02
2.381474711000919342e-03 -1.274696737527847290e-02 -1.014533685520291328e-03
2.251084148883819580e-02 3.898801049217581749e-03 -1.426349277608096600e-03
8.769378066062927246e-03 3.228355944156646729e-02 -2.735771611332893372e-02
-2.264319546520709991e-02 -5.346546322107315063e-02 4.196833353489637375e-03
8.650899864733219147e-03 2.951878495514392853e-02 -4.799697175621986389e-02
-3.486161120235919952e-03 4.752379842102527618e-03 -3.629768639802932739e-02
-1.616874127648770809e-03 -1.495745033025741577e-02 -4.623414203524589539e-02
-4.075470566749572754e-02 -1.873322390019893646e-02 -4.864366201218217611e-04
-1.002956647425889969e-02 -1.504509802907705307e-02 -4.646481946110725403e-02
-3.092031553387641907e-02 -7.298701256513595581e-02 -5.018626898527145386e-02
-4.065824300050735474e-02 -1.324549876153469086e-02 -2.284894697368144989e-02
3.178421407938003540e-02 -2.140480279922485352e-02 8.314199745655059814e-02
3.114164806902408600e-02 2.026868984103202820e-02 3.482493385672569275e-02
-9.998030029237270355e-03 1.613707654178142548e-02 -4.091329127550125122e-02
-3.010783810168504715e-03 6.486201286315917969e-02 -3.944633528590202332e-02
1.185344066470861435e-02 5.832019727677106857e-03 1.322141755372285843e-02
3.136945515871047974e-02 -2.622990310192108154e-02 2.729487977921962738e-02
-8.668757230043411255e-02 -4.961490258574485779e-02 -1.083330251276493073e-02
-5.497095361351966858e-02 -6.265352666378021240e-02 -1.365845184773206711e-02
9.180913330055773258e-04 -6.051020696759223938e-02 3.659952804446220398e-02
9.795480407774448395e-03 2.598082646727561951e-02 -2.157742902636528015e-02
1.999940536916255951e-02 -4.015755653381347656e-02 1.557798869907855988e-02
-1.963143609464168549e-02 3.714058175683021545e-02 -2.978309988975524902e-02
-3.157233074307441711e-02 2.331708557903766632e-02 2.057746285572648048e-03
-2.615623734891414642e-02 -7.549788802862167358e-02 -1.489821635186672211e-02
6.783911958336830139e-03 7.351875770837068558e-03 6.027430295944213867e-02
-3.872886300086975098e-02 -3.114622458815574646e-02 -1.722475979477167130e-03
-6.007996201515197754e-02 -3.169781714677810669e-02 -2.259877137839794159e-02
-8.264293894171714783e-03 4.877860471606254578e-02 -1.490334793925285339e-02
-2.310281060636043549e-02 5.191382952034473419e-03 3.567767143249511719e-02
3.336429223418235779e-02 7.191722840070724487e-02 4.487494379281997681e-02
-3.211681917309761047e-02 3.849914763122797012e-03 -2.809852734208106995e-02
7.141829282045364380e-02 2.699987497180700302e-03 -3.915965557098388672e-02
-7.499344646930694580e-03 -1.175383571535348892e-02 1.436392217874526978e-02
4.521956201642751694e-03 -4.660881310701370239e-02 3.328735381364822388e-02
-6.569267809391021729e-02 -4.658587649464607239e-02 1.963278092443943024e-02
3.715543448925018311e-02 -5.229138582944869995e-02 8.547271601855754852e-03
-1.997540937736630440e-03 -3.840738907456398010e-02 1.177408918738365173e-02
-1.240908913314342499e-02 -8.218197152018547058e-03 -1.830108650028705597e-02
-8.719085156917572021e-02 -2.852209098637104034e-02 -7.473651319742202759e-02
3.853386733680963516e-03 -3.812070935964584351e-02 -2.572675049304962158e-02
6.284783594310283661e-03 4.210413992404937744e-02 -4.206563532352447510e-02
2.437984803691506386e-03 -1.016886718571186066e-02 1.923932507634162903e-02
2.812899090349674225e-02 -3.462237492203712463e-02 5.282866209745407104e-02
8.557053282856941223e-03 -7.988923229277133942e-03 1.995273865759372711e-02
2.634865976870059967e-02 -2.523700892925262451e-02 6.800524890422821045e-02
-2.019761502742767334e-02 -3.597937524318695068e-02 -3.056147135794162750e-02
-7.555589545518159866e-03 -5.380240827798843384e-02 4.966759588569402695e-03
4.536849632859230042e-02 3.278189105913043022e-03 2.733275853097438812e-02
-1.146279089152812958e-02 8.437732234597206116e-03 1.775662414729595184e-02
-4.266647994518280029e-02 -2.743547596037387848e-02 -6.578017771244049072e-02
3.600339218974113464e-02 2.749171480536460876e-02 5.571303516626358032e-02
-4.027819633483886719e-02 -5.688565969467163086e-02 -1.369673293083906174e-02
4.638707637786865234e-02 3.509764326736330986e-03 -7.987396791577339172e-03
-4.012864083051681519e-02 -3.678919374942779541e-02 -1.211876142770051956e-02
5.222486332058906555e-03 3.918541595339775085e-02 5.255989730358123779e-02
-1.499221287667751312e-02 5.896331742405891418e-03 -1.348434574902057648e-02
-1.912504248321056366e-02 -2.863046713173389435e-02 -1.312792301177978516e-02
-9.320054086856544018e-04 -5.633755028247833252e-02 -8.017422631382942200e-03
2.432907558977603912e-02 3.735344484448432922e-02 4.933873191475868225e-03
3.622643649578094482e-02 1.707316003739833832e-02 -7.913751527667045593e-03
3.234896808862686157e-02 -8.467533625662326813e-03 2.290702797472476959e-02
4.251354932785034180e-02 5.892558954656124115e-03 3.350607305765151978e-02
1.298016123473644257e-02 -6.834292411804199219e-02 -5.656715109944343567e-02
-1.460695080459117889e-02 2.684245072305202484e-02 -5.349842458963394165e-02
1.879229326732456684e-03 -4.414472728967666626e-02 1.022203732281923294e-02
-1.093835290521383286e-02 -5.915876012295484543e-03 4.497463256120681763e-02
-3.495261445641517639e-02 -1.722807646729052067e-03 4.278350993990898132e-02
-1.135576795786619186e-02 1.808387599885463715e-02 2.054476737976074219e-02
-1.128447335213422775e-02 -3.619633242487907410e-02 -1.457973569631576538e-02
1.088773831725120544e-02 -2.930049551650881767e-03 -5.537578463554382324e-02
4.134338349103927612e-02 4.679846577346324921e-03 1.364947389811277390e-02
5.042203143239021301e-02 7.075162138789892197e-03 -8.261558599770069122e-03
3.699130192399024963e-02 2.932376228272914886e-02 5.435260012745857239e-03
-5.962441116571426392e-02 1.199313066899776459e-02 -6.037732586264610291e-02
-2.268104813992977142e-02 -1.156243775039911270e-02 -2.389817871153354645e-02
-3.193410113453865051e-02 -1.823352091014385223e-02 -1.324452552944421768e-02
-7.038144767284393311e-02 -3.861384093761444092e-02 -1.432523131370544434e-02
-5.473875626921653748e-02 -1.140342801809310913e-01 -3.938450664281845093e-02
-9.667496196925640106e-03 -7.573000155389308929e-03 2.523210830986499786e-02
-3.780575841665267944e-02 -4.862354695796966553e-02 -1.814517565071582794e-02
3.610580787062644958e-02 -1.153818424791097641e-02 4.840648267418146133e-03
4.128341004252433777e-02 -9.618423879146575928e-03 -1.301791146397590637e-02
-2.432151231914758682e-03 4.053791239857673645e-02 1.159644802100956440e-03
7.810287177562713623e-03 3.464561700820922852e-02 3.131223097443580627e-02
2.026531286537647247e-02 3.102512285113334656e-02 5.624820664525032043e-02
-3.925977647304534912e-02 -3.113081865012645721e-02 -5.744580551981925964e-02
-4.123370349407196045e-02 -4.203475639224052429e-02 1.477734930813312531e-02
6.018608808517456055e-03 -5.036149546504020691e-02 -5.186152085661888123e-02
-6.352169439196586609e-03 -3.805277496576309204e-02 -4.380495473742485046e-02
-2.982260286808013916e-02 -6.607246398925781250e-02 -4.990766569972038269e-02
-2.799300104379653931e-02 -6.503062695264816284e-02 3.283434733748435974e-02
-2.402570284903049469e-02 -3.109716624021530151e-02 -8.111177384853363037e-02
3.675160557031631470e-02 -4.008353501558303833e-02 -3.996814042329788208e-02
4.599509760737419128e-02 6.547649856656789780e-03 6.408724188804626465e-02
-2.142496407032012939e-03 7.201927900314331055e-02 6.494058761745691299e-03
6.413269042968750000e-02 -2.238407917320728302e-02 3.893978521227836609e-02
3.963106311857700348e-03 -1.021508476696908474e-03 7.598200440406799316e-02
1.321267918683588505e-03 7.204428315162658691e-02 -9.631930850446224213e-03
2.191824093461036682e-02 -1.001012884080410004e-02 -3.754645818844437599e-03
-2.834256179630756378e-02 -4.872801154851913452e-02 -1.720167696475982666e-02
8.256031200289726257e-03 2.735826186835765839e-02 8.366964757442474365e-03
-1.529456232674419880e-03 -9.758283384144306183e-03 3.727901354432106018e-02
2.154678478837013245e-02 7.054825127124786377e-02 -2.035622671246528625e-02
1.413284149020910263e-02 -1.016016118228435516e-02 -2.549636550247669220e-02
-2.776508219540119171e-02 -3.034453094005584717e-02 -3.071474656462669373e-02
-1.832588948309421539e-02 -1.412192359566688538e-02 -5.640490725636482239e-02
-7.874209433794021606e-03 5.535485688596963882e-03 1.646577939391136169e-02
-4.926404729485511780e-02 2.212544344365596771e-02 -2.054191008210182190e-02
1.013137586414813995e-02 6.645936053246259689e-03 3.468098863959312439e-02
1.507184840738773346e-02 6.727834697812795639e-03 5.971023812890052795e-02
8.401381783187389374e-03 1.051028259098529816e-02 6.711862981319427490e-02
7.497040182352066040e-02 9.376104921102523804e-03 1.984256878495216370e-02
-3.123102709650993347e-02 -8.569657802581787109e-02 1.918436773121356964e-02
-7.535834796726703644e-03 -1.531357970088720322e-02 -2.411863021552562714e-02
2.094065025448799133e-02 1.003321353346109390e-02 1.832536188885569572e-03
-6.312232464551925659e-03 3.030964918434619904e-02 -1.335068326443433762e-02
2.516182698309421539e-02 -3.464162349700927734e-02 -6.279624253511428833e-02
4.763774946331977844e-02 -2.446424402296543121e-02 -4.304004833102226257e-02
2.145799063146114349e-02 1.025157887488603592e-02 3.486733185127377510e-03
3.256152942776679993e-02 5.877781659364700317e-03 5.119962617754936218e-02
3.919636830687522888e-02 1.954540237784385681e-02 4.987021908164024353e-02
5.853987485170364380e-02 -2.305466659890953451e-05 6.896314024925231934e-02
4.699700698256492615e-02 2.525396458804607391e-02 3.481844440102577209e-02
6.185137853026390076e-02 3.146928176283836365e-02 -1.706761494278907776e-02
6.837687455117702484e-03 -4.634910821914672852e-02 2.675885334610939026e-02
-2.956127189099788666e-02 -6.388555746525526047e-03 3.326279670000076294e-02
-9.018380194902420044e-03 -6.471200287342071533e-02 4.607561603188514709e-02
6.757244002074003220e-03 -3.819122677668929100e-03 -3.414562670513987541e-03
-8.519597351551055908e-03 -1.001637708395719528e-02 5.483809858560562134e-02
-5.948663130402565002e-02 -1.073183957487344742e-02 -3.872680291533470154e-02
-2.101137768477201462e-03 -1.088792414520867169e-04 -1.941988710314035416e-03
-3.105157287791371346e-03 -2.445902116596698761e-02 5.661771167069673538e-03
-6.464891601353883743e-03 -3.659449575934559107e-04 -8.981818333268165588e-03
-5.967025458812713623e-02 -9.406080469489097595e-03 -1.457761507481336594e-02
-5.793474987149238586e-02 -1.640413701534271240e-02 2.705313032492995262e-03
-1.655970886349678040e-02 -1.439872290939092636e-02 -2.440577605739235878e-03
-2.325570955872535706e-02 3.579032048583030701e-02 3.403626754879951477e-02
-5.292454361915588379e-02 3.159899637103080750e-02 5.268060415983200073e-02
-2.509240806102752686e-02 2.203483507037162781e-02 2.305581234395503998e-02
3.390255942940711975e-02 -2.724214270710945129e-02 4.718280583620071411e-02
-1.483367197215557098e-02 9.740913286805152893e-03 -5.493775941431522369e-03
-3.385557606816291809e-02 -4.607355594635009766e-02 -2.271751640364527702e-03
7.803936954587697983e-03 -2.860925532877445221e-02 4.277743399143218994e-03
-2.990199998021125793e-02 6.261008977890014648e-02 2.943701855838298798e-02
-3.177307546138763428e-02 -1.483790576457977295e-02 -2.319687977433204651e-02
-4.732362553477287292e-02 5.016887094825506210e-03 -2.644671499729156494e-02
1.343308249488472939e-03 1.687623560428619385e-02 3.806254826486110687e-03
1.250197179615497589e-02 8.355128578841686249e-03 9.374670684337615967e-03
6.522069126367568970e-02 -1.723134145140647888e-02 4.448556527495384216e-02
-1.302387937903404236e-02 2.583863027393817902e-02 -1.801149919629096985e-02
-5.774243548512458801e-02 -2.763884887099266052e-02 -1.820212043821811676e-02
-1.064013782888650894e-02 -5.862880870699882507e-02 -2.405392704531550407e-03
-4.369172081351280212e-02 2.679715305566787720e-02 1.072270702570676804e-02
1.973029598593711853e-02 -2.425744570791721344e-02 -2.061288990080356598e-02
3.099785931408405304e-02 3.463669121265411377e-02 5.844134371727705002e-03
-3.380088508129119873e-02 5.655036121606826782e-02 -4.837932810187339783e-02
1.051482371985912323e-02 2.697572298347949982e-02 -3.691390901803970337e-02
3.928844258189201355e-02 -1.390040200203657150e-02 -2.668114006519317627e-02
6.057541817426681519e-02 2.473974414169788361e-02 3.915919922292232513e-03
2.072200551629066467e-02 1.133639272302389145e-02 -5.184979736804962158e-02
-8.590887486934661865e-02 -2.488907612860202789e-02 9.952980093657970428e-03
-1.667199656367301941e-02 1.526772882789373398e-02 3.547202423214912415e-02
-4.353330936282873154e-03 2.869541989639401436e-03 4.720131692010909319e-04
3.086373955011367798e-02 8.475665748119354248e-02 3.714365139603614807e-02
5.647795274853706360e-02 3.763173893094062805e-02 2.309519425034523010e-02
-8.886458817869424820e-05 1.292079570703208447e-03 -1.464518572902306914e-05
-3.511344268918037415e-02 -4.341108351945877075e-02 -1.460402552038431168e-02
-3.428809717297554016e-02 -2.749583311378955841e-02 -5.776347219944000244e-02
9.045929647982120514e-03 -1.253771223127841949e-02 -4.404767975211143494e-02
-1.111716777086257935e-02 -2.241245470941066742e-02 -1.377760153263807297e-02
-3.551031276583671570e-02 -4.095587506890296936e-02 2.881563501432538033e-03
-1.870679482817649841e-02 -3.682704269886016846e-02 -2.276125550270080566e-02
-1.281906291842460632e-02 4.247881844639778137e-02 7.541273534297943115e-02
-6.993317045271396637e-03 -3.342498093843460083e-02 -4.426760599017143250e-02
-1.667399331927299500e-02 -6.936276797205209732e-03 -1.179330237209796906e-02
-5.430199578404426575e-02 -1.456449553370475769e-02 -1.187960058450698853e-02
-5.339885130524635315e-02 -5.056931450963020325e-02 -4.333172738552093506e-02
-7.919322699308395386e-02 -3.918464109301567078e-02 -1.398802828043699265e-02
-2.696135081350803375e-02 -3.863525763154029846e-02 3.098956309258937836e-02
2.726422995328903198e-02 -7.610435783863067627e-02 -1.158988941460847855e-02
-2.325364947319030762e-02 -2.173876762390136719e-02 -4.083180800080299377e-02
-8.972383290529251099e-02 -2.232710458338260651e-02 -7.315156515687704086e-03
-4.117188602685928345e-02 -3.822394460439682007e-02 -3.618148714303970337e-02
-1.643221825361251831e-02 2.341725677251815796e-02 2.169504761695861816e-03
-2.250520884990692139e-02 -2.841919101774692535e-02 -4.766862839460372925e-03
-3.356010466814041138e-02 -3.825823962688446045e-02 1.898423209786415100e-02
1.964261382818222046e-02 2.465161494910717010e-02 1.032932568341493607e-02
3.743187524378299713e-03 -2.448492124676704407e-02 -3.577389940619468689e-02
8.818790316581726074e-03 -4.049859941005706787e-02 4.073109850287437439e-02
-4.645750857889652252e-03 3.899789229035377502e-02 7.147690746933221817e-03
4.029058665037155151e-02 -7.134341634809970856e-03 -7.925412617623806000e-03
-1.651876792311668396e-02 -1.975751854479312897e-02 2.396325208246707916e-02
-1.503236684948205948e-02 -6.786132603883743286e-02 2.952279290184378624e-03
2.602598443627357483e-02 1.681923866271972656e-02 -2.431745873764157295e-03
-5.983018781989812851e-03 -4.518388304859399796e-03 -2.338281832635402679e-03
-5.736185703426599503e-04 -2.711767144501209259e-02 -9.016960859298706055e-03
2.293914556503295898e-02 2.241930738091468811e-02 5.240383744239807129e-02
-2.965650707483291626e-02 -1.495283003896474838e-02 -1.380377262830734253e-02
-3.930949419736862183e-02 -2.239293232560157776e-02 -1.563226617872714996e-02
-4.673324152827262878e-02 -1.988994888961315155e-02 5.600077565759420395e-03
-1.241246517747640610e-02 1.693677715957164764e-02 -2.315095625817775726e-02
5.999321583658456802e-03 -7.410552818328142166e-03 2.068966254591941833e-02
3.246483951807022095e-02 -1.003483403474092484e-02 1.984608545899391174e-02
2.569392137229442596e-02 4.462476447224617004e-02 4.719702526926994324e-02
6.921682972460985184e-03 8.460211753845214844e-02 3.804557025432586670e-03
-1.526667643338441849e-02 -8.519270457327365875e-03 -1.933895610272884369e-02
-4.170932993292808533e-02 -2.141156792640686035e-02 -4.406470432877540588e-02
-1.378678064793348312e-02 -3.284508734941482544e-02 -1.587942824698984623e-03
-8.183165639638900757e-02 -4.655594006180763245e-02 -1.312947552651166916e-02
-2.042477950453758240e-02 -7.536344975233078003e-02 -3.877478092908859253e-02
-3.077267296612262726e-02 -6.187465973198413849e-03 -1.861446909606456757e-02
-3.553368616849184036e-03 -4.765860270708799362e-03 2.738556638360023499e-02
-3.186008194461464882e-03 6.401698105037212372e-03 -9.187102317810058594e-03
-3.046229109168052673e-02 3.617845475673675537e-02 -2.914248965680599213e-02
-2.266804222017526627e-03 -4.434651881456375122e-02 7.379505783319473267e-03
2.560109645128250122e-02 2.272765897214412689e-02 1.446719188243150711e-02
3.863176330924034119e-02 2.145063830539584160e-03 1.142800878733396530e-02
2.829003892838954926e-02 -4.408466070890426636e-02 -1.629939116537570953e-02
3.611095249652862549e-02 -7.300353609025478363e-04 -3.664770722389221191e-02
-1.921994239091873169e-02 -2.001910842955112457e-02 -7.174029946327209473e-02
-5.931438505649566650e-02 -4.040106199681758881e-03 -3.845337033271789551e-02
1.959597878158092499e-02 -1.705554500222206116e-02 -1.858867239207029343e-03
1.153077371418476105e-02 4.014753922820091248e-02 1.122675463557243347e-02
1.969420816749334335e-03 4.009007290005683899e-02 9.785120189189910889e-02
3.461164981126785278e-02 5.069501698017120361e-02 7.378088776022195816e-03
2.721454948186874390e-03 3.257258608937263489e-02 -9.256384335458278656e-03
5.611996352672576904e-02 5.234425142407417297e-02 2.204673923552036285e-02
-3.392082289792597294e-04 6.404691934585571289e-02 -1.312368363142013550e-02
5.936027038842439651e-03 -1.636068150401115417e-02 -1.101650996133685112e-03
-4.996251687407493591e-02 -5.867560952901840210e-02 -2.394784614443778992e-02
-9.417875111103057861e-02 -1.042799055576324463e-01 -7.371811196208000183e-03
-5.394889041781425476e-02 -3.161364793777465820e-02 -2.099347859621047974e-02
2.499773725867271423e-02 2.711110375821590424e-02 1.881194114685058594e-02
-2.870478481054306030e-02 -1.985610835254192352e-02 -3.318706154823303223e-02
4.518053680658340454e-02 2.840139344334602356e-02 6.821178644895553589e-02
7.458073087036609650e-03 -2.684337273240089417e-02 -2.873173728585243225e-02
-4.014357179403305054e-02 -1.663880795240402222e-02 -2.279991097748279572e-02
-1.524925231933593750e-02 1.647706329822540283e-02 -1.394884195178747177e-02
-1.887470670044422150e-02 3.929590433835983276e-02 -2.216584607958793640e-02
-2.557640895247459412e-02 3.176170960068702698e-02 -1.115135196596384048e-02
-8.078965358436107635e-03 6.717752665281295776e-03 2.252644859254360199e-02
2.216937765479087830e-02 1.712187309749424458e-03 8.825723081827163696e-03
1.874252408742904663e-02 -2.949320338666439056e-02 2.826068550348281860e-02
-8.335707709193229675e-03 -1.481708977371454239e-02 2.601017011329531670e-03
3.262696787714958191e-02 -1.552514638751745224e-02 1.653937436640262604e-02
3.942025080323219299e-02 4.153043404221534729e-02 3.099997900426387787e-02
-6.396589451469480991e-04 2.950278809294104576e-03 5.237037781625986099e-03
9.650731459259986877e-03 -3.942935913801193237e-02 8.251492865383625031e-03
1.956629194319248199e-02 -2.717460691928863525e-02 3.457548841834068298e-02
-5.150472000241279602e-02 -4.539481177926063538e-02 1.515886373817920685e-02
5.710643529891967773e-02 1.898828335106372833e-02 -1.124251820147037506e-02
1.301654963754117489e-03 1.600205339491367340e-02 2.120852470397949219e-02
1.583824120461940765e-02 3.592125605791807175e-03 1.743627153337001801e-02
2.161515504121780396e-02 -3.267731890082359314e-02 -2.376567572355270386e-02
-3.885743394494056702e-02 -3.528049960732460022e-02 4.008163232356309891e-03
1.089434605091810226e-02 -2.101708017289638519e-02 -1.696966588497161865e-03
-3.792482987046241760e-02 1.611107436474412680e-04 -3.570097684860229492e-02
2.580946311354637146e-02 2.649102918803691864e-02 -3.281299723312258720e-03
-1.503606420010328293e-02 -1.220167055726051331e-02 8.477326482534408569e-03
4.950757697224617004e-02 1.684955134987831116e-02 -3.640354052186012268e-02
-4.328190162777900696e-02 -5.390907451510429382e-02 7.196709979325532913e-03
-1.559374667704105377e-02 5.897855386137962341e-03 -2.807344123721122742e-02
7.736364379525184631e-03 -1.900905190268531442e-04 4.013536125421524048e-02
4.946609213948249817e-02 -3.304207324981689453e-02 2.316588908433914185e-02
6.344919558614492416e-03 2.966224402189254761e-02 2.411785721778869629e-02
-3.595201298594474792e-02 -8.436799794435501099e-02 -2.305116504430770874e-02
3.887885436415672302e-02 -2.405379712581634521e-02 -3.289444744586944580e-02
-9.274024516344070435e-03 -3.110912069678306580e-02 3.104452509433031082e-03
-5.546662025153636932e-03 -2.366959676146507263e-02 -4.361000377684831619e-03
-3.558677062392234802e-02 -3.343309462070465088e-02 6.743832025676965714e-03
-2.031756378710269928e-02 -9.198770858347415924e-03 -1.111051253974437714e-02
3.469368815422058105e-02 -2.688317187130451202e-02 -1.909824274480342865e-02
6.002698093652725220e-02 3.129557892680168152e-02 -1.834686496295034885e-03
-2.024928480386734009e-02 -3.534679859876632690e-02 -9.661683812737464905e-03
-3.313743276521563530e-03 -4.531059879809617996e-03 9.767577983438968658e-03
-2.869468554854393005e-02 -1.947341673076152802e-02 -7.120718248188495636e-03
5.953043699264526367e-02 3.279762715101242065e-02 -3.877278044819831848e-02
-3.923343867063522339e-02 -8.852327242493629456e-03 -5.657023563981056213e-02
-6.014036625856533647e-05 -6.278778612613677979e-02 1.066187047399580479e-03
4.354624077677726746e-02 -2.531759440898895264e-02 2.277682162821292877e-02
3.865529224276542664e-02 5.105609819293022156e-02 -2.182060852646827698e-02
-2.452559396624565125e-02 -4.658882319927215576e-02 -4.494257643818855286e-02
-3.826202079653739929e-02 -2.046013437211513519e-02 -2.269434742629528046e-03
2.954969741404056549e-02 -4.236960783600807190e-02 -1.220446079969406128e-02
-4.514341056346893311e-02 -3.642249479889869690e-02 -1.690788380801677704e-02
1.029610540717840195e-02 5.918361712247133255e-03 -7.861390709877014160e-03
6.535496562719345093e-03 -1.757653988897800446e-02 -3.019682317972183228e-02
-8.513026870787143707e-03 -1.589969545602798462e-02 -4.880689084529876709e-02
-1.186670549213886261e-02 -2.333055995404720306e-02 2.071168273687362671e-02
4.822118580341339111e-02 -1.412081718444824219e-02 -1.521410793066024780e-02
4.934661090373992920e-03 5.982225295156240463e-03 2.116951160132884979e-02
-2.066656574606895447e-02 1.818223111331462860e-02 -3.252741694450378418e-02
-5.510340631008148193e-02 -3.400020534172654152e-03 -2.904677204787731171e-02
-7.419332396239042282e-03 1.349626388400793076e-02 -5.006985738873481750e-02
-1.425960101187229156e-02 1.727928593754768372e-02 3.264227136969566345e-02
-5.052142590284347534e-02 -8.119608461856842041e-02 -2.914120070636272430e-02
7.164837792515754700e-03 7.527828565798699856e-04 -1.552407443523406982e-02
-3.429488465189933777e-02 -2.360775833949446678e-03 -3.355530649423599243e-02
-4.640179686248302460e-03 4.107579588890075684e-03 -7.740450650453567505e-02
-3.293275088071823120e-02 -2.304639853537082672e-02 -2.049549482762813568e-02
5.059345066547393799e-02 1.798568852245807648e-02 1.433367468416690826e-02
-4.775199294090270996e-02 -7.882212288677692413e-03 2.401378005743026733e-02
-2.467872202396392822e-02 2.789652347564697266e-02 4.924600943922996521e-02
3.024899959564208984e-02 2.158406935632228851e-02 3.700376302003860474e-02
-9.605531813576817513e-04 -3.157009184360504150e-02 -5.316271260380744934e-02
-3.407837450504302979e-02 -1.584806293249130249e-02 -7.807900011539459229e-02
-8.888469077646732330e-03 -3.978646174073219299e-02 -3.553575370460748672e-03
-4.457916319370269775e-02 3.215717896819114685e-02 -2.104185754433274269e-03
-4.043490439653396606e-02 -3.024768270552158356e-02 -4.417068511247634888e-02
1.064282562583684921e-02 -3.511722013354301453e-02 -1.049556024372577667e-02
1.649883762001991272e-02 1.143660396337509155e-02 -2.516737766563892365e-02
-4.744578525424003601e-02 -5.372252315282821655e-02 1.213136874139308929e-02
-5.813490971922874451e-02 -4.407938569784164429e-02 1.140450965613126755e-02
-8.280411362648010254e-03 -2.135463058948516846e-02 -5.723772570490837097e-02
4.396036639809608459e-02 1.783592440187931061e-02 1.751580624841153622e-03
1.094953715801239014e-02 3.507729852572083473e-03 5.382416024804115295e-02
-4.476953297853469849e-03 1.612037792801856995e-02 -2.321790903806686401e-03
-1.737487874925136566e-02 -1.624707877635955811e-02 -1.776300370693206787e-02
-5.067897588014602661e-02 1.195214409381151199e-02 -2.218133537098765373e-03
4.442972317337989807e-02 -3.018536046147346497e-02 1.597267761826515198e-02
-5.543090030550956726e-02 1.251907832920551300e-02 -2.582885883748531342e-02
-2.209337987005710602e-02 -1.379695907235145569e-02 1.880774274468421936e-02
1.671568839810788631e-03 2.201308123767375946e-02 2.055469341576099396e-02
3.386561945080757141e-02 -5.237605422735214233e-02 3.225799277424812317e-02
-1.508974004536867142e-02 3.981382772326469421e-02 2.634008601307868958e-02
-4.845855012536048889e-02 5.666467919945716858e-02 1.454513333737850189e-02
3.376481309533119202e-02 -6.272759288549423218e-02 -3.704120591282844543e-02
-1.303218863904476166e-02 -3.719135001301765442e-02 -8.320540189743041992e-02
1.812568120658397675e-02 4.311069101095199585e-02 -3.063524886965751648e-02
-3.315893560647964478e-02 6.485206633806228638e-02 -2.092074789106845856e-02
1.599338836967945099e-02 -3.130418062210083008e-02 3.737033531069755554e-02
4.596980754286050797e-03 -2.425295487046241760e-02 -5.428783595561981201e-03
-2.125212363898754120e-02 -9.383280761539936066e-03 -7.643532752990722656e-02
-4.946599528193473816e-02 5.659948103129863739e-03 9.213158860802650452e-03
-3.818476200103759766e-02 -5.949771404266357422e-02 2.990436181426048279e-02
-1.301389839500188828e-02 -5.049217958003282547e-03 1.448972802609205246e-02
-4.278189688920974731e-02 -1.233148016035556793e-02 5.007378756999969482e-02
1.773037947714328766e-02 -5.780921503901481628e-02 -1.596261933445930481e-02
2.660918515175580978e-03 -2.126457914710044861e-02 -3.873462555930018425e-03
4.496088624000549316e-02 -2.918493933975696564e-02 2.373158186674118042e-02
1.713469624519348145e-02 -4.293037950992584229e-02 7.990387268364429474e-03
1.626761630177497864e-02 8.302178233861923218e-03 -2.371544949710369110e-02
-1.504419278353452682e-02 2.870817668735980988e-02 1.098241284489631653e-02
4.581626970320940018e-03 8.392798714339733124e-03 -4.948287084698677063e-02
2.775222249329090118e-02 2.442585676908493042e-02 -1.511140074580907822e-02
-5.287659540772438049e-02 2.517395652830600739e-02 3.909774869680404663e-02
-2.928573824465274811e-02 3.564404323697090149e-02 -4.192842170596122742e-02
-1.016009878367185593e-02 -1.099994964897632599e-02 5.825791507959365845e-03
-4.033346846699714661e-02 -2.378063462674617767e-02 2.081023715436458588e-02
-3.351683914661407471e-02 3.850529715418815613e-02 1.334316330030560493e-03
3.598305955529212952e-02 -3.153953701257705688e-03 -2.314546890556812286e-02
-9.296061471104621887e-04 4.008722677826881409e-02 3.455538675189018250e-02
-2.726187184453010559e-02 -1.419804804027080536e-02 -2.447905484586954117e-03
2.706127613782882690e-02 -5.230730399489402771e-02 -2.454317000228911638e-04
1.314602093771100044e-03 9.213486686348915100e-03 4.008448123931884766e-02
1.009171083569526672e-01 1.875501126050949097e-02 5.512579530477523804e-02
2.996889874339103699e-02 2.715526893734931946e-02 -2.851358056068420410e-02
1.534765120595693588e-02 3.065388090908527374e-02 -2.699872292578220367e-02
-3.421181812882423401e-02 -1.922730170190334320e-02 8.544200100004673004e-03
-2.809165231883525848e-02 1.636171154677867889e-02 3.980438038706779480e-02
4.520768299698829651e-02 1.254838798195123672e-02 3.903440758585929871e-02
-4.219016805291175842e-02 -8.924071444198489189e-04 1.856752112507820129e-02
3.102284297347068787e-02 2.701616473495960236e-02 2.154386043548583984e-02
-2.106283977627754211e-02 -3.937193751335144043e-02 -4.972844943404197693e-02
-4.145512357354164124e-02 7.643727213144302368e-02 2.500986192899290472e-05
3.626718372106552124e-02 2.681391127407550812e-02 7.830847054719924927e-03
-3.196182847023010254e-02 -2.205668389797210693e-02 5.902021075598895550e-04
-2.512514963746070862e-02 -3.852172195911407471e-02 -6.272763758897781372e-02
-5.736554786562919617e-02 -3.476070612668991089e-02 -3.140351548790931702e-02
-2.286343276500701904e-02 -4.260623082518577576e-02 -4.202940687537193298e-02
4.226682242006063461e-03 -1.094934064894914627e-03 -1.107639912515878677e-02
-6.802974641323089600e-02 -5.834423471242189407e-03 -7.262004166841506958e-02
-2.800711058080196381e-02 -2.218071930110454559e-02 -4.894633777439594269e-03
4.373453557491302490e-03 1.087356172502040863e-02 -5.691810697317123413e-02
-5.565375089645385742e-02 3.416131483390927315e-03 -3.807348757982254028e-02
1.683800108730792999e-02 9.362205862998962402e-03 -3.881338983774185181e-02
3.827641019597649574e-03 6.491150241345167160e-03 -4.816221445798873901e-02
-2.670060098171234131e-02 1.039983332157135010e-02 -2.085592597723007202e-02
3.012186288833618164e-02 6.606960203498601913e-03 3.241757303476333618e-02
-2.941574528813362122e-02 3.174897655844688416e-02 2.490720339119434357e-02
2.136706374585628510e-02 2.738725394010543823e-02 4.542558267712593079e-02
3.153297305107116699e-02 -4.523584619164466858e-02 -8.760275319218635559e-03
5.346625670790672302e-02 1.905547454953193665e-02 4.900356288999319077e-03
1.722612045705318451e-02 7.335726171731948853e-02 3.130681067705154419e-02
1.411616802215576172e-02 -2.263124287128448486e-02 3.322666138410568237e-02
-1.649898476898670197e-02 -2.245258167386054993e-02 3.291655704379081726e-02
-2.505819126963615417e-02 -2.566416934132575989e-02 -3.904808685183525085e-02
-4.077315330505371094e-02 -1.713337987894192338e-04 6.099629681557416916e-03
-6.001555547118186951e-02 1.008594036102294922e-02 -6.337203085422515869e-02
-1.143695507198572159e-02 -2.115686424076557159e-02 -3.276843111962080002e-03
3.203778341412544250e-02 -3.345216810703277588e-02 9.256065823137760162e-03
-3.027975559234619141e-02 1.306660473346710205e-02 1.564497873187065125e-02
-3.667110577225685120e-02 -9.738972876220941544e-04 -1.769999228417873383e-02
-4.118704423308372498e-02 -3.868211433291435242e-02 2.270056121051311493e-02
-2.959997206926345825e-02 2.326846309006214142e-02 -3.514547273516654968e-02
6.113966554403305054e-02 -1.121311797760426998e-03 -5.313826352357864380e-02
2.137327380478382111e-02 5.306370183825492859e-02 -6.365137174725532532e-03
1.921225921250879765e-03 -1.784360781311988831e-02 -4.268544260412454605e-03
-1.182145439088344574e-02 -9.181776084005832672e-03 -8.528686128556728363e-03
3.845217823982238770e-02 2.030601724982261658e-02 3.540376946330070496e-02
-2.639875933527946472e-02 -5.954579100944101810e-04 -2.367980405688285828e-02
-3.510915488004684448e-02 -2.555391564965248108e-02 -8.060902357101440430e-02
-5.669777840375900269e-02 -5.742223188281059265e-02 -4.638906568288803101e-02
2.456722594797611237e-02 4.460555687546730042e-02 5.552446842193603516e-02
1.623719744384288788e-02 6.403523683547973633e-02 9.390555322170257568e-02
-5.054998397827148438e-02 -4.425976797938346863e-02 1.520002353936433792e-02
9.817765094339847565e-04 -7.320635020732879639e-03 -5.437721684575080872e-02
-1.217936445027589798e-02 -4.450089484453201294e-02 -2.153951302170753479e-02
-2.597890235483646393e-02 -7.784092333167791367e-03 2.781105786561965942e-02
3.907549660652875900e-03 -2.390472777187824249e-02 -3.212136030197143555e-02
1.851332187652587891e-02 -2.160681970417499542e-02 2.170311845839023590e-02
-7.420466747134923935e-03 1.690002973191440105e-03 -1.835547573864459991e-02
3.376607224345207214e-02 7.369654253125190735e-03 -3.460742905735969543e-02
6.290686130523681641e-02 -3.083548042923212051e-03 -3.279812168329954147e-03
5.760009586811065674e-02 1.718918420374393463e-02 4.355905950069427490e-02
-3.509231284260749817e-02 -1.106881722807884216e-02 4.708551988005638123e-02
-2.122564613819122314e-02 -5.009361775591969490e-04 4.893178865313529968e-02
1.091079693287611008e-02 1.906279288232326508e-02 1.646147109568119049e-02
-4.331247508525848389e-02 -8.327767252922058105e-02 -3.199383616447448730e-02
-1.058134343475103378e-02 -1.965843513607978821e-02 -2.587267570197582245e-02
2.567430026829242706e-02 -2.946002350654453039e-04 -1.162168104201555252e-02
-4.691576212644577026e-02 -7.301968336105346680e-02 -3.544415533542633057e-02
-4.779188707470893860e-02 -9.704373031854629517e-02 -7.455322146415710449e-02
-3.586468845605850220e-02 -4.639481380581855774e-02 -9.189362637698650360e-03
-7.074386347085237503e-03 -2.093317732214927673e-02 -1.813273061998188496e-03
6.604344584047794342e-03 -2.297898568212985992e-02 2.439645491540431976e-02
-4.175553843379020691e-02 1.436268817633390427e-02 -4.896233230829238892e-02
4.791902319993823767e-04 -3.316273912787437439e-02 1.245185080915689468e-02
-2.398702129721641541e-02 2.380187064409255981e-02 7.752390112727880478e-03
-1.075269374996423721e-02 3.026451217010617256e-03 2.389294467866420746e-02
1.057122135534882545e-04 2.829509228467941284e-02 1.199709903448820114e-02
2.273956499993801117e-02 3.109270334243774414e-02 3.528988733887672424e-02
-4.085670039057731628e-02 -2.230143547058105469e-02 -2.493537589907646179e-02
3.197513148188591003e-02 -4.722590371966362000e-02 -5.059941112995147705e-02
-5.263301730155944824e-02 2.550253458321094513e-02 -4.639462009072303772e-02
9.334968402981758118e-03 -2.967395819723606110e-02 1.188017241656780243e-02
3.883061185479164124e-02 8.112360723316669464e-03 2.510865591466426849e-02
3.486248850822448730e-02 1.560866739600896835e-02 1.954726316034793854e-02
4.809799417853355408e-02 -1.920236833393573761e-02 -1.341824699193239212e-02
-1.643613353371620178e-02 5.755566991865634918e-03 3.871977329254150391e-02
-8.070982061326503754e-03 -1.882345974445343018e-02 1.913002505898475647e-02
-8.964531589299440384e-04 -3.187555074691772461e-02 1.842729933559894562e-02
8.314879983663558960e-02 1.183214932680130005e-01 7.577372342348098755e-02
4.744805023074150085e-02 2.327141351997852325e-02 -5.325067322701215744e-03
3.831793740391731262e-02 3.596279025077819824e-02 4.486864898353815079e-03
6.239384040236473083e-02 1.709939166903495789e-02 -3.008420765399932861e-02
2.980796433985233307e-02 2.753369323909282684e-02 -1.172838546335697174e-02
2.743473276495933533e-03 -2.673788741230964661e-02 -9.592188289389014244e-04
-2.102388534694910049e-03 -1.683462038636207581e-02 2.887044334784150124e-03
-1.764855720102787018e-02 -4.847427830100059509e-03 -5.578467622399330139e-03
-1.694947481155395508e-02 -4.591634124517440796e-02 -7.336012274026870728e-02
-1.960076764225959778e-02 -9.989610407501459122e-04 -8.190349675714969635e-03
-4.518319037742912769e-04 2.803589217364788055e-02 -1.262573618441820145e-02
-4.841552302241325378e-02 1.666103117167949677e-02 -6.925825029611587524e-02
3.095430554822087288e-03 2.279273793101310730e-02 1.556425448507070541e-02
1.275406591594219208e-02 4.052173346281051636e-03 5.179518368095159531e-03
3.535401308909058571e-03 -4.911684244871139526e-02 1.897345110774040222e-02
-1.761277578771114349e-02 -7.086724042892456055e-02 1.047953730449080467e-03
-4.735228046774864197e-02 -7.897231727838516235e-03 1.452414505183696747e-02
-2.791270241141319275e-02 -4.878526180982589722e-02 2.062641270458698273e-02
-6.433038413524627686e-02 -6.006214395165443420e-02 -4.442121833562850952e-02
-2.197846770286560059e-02 -6.753774732351303101e-02 -4.426107555627822876e-02
-8.861391805112361908e-03 -7.700387388467788696e-02 5.551154608838260174e-04
2.369545586407184601e-02 7.096201926469802856e-02 9.668171405792236328e-03
1.045951433479785919e-02 2.235367521643638611e-02 3.481895476579666138e-02
-4.406118299812078476e-03 -1.208518259227275848e-02 -4.651932790875434875e-02
1.026235148310661316e-02 -2.161734364926815033e-02 -2.427486330270767212e-02
-3.125331550836563110e-02 -9.650323539972305298e-03 2.029165439307689667e-02
2.481359615921974182e-02 -4.421259276568889618e-03 5.917024239897727966e-02
-6.421642750501632690e-02 -7.829912751913070679e-02 -8.352056890726089478e-02
-4.956845194101333618e-02 -3.159702569246292114e-02 -2.325176075100898743e-02
-2.584210224449634552e-02 -1.005611103028059006e-02 -8.537237532436847687e-03
2.558967098593711853e-02 3.012701496481895447e-02 -4.622445441782474518e-03
-3.679860383272171021e-02 -2.554631978273391724e-02 -1.374841947108507156e-02
-5.562798306345939636e-02 -6.144279241561889648e-02 -3.984487801790237427e-02
1.710564084351062775e-02 2.580364607274532318e-02 -2.792440121993422508e-03
3.701339662075042725e-02 -1.500605978071689606e-02 -2.959712594747543335e-02
-6.214692071080207825e-02 -8.393925614655017853e-03 -2.646670304238796234e-02
2.456505782902240753e-02 1.693938858807086945e-02 4.227159544825553894e-02
4.600776359438896179e-02 2.219387702643871307e-02 -1.977986656129360199e-02
4.002951458096504211e-02 3.176227957010269165e-02 8.209676481783390045e-03
-4.809574224054813385e-03 1.775146275758743286e-02 1.347941905260086060e-02
-5.096299108117818832e-03 -4.073784127831459045e-02 -2.814966253936290741e-02
5.409711226820945740e-02 -2.606814913451671600e-02 1.782290823757648468e-02
-5.307482555508613586e-02 -1.773367263376712799e-02 2.162927575409412384e-02
-4.426372423768043518e-02 -5.176502745598554611e-04 -1.318734046071767807e-02
-5.936128273606300354e-02 -2.393044903874397278e-02 1.042163837701082230e-02
-2.248646877706050873e-02 3.406665520742535591e-03 -1.664066873490810394e-02
-2.196009084582328796e-02 -5.197225138545036316e-03 -1.774961128830909729e-02
3.704712027683854103e-03 3.344205615576356649e-04 -2.174857363570481539e-04
2.017676271498203278e-02 -1.014388073235750198e-02 -3.182169049978256226e-02
3.490903414785861969e-03 1.993677020072937012e-02 -7.425532490015029907e-02
3.415569290518760681e-02 -1.965762302279472351e-02 2.749725431203842163e-02
1.928052492439746857e-02 5.321998521685600281e-02 4.235242307186126709e-02
7.145661115646362305e-02 3.576548025012016296e-02 1.579811982810497284e-02
4.418343771249055862e-03 -8.213393390178680420e-03 -1.596548035740852356e-02
-2.358411997556686401e-02 4.760711267590522766e-02 -1.030360069125890732e-02
-5.068478174507617950e-03 1.447120122611522675e-02 2.068846719339489937e-03
4.938645288348197937e-03 -4.079919308423995972e-02 -1.377650722861289978e-02
-1.962831243872642517e-02 7.923034951090812683e-03 -6.038663163781166077e-02
-2.453956939280033112e-02 -1.134123373776674271e-02 -6.708031520247459412e-03
-1.132581196725368500e-02 -6.818044185638427734e-02 -4.191644862294197083e-02
5.599989742040634155e-02 9.695261251181364059e-04 -6.861688103526830673e-03
9.231428615748882294e-03 4.475431516766548157e-02 -6.702722609043121338e-02
-2.940059080719947815e-02 -2.263415604829788208e-02 3.368772799149155617e-03
-5.531804170459508896e-03 -1.065957266837358475e-02 5.406513065099716187e-02
3.231764584779739380e-02 3.943403437733650208e-02 4.283826053142547607e-02
1.746727153658866882e-02 2.287142910063266754e-02 6.746147572994232178e-02
-2.253435365855693817e-02 -1.017207056283950806e-01 2.829770371317863464e-02
-3.865074366331100464e-02 -2.989308722317218781e-02 3.675140440464019775e-02
-3.929422423243522644e-02 4.152169078588485718e-02 1.010600198060274124e-02
8.566476404666900635e-03 6.036752089858055115e-02 4.587817564606666565e-02
-4.045481234788894653e-02 2.779734507203102112e-02 2.339859027415513992e-03
-4.225972667336463928e-02 -3.436265513300895691e-02 3.684240207076072693e-02
4.292791243642568588e-03 2.817159146070480347e-02 -1.230561733245849609e-02
4.825969226658344269e-03 -8.284800685942173004e-03 -2.231321670114994049e-02
2.190748974680900574e-02 7.560543715953826904e-03 -1.270553190261125565e-02
-4.811014514416456223e-03 -5.159735679626464844e-02 -4.714388027787208557e-02
-4.460171982645988464e-02 -6.118218228220939636e-02 -7.207861635833978653e-03
5.435782484710216522e-03 2.991630928590893745e-03 9.728029253892600536e-04
2.215396240353584290e-02 -3.050185926258563995e-02 5.273216217756271362e-02
9.155555628240108490e-03 -2.921040914952754974e-02 1.699870824813842773e-02
1.460244227200746536e-02 1.723377965390682220e-02 1.177779678255319595e-02
-9.015480987727642059e-03 -2.255161292850971222e-02 6.020425632596015930e-02
4.641706123948097229e-02 -1.438122126273810863e-03 3.717647120356559753e-02
-7.420472800731658936e-02 -7.143659889698028564e-02 -2.491810172796249390e-02
-3.256649151444435120e-02 -3.191774711012840271e-02 3.687111288309097290e-02
-5.350640974938869476e-03 -2.465429343283176422e-02 8.399537764489650726e-03
-8.484394056722521782e-04 -4.581242427229881287e-02 6.243532057851552963e-03
-1.644384302198886871e-02 3.608346730470657349e-02 -3.664873540401458740e-03
9.111781255342066288e-04 1.422729529440402985e-02 1.058758888393640518e-02
4.001417383551597595e-02 -9.221401065587997437e-03 4.480391368269920349e-02
-3.801627457141876221e-02 9.942425414919853210e-03 -9.196012979373335838e-04
-1.291003543883562088e-02 -3.895776346325874329e-02 -9.306880645453929901e-03
-3.163635358214378357e-02 -8.691157214343547821e-03 -5.602885037660598755e-03
-2.581544220447540283e-02 -1.176154986023902893e-02 -4.683980718255043030e-02
3.917511552572250366e-02 -4.297898709774017334e-02 -3.064497187733650208e-02
3.963534533977508545e-02 1.829861477017402649e-02 2.936973236501216888e-02
-3.601542441174387932e-03 2.869438903871923685e-04 3.389361081644892693e-03
3.628043830394744873e-02 8.561712689697742462e-03 8.144427090883255005e-03
-3.819555789232254028e-02 -5.115087702870368958e-02 -8.858515881001949310e-03
3.142646746709942818e-03 -1.471766922622919083e-02 -2.140542492270469666e-04
-1.107110641896724701e-02 -6.976971868425607681e-03 -3.844336792826652527e-02
-2.329767309129238129e-02 -4.771216958761215210e-02 -2.462750487029552460e-02
3.269897028803825378e-02 1.654431968927383423e-02 1.416182890534400940e-02
-8.510109782218933105e-02 9.668976068496704102e-03 -2.284624427556991577e-02
-1.045635715126991272e-02 -2.209731936454772949e-02 1.933405548334121704e-02
1.970226876437664032e-02 -9.085244499146938324e-03 -3.739977255463600159e-02
3.758703544735908508e-02 -3.475458128377795219e-03 5.926873907446861267e-02
5.675235297530889511e-03 7.645369041711091995e-03 3.420398756861686707e-02
-4.462769255042076111e-02 1.747800409793853760e-02 4.376620426774024963e-02
-1.978589594364166260e-02 -3.379633184522390366e-03 3.269578516483306885e-02
1.385839562863111496e-02 3.683502972126007080e-02 -2.219745703041553497e-02
3.532951325178146362e-02 2.088743448257446289e-02 5.956700537353754044e-03
1.287579536437988281e-02 5.265892297029495239e-02 -2.102067135274410248e-02
-1.374743506312370300e-02 -1.884263195097446442e-02 -1.110138092190027237e-02
-2.449922636151313782e-02 -3.838087618350982666e-02 -9.801547974348068237e-03
-4.536317661404609680e-02 -2.543656341731548309e-02 2.785201929509639740e-02
-3.721969947218894958e-02 -4.931880906224250793e-02 -5.671877041459083557e-02
-3.059886209666728973e-02 -4.174087196588516235e-02 -1.085382476449012756e-01
-5.003680288791656494e-02 -3.513919934630393982e-02 -7.803545147180557251e-02
-5.779918655753135681e-02 -5.195890087634325027e-03 -9.164981544017791748e-02
-4.944676160812377930e-02 -5.022864043712615967e-02 -4.293242096900939941e-02
-2.578338049352169037e-02 -9.218048304319381714e-02 -1.606201287358999252e-03
1.421236153692007065e-02 3.740477608516812325e-03 -1.651166193187236786e-02
-5.163791403174400330e-02 -4.047719761729240417e-02 -9.470263496041297913e-03
-5.085913091897964478e-02 -4.267820715904235840e-02 1.083672977983951569e-02
-1.311621163040399551e-02 3.672336041927337646e-02 -1.614663004875183105e-02
4.470733925700187683e-02 -1.403926406055688858e-02 -2.712914533913135529e-02
3.222815692424774170e-03 -2.187385037541389465e-02 -4.414478316903114319e-02
8.268170990049839020e-03 6.778366863727569580e-02 -6.920330226421356201e-03
4.264764487743377686e-03 -1.047220546752214432e-02 -6.843280047178268433e-03
1.129516493529081345e-02 -3.629750572144985199e-03 3.304664790630340576e-02
2.850452624261379242e-02 4.411287605762481689e-03 -1.007586438208818436e-02
1.091909408569335938e-02 5.549262464046478271e-02 5.380244553089141846e-02
3.370828181505203247e-02 2.354347705841064453e-02 3.471686271950602531e-03
-1.321828924119472504e-02 1.075007021427154541e-01 2.492855302989482880e-02
7.588474452495574951e-02 -8.373910677619278431e-04 1.373055856674909592e-02
2.298288047313690186e-02 6.941248662769794464e-03 2.373041585087776184e-02
-2.186685241758823395e-02 2.537429146468639374e-02 1.311374548822641373e-02
-4.833927378058433533e-03 -1.183787956833839417e-01 -1.040591625496745110e-03
-2.564702369272708893e-02 -5.292020738124847412e-02 4.427542164921760559e-02
-5.143160372972488403e-02 -3.481348603963851929e-02 6.336350739002227783e-02
5.210592970252037048e-02 2.225011400878429413e-02 4.401285201311111450e-02
-3.198157623410224915e-02 -2.212581224739551544e-02 -5.031730234622955322e-02
2.843522839248180389e-02 -2.581157349050045013e-02 -4.487253609113395214e-04
3.145096451044082642e-02 2.046668156981468201e-02 7.546436041593551636e-02
-3.346377518028020859e-03 -1.068740431219339371e-02 2.607513591647148132e-02
3.885065019130706787e-02 4.536451399326324463e-02 8.058610372245311737e-03
-3.185819089412689209e-02 -4.963707551360130310e-02 -2.309667319059371948e-02
-5.662353336811065674e-02 5.519413389265537262e-03 4.750658757984638214e-03
1.100374851375818253e-02 3.459696471691131592e-02 4.685423523187637329e-02
-3.036629594862461090e-02 -4.108886048197746277e-02 -8.564260601997375488e-02
-4.245453327894210815e-02 -1.266264822334051132e-02 -1.131063252687454224e-01
-1.340520568192005157e-02 -3.383363038301467896e-02 -1.060014069080352783e-01
9.023329243063926697e-03 1.715621724724769592e-02 -5.674739368259906769e-03
-4.871671646833419800e-02 -2.375269681215286255e-02 -5.223192274570465088e-03
-2.212476171553134918e-02 -3.579255566000938416e-02 2.326126396656036377e-02
-4.436239972710609436e-02 1.472877711057662964e-02 -4.288580268621444702e-02
5.270392075181007385e-02 4.775696620345115662e-02 -1.340585853904485703e-02
-3.077188506722450256e-03 -6.100308382883667946e-05 9.050983004271984100e-03
2.783754095435142517e-02 -4.320178553462028503e-02 -6.471732258796691895e-02
2.620698697865009308e-02 -1.865361630916595459e-02 -6.189861521124839783e-02
-1.541274692863225937e-02 -2.557792514562606812e-02 -7.131394743919372559e-02
-2.887849323451519012e-02 1.719150319695472717e-02 -3.569591417908668518e-02
-7.038758485578000546e-04 -2.405444160103797913e-03 2.941605076193809509e-02
3.035433962941169739e-02 1.029257383197546005e-02 -4.563288018107414246e-02
-2.913156338036060333e-02 1.772261108271777630e-03 -8.371919393539428711e-03
8.872883627191185951e-04 4.345504101365804672e-03 -2.765660732984542847e-02
-3.829013183712959290e-02 -1.410971768200397491e-02 2.559587359428405762e-02
1.593929156661033630e-02 2.010680269449949265e-03 3.966347873210906982e-02
-3.001493401825428009e-02 -3.296930715441703796e-02 1.145852543413639069e-02
1.075584162026643753e-02 -5.895275250077247620e-02 9.635369293391704559e-03
-1.456204522401094437e-02 -7.754243165254592896e-02 -6.884697079658508301e-02
-3.057621791958808899e-02 -4.077497124671936035e-02 1.810297928750514984e-02
-3.193276003003120422e-02 4.140491597354412079e-03 -7.308990508317947388e-02
1.327820820733904839e-03 -2.600580640137195587e-02 -1.887139864265918732e-02
1.161486189812421799e-02 -2.603110112249851227e-02 -3.113154508173465729e-02
-7.911653816699981689e-02 -5.557292327284812927e-02 8.189220097847282887e-04
-7.829531282186508179e-02 -2.963082306087017059e-02 1.624110154807567596e-02
-1.804737746715545654e-02 1.439252775162458420e-02 -5.586110055446624756e-03
1.266587153077125549e-02 2.037927135825157166e-02 6.102931872010231018e-02
2.901607565581798553e-02 5.270003806799650192e-03 2.137238159775733948e-02
3.409493714570999146e-02 -4.942705482244491577e-02 -2.648138441145420074e-02
-3.162517398595809937e-02 -4.726123437285423279e-02 -1.289554964751005173e-02
1.646327599883079529e-02 1.564264483749866486e-02 -3.167450800538063049e-02
-7.396528124809265137e-02 -9.370464831590652466e-03 -5.636702850461006165e-02
-5.106589943170547485e-02 -4.673457890748977661e-02 -3.151796758174896240e-02
7.600559853017330170e-03 6.728016771376132965e-03 1.811521709896624088e-03
-6.120762601494789124e-02 -1.829020120203495026e-02 1.036442909389734268e-02
4.203539865557104349e-04 3.266749531030654907e-02 -4.572950711008161306e-04
-2.892930619418621063e-02 2.536650560796260834e-02 -5.120121408253908157e-03
-1.626147143542766571e-02 -1.244453899562358856e-02 -1.988541334867477417e-03
-4.933480173349380493e-02 -4.694779962301254272e-02 -5.789817497134208679e-02
7.279344648122787476e-02 4.255716130137443542e-02 1.889699138700962067e-02
3.689869865775108337e-02 1.854989863932132721e-02 -1.891560852527618408e-03
3.534132614731788635e-02 3.301171585917472839e-02 7.180453091859817505e-02
4.991845414042472839e-02 -2.405353449285030365e-02 4.876383021473884583e-02
6.626361608505249023e-02 2.875793538987636566e-02 -2.326294034719467163e-02
2.003734000027179718e-02 -1.534629985690116882e-02 2.874498721212148666e-03
1.536220032721757889e-02 5.069231265224516392e-04 -3.246917948126792908e-02
-9.958996437489986420e-03 -2.671301737427711487e-02 -3.804014995694160461e-02
9.533828706480562687e-04 -6.097810808569192886e-03 5.882596131414175034e-03
-6.834065169095993042e-02 -5.029489286243915558e-03 -1.990097947418689728e-02
-4.434776306152343750e-02 -1.816631481051445007e-02 -5.464628711342811584e-02
-1.030278578400611877e-02 -2.492439560592174530e-02 -8.728500455617904663e-02
-5.327198654413223267e-03 6.140136346220970154e-02 1.947191543877124786e-02
4.606772214174270630e-02 2.587349154055118561e-02 3.981819003820419312e-02
-5.343371536582708359e-03 3.410825878381729126e-02 3.722603246569633484e-02
-5.037312582135200500e-02 -1.240353565663099289e-02 -7.085962686687707901e-03
-4.585713613778352737e-03 -6.475801765918731689e-02 -5.924350395798683167e-02
-7.055592536926269531e-02 -3.692660853266716003e-02 -7.636832445859909058e-02
-1.620439626276493073e-02 -6.663705408573150635e-02 -8.354044519364833832e-03
-5.304467678070068359e-02 -2.445167303085327148e-02 -8.596218191087245941e-03
-3.398158028721809387e-02 -6.195370480418205261e-02 1.268296595662832260e-02
-2.311506308615207672e-02 -1.634958386421203613e-02 1.285516191273927689e-02
-4.025710280984640121e-03 2.126220613718032837e-03 4.602452274411916733e-03
-2.542335912585258484e-02 -4.948610067367553711e-02 3.478959575295448303e-02
2.051497623324394226e-02 1.837654411792755127e-02 8.719829469919204712e-02
7.266689091920852661e-02 6.063464283943176270e-02 7.970175147056579590e-02
3.596429899334907532e-02 3.650014102458953857e-02 2.214684896171092987e-02
-6.309350486844778061e-03 -4.592533037066459656e-02 -2.154674846678972244e-03
-8.215191960334777832e-02 3.925749287009239197e-02 9.096651338040828705e-03
6.170824635773897171e-03 -6.104370951652526855e-02 5.307205393910408020e-02
2.299028821289539337e-02 -1.366000622510910034e-02 -2.467526495456695557e-02
-4.607643559575080872e-02 1.426082197576761246e-02 -4.362120851874351501e-02
-3.959265723824501038e-02 -5.016256123781204224e-02 -4.605948925018310547e-02
-4.598874971270561218e-02 3.950909897685050964e-02 -1.815867982804775238e-02
-7.173809409141540527e-02 -3.215546905994415283e-02 -2.110589295625686646e-02
1.710630580782890320e-02 3.788792714476585388e-02 -4.144468985032290220e-04
4.514360800385475159e-02 1.600692048668861389e-02 -2.198357135057449341e-02
6.348340213298797607e-02 3.193747997283935547e-02 1.190945389680564404e-03
1.026673093438148499e-01 6.303697079420089722e-02 -4.225340089760720730e-04
4.113438352942466736e-02 6.174928043037652969e-03 4.104139655828475952e-02
-1.154780667275190353e-02 -6.366898864507675171e-02 3.315548226237297058e-02
2.935599768534302711e-03 5.631823558360338211e-03 2.378818020224571228e-02
-7.117544114589691162e-02 -3.566782176494598389e-02 -4.152861982583999634e-02
6.859396398067474365e-02 3.617175295948982239e-02 1.996954530477523804e-02
-3.402899950742721558e-02 -3.661822527647018433e-02 -7.239175960421562195e-03
1.290786173194646835e-02 -1.447989512234926224e-02 -6.540702283382415771e-02
-1.337638311088085175e-02 -7.441873103380203247e-02 -6.681350618600845337e-02
-1.548275537788867950e-02 -1.589100249111652374e-02 -1.257060561329126358e-02
-4.024123772978782654e-02 2.111547812819480896e-02 -1.955977641046047211e-03
-4.219307377934455872e-02 1.575493998825550079e-02 1.324019860476255417e-02
-2.057138644158840179e-02 -2.963705547153949738e-02 -1.387345697730779648e-02
4.438630491495132446e-02 -4.660949483513832092e-02 4.707065597176551819e-02
-3.229576349258422852e-02 -1.555343531072139740e-02 4.013017937541007996e-02
-3.591635450720787048e-02 -2.251842804253101349e-02 3.685252042487263680e-03
-1.485579926520586014e-02 4.732723906636238098e-02 1.393824117258191109e-03
-1.937950216233730316e-02 9.089390747249126434e-03 -3.421015292406082153e-02
9.101111441850662231e-02 3.126999363303184509e-02 -2.308004349470138550e-02
-4.512002319097518921e-02 -1.683280430734157562e-02 -2.376779913902282715e-02
-5.837273970246315002e-02 -2.307131700217723846e-02 -3.052033483982086182e-02
-1.094923913478851318e-02 -1.962529681622982025e-02 -1.597218215465545654e-02
-1.289266534149646759e-02 -5.736886523663997650e-03 -2.863284759223461151e-02
-4.410197585821151733e-02 -2.850659936666488647e-02 3.093677945435047150e-02
-3.482423350214958191e-02 -4.648884292691946030e-03 -2.124697528779506683e-02
3.953015804290771484e-02 -2.452841261401772499e-03 2.290107868611812592e-02
1.035131426760926843e-04 2.494985528755933046e-04 4.255825281143188477e-02
2.816191688179969788e-02 4.705256968736648560e-02 2.280644513666629791e-02
-6.496753543615341187e-02 3.888694569468498230e-02 -4.001917317509651184e-02
-6.082269549369812012e-02 -5.711245164275169373e-02 3.095041587948799133e-02
-3.786385431885719299e-02 -5.497294291853904724e-02 4.560110718011856079e-02
2.969801984727382660e-02 3.432540223002433777e-02 2.871540933847427368e-02
3.158137947320938110e-02 4.044478014111518860e-02 5.773577839136123657e-02
1.146921887993812561e-02 2.338033728301525116e-02 -2.162729389965534210e-02
3.747596219182014465e-02 -9.524110704660415649e-03 -4.634706128854304552e-04
2.691833861172199249e-02 1.576820574700832367e-02 -5.986532662063837051e-03
6.280791014432907104e-02 6.042950786650180817e-03 1.805396564304828644e-02
-2.015488781034946442e-02 -3.394992277026176453e-02 -1.377916196361184120e-03
-3.701913636177778244e-03 -5.354846268892288208e-02 -4.337261244654655457e-02
-4.616240784525871277e-02 -3.277780488133430481e-02 3.879203274846076965e-02
1.021965872496366501e-03 4.753360152244567871e-02 2.810798957943916321e-02
-3.038740716874599457e-02 -5.273072421550750732e-02 -1.658489112742245197e-03
-1.739365980029106140e-02 -3.696943446993827820e-02 1.991633884608745575e-02
-1.269721053540706635e-02 -3.269902244210243225e-02 -4.676982387900352478e-02
3.444120660424232483e-02 -3.057795576751232147e-03 -1.319626532495021820e-02
4.126464575529098511e-02 -5.695112049579620361e-02 -4.402443394064903259e-02
-1.805766671895980835e-02 -6.918024271726608276e-02 -1.094868965446949005e-02
2.591511234641075134e-02 -7.932491600513458252e-02 -1.161500252783298492e-02
1.538635324686765671e-02 3.284249827265739441e-02 1.948389969766139984e-02
-8.232406340539455414e-03 -1.618193835020065308e-02 -1.850947551429271698e-02
-1.220323611050844193e-02 1.974854990839958191e-02 -2.770065702497959137e-02
8.396896719932556152e-02 3.863211721181869507e-02 1.725819520652294159e-02
4.648431390523910522e-02 7.164657860994338989e-02 7.983836531639099121e-02
7.214655727148056030e-02 2.084558643400669098e-02 2.923666872084140778e-02
-3.714976366609334946e-03 -3.296916559338569641e-02 2.248891687486320734e-04
-4.012272134423255920e-02 -3.962785378098487854e-02 -5.060513969510793686e-03
-2.375832386314868927e-02 2.705663209781050682e-03 7.202313281595706940e-03
-1.737030036747455597e-02 3.084916807711124420e-02 1.620427123270928860e-03
-4.691526293754577637e-03 -7.044700533151626587e-02 1.604975201189517975e-02
2.928304113447666168e-02 -1.013865810818970203e-03 1.929155550897121429e-02
-7.564470916986465454e-02 -7.095513492822647095e-02 -4.648496210575103760e-02
5.587093532085418701e-03 1.262858044356107712e-02 5.894545838236808777e-02
2.949270047247409821e-02 1.145870834589004517e-01 3.169126436114311218e-02
-1.921230182051658630e-02 -3.976211696863174438e-02 -9.034690447151660919e-03
-9.038041345775127411e-03 -5.761828646063804626e-02 1.441514585167169571e-02
-2.911049872636795044e-02 -1.455304585397243500e-02 -5.669287964701652527e-02
-1.932400278747081757e-02 -2.283731848001480103e-02 -1.092608831822872162e-02
-1.663421466946601868e-02 -5.262260790914297104e-03 -3.620341047644615173e-02
-2.551937242969870567e-03 1.502665225416421890e-03 -2.560140751302242279e-02
5.281471833586692810e-02 3.518554568290710449e-02 6.808903068304061890e-02
-3.094482235610485077e-02 -3.197648748755455017e-02 -1.708275079727172852e-02
-1.041443571448326111e-01 -1.496537309139966965e-02 4.069884889759123325e-04
-2.853625454008579254e-02 -3.087381192017346621e-04 1.006664521992206573e-02
1.701131649315357208e-02 2.690266072750091553e-02 -2.649339661002159119e-02
7.264597713947296143e-02 1.375359110534191132e-02 -1.895939931273460388e-02
4.755823686718940735e-02 1.103702280670404434e-02 -2.994650974869728088e-03
3.068709746003150940e-02 6.702071987092494965e-03 -3.683638572692871094e-02
3.790795058012008667e-02 -1.543487654998898506e-03 1.190328039228916168e-02
-1.471461262553930283e-02 1.735732518136501312e-02 -4.137177765369415283e-02
-2.631905488669872284e-02 -7.052741944789886475e-02 -4.096448421478271484e-02
-2.314837090671062469e-02 -4.271820560097694397e-02 -6.244704499840736389e-02
-6.460244208574295044e-02 -3.459569439291954041e-02 -6.601110100746154785e-02
-6.300259381532669067e-02 -6.720587611198425293e-02 -3.818256407976150513e-02
-6.007799878716468811e-03 -2.336961403489112854e-02 -4.120006412267684937e-02
-7.991591095924377441e-02 -4.057094454765319824e-02 4.691453359555453062e-04
1.085862168110907078e-03 -3.593781590461730957e-02 1.578217558562755585e-02
-2.053263038396835327e-02 -2.703416161239147186e-02 -1.772602088749408722e-03
-2.452720515429973602e-02 -5.950798466801643372e-02 6.199464667588472366e-03
-2.304968424141407013e-03 -8.546338416635990143e-03 -1.397991459816694260e-02
-9.722105413675308228e-02 -4.711913317441940308e-02 -1.933300495147705078e-02
-1.710381172597408295e-02 2.733065187931060791e-02 -1.689559035003185272e-02
2.831007912755012512e-02 2.053031884133815765e-02 -1.253106631338596344e-02
1.698715053498744965e-02 1.907257921993732452e-02 9.735355153679847717e-03
