-4.012772440910339355e-02 -5.358236655592918396e-02 -1.461542248725891113e-01
3.265351115260273218e-04 1.189106702804565430e-02 -5.832348763942718506e-02
-1.102030277252197266e-02 7.225961424410343170e-03 -9.813016653060913086e-02
8.587548136711120605e-02 7.583494484424591064e-02 1.399100106209516525e-02
9.189532697200775146e-02 1.347005963325500488e-01 -2.100901119410991669e-02
-2.374129928648471832e-02 5.911060050129890442e-02 6.448270753026008606e-03
-1.275059878826141357e-01 -9.929762780666351318e-02 -5.696967989206314087e-02
-9.077671170234680176e-02 -4.348244518041610718e-02 -8.601073175668716431e-02
-1.148922368884086609e-01 -6.194766610860824585e-02 -7.955449819564819336e-02
1.077149179764091969e-03 2.868858538568019867e-02 1.537018828094005585e-02
4.378087818622589111e-02 -8.137712255120277405e-03 -4.499144107103347778e-02
6.889967620372772217e-02 -1.957312785089015961e-02 -8.422988653182983398e-02
-6.841564178466796875e-02 -6.641748547554016113e-02 -2.169782854616641998e-02
-1.786699518561363220e-02 2.389887114986777306e-03 -1.892138831317424774e-02
1.501017902046442032e-02 -1.694959215819835663e-02 -2.883701771497726440e-02
4.848749190568923950e-02 3.313630446791648865e-02 7.122857868671417236e-02
-1.675361208617687225e-02 3.371851285919547081e-03 -4.769400134682655334e-02
-5.144317820668220520e-02 -1.255481094121932983e-01 -8.928748220205307007e-02
-8.406041562557220459e-02 -1.304522603750228882e-01 -1.165557727217674255e-01
4.514518752694129944e-02 1.254001110792160034e-01 -3.265760093927383423e-02
6.491120159626007080e-02 1.659585684537887573e-01 5.266942828893661499e-02
-1.220317836850881577e-02 -5.298077687621116638e-02 -1.095943227410316467e-01
2.044538855552673340e-01 1.933193951845169067e-01 4.435036331415176392e-02
1.476814001798629761e-01 2.124276310205459595e-01 -2.215720480307936668e-03
-3.064159490168094635e-02 -2.963841855525970459e-01 -3.387352526187896729e-01
1.799867749214172363e-01 4.823324829339981079e-02 -1.421478837728500366e-01
8.751640468835830688e-02 5.474924668669700623e-02 -1.269138604402542114e-02
3.166431328281760216e-03 -1.334279030561447144e-01 -3.629006445407867432e-02
-1.011623367667198181e-01 -2.261597895994782448e-03 4.370318725705146790e-02
-4.779177159070968628e-02 2.483769319951534271e-02 1.002013981342315674e-01
-3.627309575676918030e-02 -7.775389403104782104e-02 -1.895268261432647705e-02
4.940723255276679993e-02 -3.782607242465019226e-02 -1.693715900182723999e-02
-1.986441202461719513e-02 -5.913892015814781189e-02 -5.194123368710279465e-03
-3.299820050597190857e-02 -1.051871925592422485e-01 -2.400613203644752502e-02
-4.659671708941459656e-02 -2.637544274330139160e-02 -1.134035084396600723e-02
-5.288850516080856323e-02 3.675017273053526878e-03 4.185738041996955872e-02
1.023062393069267273e-01 -7.917518913745880127e-02 3.748798044398427010e-03
1.569307222962379456e-02 -2.207374274730682373e-01 7.784235291182994843e-03
3.990906849503517151e-02 -5.405343696475028992e-02 1.611235886812210083e-01
2.269702591001987457e-02 -9.202282875776290894e-02 3.371238335967063904e-02
2.649331279098987579e-02 -1.134132370352745056e-01 -1.238949690014123917e-02
2.722371928393840790e-02 4.430196061730384827e-02 9.898907691240310669e-02
1.101672947406768799e-01 -9.442114830017089844e-02 -4.312543943524360657e-02
3.373732417821884155e-02 -1.668657958507537842e-01 -9.591827541589736938e-02
1.612963527441024780e-01 1.149675156921148300e-02 9.044226258993148804e-02
9.656163305044174194e-02 7.476881891489028931e-02 4.683797061443328857e-02
2.694070152938365936e-02 -2.246680296957492828e-02 -3.111068159341812134e-02
-6.491683423519134521e-02 3.600684925913810730e-02 2.768691256642341614e-02
-4.302695766091346741e-02 -8.206774294376373291e-02 -5.645155534148216248e-02
-1.057025864720344543e-01 -8.611815422773361206e-02 -7.411755621433258057e-02
5.413962062448263168e-03 -7.255855482071638107e-03 4.127033427357673645e-02
-1.586834527552127838e-02 1.617279648780822754e-02 -2.503005601465702057e-02
-7.401052117347717285e-02 -4.841573536396026611e-02 -8.780444413423538208e-02
-2.841181866824626923e-02 3.665626794099807739e-02 -2.331143012270331383e-03
-3.159882724285125732e-01 7.638064026832580566e-02 -7.703840732574462891e-02
7.223431020975112915e-02 1.501576781272888184e+00 3.226926624774932861e-01
-1.463810801506042480e-01 3.078265786170959473e-01 -2.684542238712310791e-01
-2.804690301418304443e-01 2.563350796699523926e-01 -1.284483075141906738e-01
2.464832365512847900e-01 1.682665705680847168e+00 3.902016878128051758e-01
-1.422658562660217285e-01 4.300780594348907471e-01 -3.124382197856903076e-01
-6.271867156028747559e-01 -2.682044804096221924e-01 -3.368600904941558838e-01
-2.935308516025543213e-01 7.019322514533996582e-01 -4.251456633210182190e-02
-2.489119172096252441e-01 8.939737081527709961e-02 -3.323782682418823242e-01
-6.354089081287384033e-02 -4.813959449529647827e-02 -1.093010008335113525e-01
5.130856856703758240e-02 5.200711078941822052e-03 -2.720708027482032776e-02
9.794465452432632446e-02 -4.889306053519248962e-02 -1.077338084578514099e-01
-1.096887397579848766e-03 -4.005818814039230347e-02 3.120131231844425201e-02
4.751350358128547668e-02 4.392778128385543823e-02 2.136711729690432549e-03
-5.376835912466049194e-02 -1.278644502162933350e-01 -5.606462061405181885e-02
4.778016358613967896e-02 5.938814580440521240e-02 -4.357808735221624374e-03
6.249119341373443604e-02 3.135360404849052429e-02 -1.665915187913924456e-04
-6.227458268404006958e-02 -1.442321240901947021e-01 -1.274627596139907837e-01
-5.773719772696495056e-02 -7.305029034614562988e-02 -1.105310395359992981e-01
6.375589966773986816e-02 1.089056506752967834e-01 -1.441646832972764969e-02
-3.159965202212333679e-02 -3.232437744736671448e-02 -8.550855331122875214e-03
4.111593216657638550e-02 1.392985284328460693e-01 -1.419081985950469971e-01
2.782984375953674316e-01 3.306052684783935547e-01 -4.990103095769882202e-02
-6.594512611627578735e-02 6.510306894779205322e-02 -7.043182849884033203e-02
2.338734865188598633e-01 3.590410053730010986e-01 -9.650825709104537964e-02
3.534178733825683594e-01 5.876123309135437012e-01 -6.351130455732345581e-02
-8.052817732095718384e-02 1.155523117631673813e-02 -1.973173171281814575e-01
-4.221729934215545654e-02 -1.663752049207687378e-01 -4.236674308776855469e-02
-5.290367454290390015e-02 -4.997594282031059265e-02 4.086242616176605225e-02
1.249932870268821716e-01 9.811896830797195435e-02 1.470760405063629150e-01
-1.214617043733596802e-01 -1.660673618316650391e-01 -6.992596387863159180e-02
-6.901774555444717407e-02 -5.735056474804878235e-02 3.741588070988655090e-02
-1.902465708553791046e-02 8.983074873685836792e-02 7.308004796504974365e-02
-1.740810126066207886e-01 -1.686721742153167725e-01 -9.136787801980972290e-02
-1.348692327737808228e-01 -5.211951583623886108e-02 4.113635793328285217e-02
5.141660943627357483e-02 5.452101305127143860e-02 1.346813887357711792e-01
-8.100307732820510864e-02 -6.139163672924041748e-02 2.892858348786830902e-02
-1.208655014634132385e-01 2.147087268531322479e-02 8.983851224184036255e-02
5.833203904330730438e-03 -3.088455460965633392e-02 -2.181391231715679169e-03
-9.109885990619659424e-02 -3.586700186133384705e-02 -3.608316415920853615e-03
-2.616422809660434723e-02 -5.319559574127197266e-02 5.610361322760581970e-02
2.418777160346508026e-02 -4.535054787993431091e-02 -1.492219790816307068e-02
-3.385421261191368103e-02 5.239109322428703308e-02 6.010155379772186279e-02
1.443435996770858765e-02 6.341601908206939697e-02 4.476072266697883606e-02
5.284486338496208191e-03 2.221366576850414276e-02 -9.931544214487075806e-02
-1.532578319311141968e-01 -8.069776743650436401e-02 -6.872272491455078125e-02
-4.093217104673385620e-02 -3.526899218559265137e-02 -5.670067295432090759e-02
-2.851261757314205170e-02 4.032983630895614624e-02 5.977877974510192871e-02
4.190228879451751709e-02 5.058377236127853394e-02 2.699904143810272217e-02
1.423843204975128174e-01 4.195964336395263672e-02 -3.340679034590721130e-02
7.103245705366134644e-02 3.888835757970809937e-02 7.626866921782493591e-03
-1.626632213592529297e-01 -1.084653288125991821e-01 -1.160011216998100281e-01
6.715303659439086914e-02 -1.036543492227792740e-02 -6.828088313341140747e-02
6.442433595657348633e-02 6.243867427110671997e-02 2.082024514675140381e-02
4.003537893295288086e-01 4.767563641071319580e-01 -1.890460215508937836e-02
2.965657711029052734e-01 4.013709723949432373e-01 5.179454013705253601e-02
-5.496882274746894836e-02 1.435429453849792480e-01 -2.272295020520687103e-02
3.526087105274200439e-01 1.631196290254592896e-01 -5.582584440708160400e-02
-2.996146306395530701e-02 -1.970764249563217163e-01 -1.675982177257537842e-01
-1.551744639873504639e-01 -1.072103753685951233e-01 1.754563674330711365e-02
2.150304913520812988e-01 5.013855546712875366e-02 -1.482944637537002563e-01
-4.255712404847145081e-02 -1.805848777294158936e-01 -8.926121890544891357e-02
-9.465584903955459595e-02 -1.028380356729030609e-02 1.737928986549377441e-01
3.483576700091362000e-02 1.095729470252990723e-01 7.221452146768569946e-02
-6.199997663497924805e-02 2.629895806312561035e-01 2.501975893974304199e-01
-9.887323528528213501e-02 1.299627870321273804e-01 1.210076063871383667e-01
-2.574724890291690826e-02 -3.801925852894783020e-02 -4.821879789233207703e-02
-1.471473425626754761e-01 -7.724583894014358521e-02 8.565604686737060547e-02
-1.627374142408370972e-01 -7.271596044301986694e-02 7.554510980844497681e-02
2.116500586271286011e-02 -1.205462068319320679e-01 -6.931081414222717285e-02
-1.595425158739089966e-01 -9.694506227970123291e-02 4.110135883092880249e-02
-6.723703444004058838e-02 -9.168043732643127441e-03 1.714769899845123291e-01
6.062481552362442017e-03 -7.411976158618927002e-02 6.672482192516326904e-02
-4.285606369376182556e-02 -1.290449649095535278e-01 -5.096144508570432663e-03
1.141087710857391357e-01 4.544561728835105896e-02 8.313550055027008057e-02
8.113186806440353394e-02 -1.992929261177778244e-03 2.570186974480748177e-03
1.730905286967754364e-02 -9.178305417299270630e-02 -1.001632362604141235e-01
6.885998696088790894e-02 -2.664018794894218445e-02 -3.836014866828918457e-02
4.813594277948141098e-03 7.962313480675220490e-03 -1.897273026406764984e-02
1.267790608108043671e-02 -8.802545815706253052e-02 -7.490729540586471558e-02
1.396966725587844849e-01 -2.681099623441696167e-02 -5.991398543119430542e-02
-3.204056620597839355e-01 -2.346142977476119995e-01 -6.695255171507596970e-03
-2.276103347539901733e-01 9.024079144001007080e-02 2.702870666980743408e-01
-1.669425964355468750e-01 2.435228973627090454e-02 1.549558341503143311e-01
-1.286128628998994827e-02 1.213538367301225662e-02 -1.122088134288787842e-01
1.596851497888565063e-01 4.346363842487335205e-01 1.821266859769821167e-01
-4.163214564323425293e-02 6.544522941112518311e-02 -4.223934933543205261e-02
-2.503765933215618134e-02 1.714237481355667114e-01 -8.016108721494674683e-02
3.255079090595245361e-01 7.697293758392333984e-01 3.157558143138885498e-01
-8.573233336210250854e-02 1.588610708713531494e-01 -1.375622302293777466e-01
7.419759640470147133e-04 -3.378769010305404663e-02 -3.175481408834457397e-02
1.479780972003936768e-01 -3.172865882515907288e-02 -1.210387200117111206e-01
1.304627805948257446e-01 -2.423383295536041260e-02 -1.323914378881454468e-01
-1.333311498165130615e-01 -6.793468445539474487e-02 1.425024308264255524e-02
5.717324465513229370e-02 6.441774219274520874e-02 -6.370434910058975220e-02
1.014031022787094116e-01 5.521946400403976440e-02 -9.578926116228103638e-02
-6.361361593008041382e-02 8.102490007877349854e-02 -6.096062064170837402e-02
1.515982598066329956e-01 2.059500217437744141e-01 5.726051051169633865e-03
3.921895846724510193e-02 1.119560599327087402e-01 -6.001023575663566589e-02
1.468803081661462784e-02 -2.076695859432220459e-01 -5.880599468946456909e-02
-6.686720252037048340e-02 -1.806322336196899414e-01 -1.023361608386039734e-01
9.530181065201759338e-03 -8.846307545900344849e-02 2.775718271732330322e-02
1.066640317440032959e-01 5.965416505932807922e-02 1.151932030916213989e-01
1.140408739447593689e-01 8.550971746444702148e-02 7.431925833225250244e-02
8.065295964479446411e-02 5.871662870049476624e-02 6.037437543272972107e-02
-3.764237836003303528e-02 -6.502196937799453735e-02 3.263200446963310242e-02
4.299551714211702347e-03 1.372556574642658234e-02 3.107594326138496399e-02
1.313380338251590729e-02 9.535342454910278320e-03 5.844861641526222229e-02
-1.252311617136001587e-01 -9.785236418247222900e-02 -3.812479227781295776e-02
1.826333403587341309e-01 1.049256473779678345e-01 7.068001478910446167e-02
6.298512965440750122e-02 7.697580754756927490e-02 -1.517279166728258133e-02
-2.747219987213611603e-02 -8.317001909017562866e-02 -5.423814430832862854e-02
1.984463930130004883e-01 4.108273610472679138e-02 -7.096617668867111206e-02
8.498556166887283325e-02 1.557799149304628372e-02 -2.052461914718151093e-02
-8.474981039762496948e-02 -1.227102428674697876e-01 -9.813373535871505737e-02
1.327371001243591309e-01 -1.223633214831352234e-01 -2.532672286033630371e-01
-3.563791140913963318e-02 -1.167939305305480957e-01 -1.662240773439407349e-01
1.358581483364105225e-01 1.210056804120540619e-02 3.754733130335807800e-02
-1.225126814097166061e-02 -1.761321723461151123e-01 6.356327980756759644e-02
-7.444854825735092163e-02 -5.265676602721214294e-02 1.111493259668350220e-01
1.502426415681838989e-01 6.055301427841186523e-02 5.913931876420974731e-02
1.644953503273427486e-03 -7.450401782989501953e-02 1.114853098988533020e-01
-4.636646248400211334e-03 -3.295118361711502075e-02 1.812413781881332397e-01
1.986705660820007324e-01 -4.990569432266056538e-04 -5.739402770996093750e-02
8.453107625246047974e-02 -9.674117714166641235e-02 -2.754209563136100769e-02
3.328502550721168518e-02 -6.785842776298522949e-02 4.443627316504716873e-03
1.767346262931823730e-01 -5.417350679636001587e-02 -2.078633010387420654e-02
-1.211507171392440796e-01 -1.173593252897262573e-01 1.279293000698089600e-01
-1.011128053069114685e-01 1.438500545918941498e-02 2.204224914312362671e-01
1.121742129325866699e-01 -2.117913775146007538e-02 -1.453254558145999908e-02
-4.190029948949813843e-02 4.066619649529457092e-02 1.591321974992752075e-01
-6.790949404239654541e-02 1.050959751009941101e-01 2.180993258953094482e-01
1.404816508293151855e-01 4.915526136755943298e-02 -5.805873870849609375e-02
2.561016939580440521e-03 1.287654787302017212e-01 5.009343847632408142e-02
-4.504924640059471130e-03 9.706874936819076538e-02 2.449534833431243896e-02
-5.691275745630264282e-02 -4.689156636595726013e-02 7.624550722539424896e-03
-7.156810164451599121e-02 7.505545765161514282e-02 -3.197466954588890076e-02
-1.547328662127256393e-02 6.753041595220565796e-02 5.892303586006164551e-02
-1.390577405691146851e-01 -5.973657220602035522e-02 -9.234609454870223999e-02
-2.323268167674541473e-02 7.409335672855377197e-02 -3.780366852879524231e-02
-2.654793672263622284e-02 5.028652772307395935e-02 6.677412986755371094e-02
3.570715710520744324e-02 8.588348515331745148e-03 -1.848791688680648804e-01
1.692861169576644897e-01 3.357279896736145020e-01 -6.241833418607711792e-02
1.242716703563928604e-02 1.777600795030593872e-01 -5.908269062638282776e-02
1.527436822652816772e-01 4.693375900387763977e-02 -3.592117503285408020e-02
1.556692570447921753e-01 2.368516288697719574e-02 -7.735010981559753418e-02
1.698427484370768070e-03 -3.321006149053573608e-02 -6.339269876480102539e-02
4.191281273961067200e-02 -1.125592216849327087e-01 -8.593399822711944580e-02
1.154656186699867249e-01 -1.008021309971809387e-01 -6.655913591384887695e-02
-2.712602959945797920e-03 -5.170379206538200378e-02 -6.720542162656784058e-02
1.385310888290405273e-01 -1.414705365896224976e-01 -2.102419286966323853e-01
1.412589699029922485e-01 -1.390085518360137939e-01 -1.254009008407592773e-01
5.792573839426040649e-02 -6.746610999107360840e-02 -7.861782610416412354e-02
6.109024398028850555e-03 1.028734594583511353e-01 1.000079959630966187e-01
-1.521617025136947632e-01 -6.487610284239053726e-03 -9.319636039435863495e-03
-5.458623915910720825e-02 -1.269636396318674088e-02 -2.704910561442375183e-02
-3.077270649373531342e-02 -3.071648068726062775e-03 -4.967461898922920227e-02
-1.182016134262084961e-01 -4.441153258085250854e-02 -3.320585936307907104e-03
-8.516393601894378662e-02 -4.636950325220823288e-03 -3.268987685441970825e-02
1.192835159599781036e-02 5.601415410637855530e-02 2.815568353980779648e-03
-1.650965362787246704e-01 -6.179288029670715332e-02 1.151314354501664639e-03
-6.189768388867378235e-02 -6.405942142009735107e-02 -5.366462469100952148e-02
-1.756251156330108643e-01 2.533088028430938721e-01 7.749228924512863159e-02
-6.518156826496124268e-02 6.437783837318420410e-01 5.031709671020507812e-01
2.206006087362766266e-02 3.034596145153045654e-01 1.667162030935287476e-02
-1.089090183377265930e-01 8.856032043695449829e-03 4.894059151411056519e-02
-3.866496086120605469e-01 1.019354686141014099e-01 2.031578421592712402e-01
-1.609628945589065552e-01 -2.039119042456150055e-02 1.401515305042266846e-02
2.834708802402019501e-02 1.467685550451278687e-01 3.910889476537704468e-02
-2.941033244132995605e-01 1.134039759635925293e-01 8.783632516860961914e-02
-1.640411615371704102e-01 -3.697537630796432495e-02 -1.083384454250335693e-01
4.221767559647560120e-02 -4.544884338974952698e-02 -5.260545387864112854e-02
2.495599836111068726e-01 2.593063116073608398e-01 1.279944926500320435e-02
1.813069917261600494e-02 -7.236618548631668091e-03 -7.382348179817199707e-02
3.542313352227210999e-02 1.244924031198024750e-02 -2.356131002306938171e-02
1.192576438188552856e-01 1.821788400411605835e-01 3.016196005046367645e-02
-7.340608537197113037e-02 -5.160502344369888306e-02 -1.124243736267089844e-01
-1.302738934755325317e-01 -7.997110486030578613e-02 5.501719564199447632e-02
-1.314073204994201660e-01 1.229734122753143311e-01 2.666356861591339111e-01
-2.031002342700958252e-01 -1.405705697834491730e-03 7.427611202001571655e-02
-1.978206187486648560e-01 1.982404105365276337e-02 -6.551265716552734375e-02
8.096103370189666748e-02 2.573405504226684570e-01 4.904988408088684082e-02
1.122262794524431229e-02 1.404857784509658813e-01 8.076347410678863525e-03
-1.303792893886566162e-01 7.700693607330322266e-02 -6.835313141345977783e-02
3.480402007699012756e-02 1.210394948720932007e-01 -9.852578490972518921e-02
-2.711529098451137543e-02 -6.985642015933990479e-02 -1.750061213970184326e-01
-1.562960892915725708e-01 7.396879792213439941e-02 -7.713824976235628128e-03
-1.933583698701113462e-04 3.038242459297180176e-01 2.486074902117252350e-02
-6.718891113996505737e-02 5.926332250237464905e-02 -1.432904005050659180e-01
9.169479459524154663e-02 3.498100936412811279e-01 -1.605496108531951904e-01
1.822705119848251343e-01 6.654558181762695312e-01 6.846650689840316772e-02
-1.865937858819961548e-01 1.769981682300567627e-01 -2.304353006184101105e-02
-1.685741124674677849e-03 2.134937979280948639e-02 -1.945845484733581543e-01
-6.000049039721488953e-02 2.497873902320861816e-01 -1.462707668542861938e-02
-1.540036946535110474e-01 1.053621992468833923e-01 1.871182471513748169e-01
1.774301528930664062e-01 1.989544630050659180e-01 -1.841166168451309204e-01
-8.702907711267471313e-02 2.089186459779739380e-01 -7.648230344057083130e-02
-2.763616740703582764e-01 4.804743826389312744e-02 -4.066283255815505981e-02
2.716677784919738770e-01 2.041598260402679443e-01 2.503023855388164520e-02
4.560264199972152710e-02 -1.453959196805953979e-01 -1.676183193922042847e-01
4.529571533203125000e-02 -8.891863375902175903e-02 -1.873382925987243652e-02
1.136956512928009033e-01 2.865842878818511963e-01 1.982765048742294312e-01
9.866239130496978760e-02 1.082864403724670410e-01 6.680642813444137573e-02
4.331389814615249634e-02 2.495856769382953644e-02 1.486314833164215088e-02
4.653532430529594421e-02 6.046112626791000366e-02 -6.338085979223251343e-02
-6.913331896066665649e-02 -1.874388009309768677e-01 -2.046787887811660767e-01
-2.760887332260608673e-02 -1.571177244186401367e-01 -7.607919722795486450e-02
-4.544538911432027817e-03 1.267708837985992432e-02 -3.296383842825889587e-02
-9.814520925283432007e-02 -5.581102333962917328e-03 1.429197937250137329e-02
-7.700335979461669922e-02 3.900960832834243774e-02 2.509446255862712860e-02
-1.388681083917617798e-01 -1.087918132543563843e-02 -4.227066040039062500e-02
-1.720228642225265503e-01 -7.199191302061080933e-02 1.952321268618106842e-02
-1.350852400064468384e-01 -1.206034515053033829e-02 4.502983763813972473e-02
-2.353510260581970215e-02 2.906434796750545502e-02 2.847635559737682343e-02
-9.759514033794403076e-02 -5.852227285504341125e-02 4.560958966612815857e-02
-9.672903269529342651e-02 2.985994704067707062e-02 2.340936847031116486e-02
-9.392342530190944672e-03 1.783713139593601227e-02 5.991424247622489929e-02
2.286867611110210419e-02 -5.572937428951263428e-02 7.378246169537305832e-03
4.043085500597953796e-02 3.154319152235984802e-02 4.444554820656776428e-02
9.484963864088058472e-02 9.298612922430038452e-02 3.557501733303070068e-02
4.946664348244667053e-02 -1.325591001659631729e-02 4.407375305891036987e-02
-1.961053349077701569e-02 6.252513825893402100e-02 4.506159201264381409e-02
-1.550605297088623047e-01 -2.511628866195678711e-01 -3.273781761527061462e-02
-2.034911960363388062e-01 -3.690476715564727783e-01 -1.039265319705009460e-01
-1.202608793973922729e-01 -1.717804223299026489e-01 -8.054067194461822510e-02
-1.329997030552476645e-04 8.969859778881072998e-02 9.938612580299377441e-02
-7.077990472316741943e-02 7.443184405565261841e-02 1.002033427357673645e-01
-1.929023303091526031e-02 -2.916220389306545258e-02 -9.101907722651958466e-03
-3.538361983373761177e-03 3.388312086462974548e-02 5.064314231276512146e-02
-1.225212737917900085e-01 3.842773288488388062e-02 1.009036824107170105e-01
-5.963773652911186218e-02 -3.777793794870376587e-02 -5.048538744449615479e-02
2.791996300220489502e-02 1.543258279561996460e-01 1.858803257346153259e-02
-1.440299004316329956e-01 -1.119477674365043640e-02 -2.686657570302486420e-02
-2.341149449348449707e-01 -1.862866282463073730e-01 -1.464133262634277344e-01
-5.036788061261177063e-02 7.412199676036834717e-02 1.716913282871246338e-02
2.939689904451370239e-02 7.110662758350372314e-02 -9.632124565541744232e-03
-2.596953324973583221e-02 4.567920416593551636e-02 -5.516143515706062317e-02
-1.036249548196792603e-01 -6.058336049318313599e-02 -1.137816086411476135e-01
-4.708351567387580872e-02 -1.404054164886474609e-01 -1.147962436079978943e-01
-5.582127487286925316e-04 -1.874095946550369263e-02 -8.670922368764877319e-02
-7.262384891510009766e-02 1.937462575733661652e-02 6.393836811184883118e-03
-3.680216521024703979e-02 4.715760052204132080e-02 5.514682084321975708e-02
3.125345334410667419e-03 8.214762806892395020e-02 4.613008722662925720e-02
8.110508322715759277e-02 8.375017344951629639e-02 1.897538197226822376e-03
-7.791488617658615112e-02 -9.242937713861465454e-02 -4.050152376294136047e-02
-5.414896085858345032e-02 -1.433534324169158936e-01 -3.060542792081832886e-02
-4.913609847426414490e-02 2.497818134725093842e-02 2.637113817036151886e-02
-9.598074108362197876e-02 4.208163917064666748e-02 7.283110916614532471e-02
-4.274438694119453430e-02 -1.312751416116952896e-02 8.664195984601974487e-02
3.869169205427169800e-02 1.497121304273605347e-01 5.460283160209655762e-02
1.394197493791580200e-01 2.359631210565567017e-01 6.501742452383041382e-02
6.060025095939636230e-02 9.927541948854923248e-03 -8.948165178298950195e-02
3.022979199886322021e-01 3.263027667999267578e-01 2.755678296089172363e-01
3.016038797795772552e-02 -7.127472013235092163e-02 1.062508821487426758e-01
9.098626673221588135e-02 2.049923874437808990e-02 1.830424368381500244e-01
3.064659237861633301e-01 2.398932725191116333e-01 2.513971030712127686e-01
5.158827826380729675e-02 -1.025684177875518799e-01 4.674395546317100525e-02
1.359877288341522217e-01 3.493707999587059021e-02 8.101382106542587280e-02
2.872038185596466064e-01 1.321496218442916870e-01 6.552725285291671753e-02
-7.749871164560317993e-02 -4.804641306400299072e-01 -2.436385601758956909e-01
-2.982779592275619507e-02 -2.924053072929382324e-01 -3.601372241973876953e-02
-8.727961033582687378e-02 -3.630487620830535889e-02 -6.785529851913452148e-02
-1.882669925689697266e-01 -1.113911941647529602e-01 -7.893833518028259277e-02
-6.361302733421325684e-02 -4.109738394618034363e-02 -6.280722469091415405e-02
-1.049468740820884705e-01 -5.723187699913978577e-02 -6.440994143486022949e-02
-8.318009227514266968e-02 -1.293505877256393433e-01 -1.022341921925544739e-01
-8.859206736087799072e-02 -6.204149127006530762e-02 3.367787599563598633e-02
-5.384402722120285034e-02 -4.731801897287368774e-02 -3.853551298379898071e-02
-7.622127234935760498e-02 -5.962833762168884277e-02 7.180589251220226288e-03
-7.179022580385208130e-02 -7.675359398126602173e-02 -3.510565683245658875e-02
9.135022014379501343e-02 3.763707727193832397e-02 1.302588731050491333e-01
-2.049860507249832153e-01 -2.216001898050308228e-01 8.757288567721843719e-03
-8.672048896551132202e-02 -9.114894270896911621e-02 3.951318934559822083e-02
-3.821088001132011414e-02 1.077398732304573059e-01 1.300849318504333496e-01
-4.058720916509628296e-02 6.238419935107231140e-02 2.476981431245803833e-01
3.187832608819007874e-02 1.382339000701904297e-01 1.989712566137313843e-01
1.231474569067358971e-03 5.684646964073181152e-02 1.392708569765090942e-01
-2.364729940891265869e-01 -1.338128596544265747e-01 6.362086534500122070e-02
-9.630940109491348267e-02 -5.329023674130439758e-02 8.044958859682083130e-02
-2.645292133092880249e-02 -3.334559500217437744e-02 4.481948539614677429e-02
-6.078996881842613220e-02 -1.054065749049186707e-01 4.926079884171485901e-02
8.402886986732482910e-02 -3.126624040305614471e-03 5.717250332236289978e-02
-3.261462226510047913e-02 -7.149724755436182022e-03 3.789771348237991333e-02
-1.126189157366752625e-01 -1.760409623384475708e-01 2.257572486996650696e-02
-6.958004087209701538e-02 -8.413626253604888916e-02 -2.105916105210781097e-02
-9.310524910688400269e-02 -8.879963308572769165e-02 4.596859589219093323e-02
-2.714944072067737579e-02 -1.579847782850265503e-01 1.208158023655414581e-02
4.413503035902976990e-02 -1.036072820425033569e-01 3.577914088964462280e-02
-2.137502133846282959e-01 -1.466575115919113159e-01 -6.905332952737808228e-02
-7.238553464412689209e-02 4.757653176784515381e-02 6.333196908235549927e-02
1.028192713856697083e-01 2.565322220325469971e-01 1.639781296253204346e-01
-1.789199262857437134e-01 -9.717699885368347168e-02 -3.860587626695632935e-02
-7.409254461526870728e-02 -1.381119713187217712e-02 -6.861565262079238892e-02
-3.438012674450874329e-02 5.381118878722190857e-02 -2.857443317770957947e-02
-1.393146533519029617e-02 1.145587041974067688e-01 -4.277718253433704376e-03
9.036836773157119751e-02 2.177090346813201904e-01 3.049581684172153473e-02
4.432605952024459839e-02 1.057087108492851257e-01 -5.572441592812538147e-02
2.294213138520717621e-02 1.099734194576740265e-02 -6.052399799227714539e-02
5.225303396582603455e-02 1.010926961898803711e-01 -1.549104810692369938e-03
-1.817587297409772873e-03 2.826778590679168701e-02 -7.986070215702056885e-02
-3.725347295403480530e-02 -9.201201051473617554e-02 -5.302081629633903503e-02
2.260791324079036713e-02 6.120796501636505127e-02 -4.437265172600746155e-02
1.236111577600240707e-02 5.759358033537864685e-02 2.195770666003227234e-02
-1.572100371122360229e-01 -7.470429688692092896e-02 -4.473974555730819702e-02
-3.957097977399826050e-02 1.426985301077365875e-02 4.822555929422378540e-02
2.534159831702709198e-02 5.386470630764961243e-02 1.789406500756740570e-02
1.138633787631988525e-01 7.738185673952102661e-02 6.438910495489835739e-03
3.710150718688964844e-01 2.494638711214065552e-01 3.415739536285400391e-02
2.255970686674118042e-01 1.709146052598953247e-01 -5.121237039566040039e-02
-9.427684545516967773e-02 -2.759936451911926270e-01 -4.826819524168968201e-02
2.677448466420173645e-02 -1.101210713386535645e-01 -1.161157190799713135e-01
1.592220664024353027e-01 9.154568612575531006e-02 2.659809961915016174e-02
-7.720619440078735352e-02 -2.545301318168640137e-01 -5.877385288476943970e-02
3.562046959996223450e-02 -1.136773899197578430e-01 -1.362133771181106567e-01
1.711758375167846680e-01 -9.486421197652816772e-02 -6.285770982503890991e-02
-7.533390074968338013e-02 -9.168816357851028442e-02 -9.450663626194000244e-02
-2.092331647872924805e-02 -5.572715774178504944e-03 1.274497248232364655e-02
2.179108560085296631e-02 4.045784473419189453e-02 7.050565630197525024e-02
-4.366736859083175659e-02 4.676284641027450562e-02 3.230387344956398010e-02
5.787320551462471485e-04 1.024082899093627930e-01 7.437697052955627441e-02
2.051992528140544891e-02 8.984821289777755737e-02 7.739344984292984009e-02
-1.607499122619628906e-01 -1.394197940826416016e-01 -2.747084572911262512e-02
-2.232072204351425171e-01 -6.158692017197608948e-02 -2.296155504882335663e-02
-8.617234975099563599e-02 -1.914826966822147369e-02 3.953969106078147888e-02
-9.448991715908050537e-02 -1.045371294021606445e-01 3.303408622741699219e-02
-1.074563860893249512e-01 -9.236172586679458618e-02 1.581593416631221771e-02
-1.166013851761817932e-01 -9.716253727674484253e-02 8.067084848880767822e-02
-1.691731438040733337e-02 6.082933396100997925e-02 4.118450358510017395e-02
8.881094306707382202e-02 1.166512891650199890e-01 1.075014024972915649e-01
9.897215291857719421e-03 3.321575373411178589e-02 -1.454494427889585495e-02
-1.689320355653762817e-01 -1.736834943294525146e-01 -7.149257510900497437e-02
-1.079051792621612549e-01 -1.125500276684761047e-01 -1.746444217860698700e-02
-6.399067491292953491e-02 -7.720673829317092896e-02 2.676326967775821686e-02
-1.757729426026344299e-02 -1.876245439052581787e-01 -2.058367244899272919e-02
-1.417410280555486679e-02 -1.677414625883102417e-01 3.816078603267669678e-02
6.348012015223503113e-03 -7.982818037271499634e-02 5.272442847490310669e-02
1.132318843156099319e-02 -9.331974387168884277e-02 2.660347521305084229e-02
8.854431658983230591e-02 -1.091158948838710785e-02 1.251474171876907349e-01
1.798562891781330109e-02 -1.218828372657299042e-02 -4.422402381896972656e-02
-1.668298267759382725e-03 -5.382626876235008240e-02 -1.438458170741796494e-02
1.028969958424568176e-01 -4.139372706413269043e-02 1.644974797964096069e-01
7.581283152103424072e-02 -1.779417507350444794e-02 5.709633976221084595e-02
-1.070309653878211975e-01 1.180186793208122253e-01 -1.438122391700744629e-01
7.816747575998306274e-02 2.801619172096252441e-01 1.124026402831077576e-01
-3.333680704236030579e-02 9.570374339818954468e-02 1.246217521838843822e-03
-9.113004803657531738e-02 6.761457771062850952e-02 -4.238525405526161194e-02
-7.055901736021041870e-02 2.187748402357101440e-01 1.682475395500659943e-02
-1.877462863922119141e-01 -2.549813501536846161e-02 -8.446785807609558105e-02
7.204522192478179932e-02 1.936662197113037109e-01 -7.533159106969833374e-02
4.076119884848594666e-02 1.677466630935668945e-01 2.216804958879947662e-02
-1.284375637769699097e-01 -9.676904231309890747e-02 -6.178663671016693115e-02
-1.582821309566497803e-01 -1.515174508094787598e-01 2.364661311730742455e-03
-1.013646125793457031e-01 -5.551199987530708313e-02 1.160175502300262451e-01
-3.972088173031806946e-02 6.406579166650772095e-02 5.852437764406204224e-02
5.002513527870178223e-02 -1.850453391671180725e-02 4.209117218852043152e-02
8.060110360383987427e-02 6.956277042627334595e-02 1.704482547938823700e-02
6.934886332601308823e-03 -1.964600011706352234e-02 -4.794210568070411682e-02
1.051426120102405548e-02 -9.525055438280105591e-02 -3.562264516949653625e-02
1.026790738105773926e-01 1.887859217822551727e-02 7.128074765205383301e-02
4.810379818081855774e-02 -5.869007110595703125e-02 3.686768468469381332e-03
1.873508989810943604e-01 2.155139446258544922e-01 1.238541305065155029e-01
-5.802403390407562256e-02 1.688623726367950439e-01 2.079977244138717651e-01
-1.080973893404006958e-01 2.127991616725921631e-02 1.325750052928924561e-01
1.580740064382553101e-01 1.399621218442916870e-01 8.676867932081222534e-02
-1.529452800750732422e-01 -1.167810186743736267e-01 1.042188610881567001e-02
-2.329676449298858643e-01 -1.361671239137649536e-01 -6.233244016766548157e-02
1.073681712150573730e-01 1.698661595582962036e-01 1.592070311307907104e-01
-2.566714584827423096e-01 -9.604103118181228638e-02 1.712877154350280762e-01
-3.128640651702880859e-01 -1.624111235141754150e-01 6.404021382331848145e-02
-4.644473269581794739e-02 -1.685966998338699341e-01 2.521334774792194366e-02
1.901017874479293823e-01 -1.021934207528829575e-02 2.837557345628738403e-02
2.561728358268737793e-01 1.059727394022047520e-03 5.852024070918560028e-03
2.641214430332183838e-02 -1.436967849731445312e-01 6.757736951112747192e-02
1.939242929220199585e-01 3.664340823888778687e-02 1.173264533281326294e-02
2.221634536981582642e-01 2.774673141539096832e-02 2.226514741778373718e-02
7.518546283245086670e-02 -3.834166005253791809e-02 -1.462368573993444443e-02
4.071913063526153564e-01 1.301733255386352539e-01 -1.246518269181251526e-01
2.194598615169525146e-01 -6.432379782199859619e-02 -2.068437635898590088e-01
1.104056239128112793e-01 3.264203295111656189e-02 4.039672762155532837e-02
-3.886168077588081360e-02 -3.510113060474395752e-02 -7.077389862388372421e-03
-1.287739872932434082e-01 -9.191979467868804932e-02 -3.887221589684486389e-02
-1.476402580738067627e-02 5.095900222659111023e-02 8.091554790735244751e-02
-1.152056455612182617e-01 1.549560856074094772e-02 1.487260609865188599e-01
-7.682009041309356689e-02 -1.892503723502159119e-02 1.008681282401084900e-01
-1.152136921882629395e-01 -2.738706395030021667e-02 4.684981331229209900e-02
-1.303568333387374878e-01 8.176385611295700073e-02 2.269352078437805176e-01
-8.732061833143234253e-02 3.134200721979141235e-02 1.414867341518402100e-01
-1.380736473947763443e-02 -1.056473031640052795e-01 -6.532106548547744751e-02
-3.743967786431312561e-02 -1.585814654827117920e-01 -1.268353126943111420e-02
7.347518205642700195e-02 1.086084321141242981e-01 5.364346504211425781e-02
-2.054658718407154083e-02 -3.323538601398468018e-02 6.517019867897033691e-02
7.681138068437576294e-02 1.948283798992633820e-02 5.137738212943077087e-02
6.107627972960472107e-02 3.129981830716133118e-02 -4.731018561869859695e-03
-1.940182782709598541e-02 -9.055998921394348145e-02 -2.356299571692943573e-02
-1.021499000489711761e-02 -1.325468420982360840e-01 -7.662639487534761429e-03
2.654490992426872253e-02 -8.877897635102272034e-03 6.263345479965209961e-03
6.308921426534652710e-02 -2.553109545260667801e-03 -2.013049460947513580e-02
-4.309977218508720398e-02 -1.308165341615676880e-01 -6.839308142662048340e-02
9.695989079773426056e-03 -4.661948606371879578e-02 -4.199866577982902527e-02
6.762220710515975952e-02 1.136919483542442322e-02 2.296729385852813721e-02
-3.481123596429824829e-02 -1.432403475046157837e-01 -1.343442797660827637e-01
-2.604711987078189850e-02 -1.258496046066284180e-01 -2.896009758114814758e-02
6.732098013162612915e-02 5.593620240688323975e-02 6.075568124651908875e-02
8.826874196529388428e-02 9.168685413897037506e-03 -9.613817557692527771e-03
2.998027764260768890e-02 4.340311978012323380e-03 3.376526013016700745e-02
1.187742203474044800e-01 2.797676026821136475e-01 1.921226978302001953e-01
-2.279841005802154541e-01 -1.743193715810775757e-01 -3.549837321043014526e-02
-1.201207861304283142e-01 -1.472753137350082397e-01 -1.563008688390254974e-02
1.837368458509445190e-01 3.722728490829467773e-01 1.774844080209732056e-01
-8.241935819387435913e-02 1.538149416446685791e-01 5.046889558434486389e-02
-9.268901497125625610e-02 -6.421008583856746554e-05 -6.031205877661705017e-02
7.152099162340164185e-02 2.632992267608642578e-01 -1.283604651689529419e-03
-1.320302039384841919e-01 6.980421394109725952e-02 -8.878485299646854401e-03
-3.497383743524551392e-02 4.595735669136047363e-02 -2.117365039885044098e-02
9.769039601087570190e-02 5.838541686534881592e-02 -6.133158504962921143e-02
-5.269894748926162720e-02 2.513894345611333847e-03 -4.123461619019508362e-02
1.047800760716199875e-02 4.339709132909774780e-02 -4.372906684875488281e-02
1.307387501001358032e-01 1.999612152576446533e-01 1.030586566776037216e-02
5.191629379987716675e-02 3.291494399309158325e-02 -7.657778263092041016e-02
-2.789294812828302383e-03 2.463158452883362770e-04 -8.730208873748779297e-02
1.062961854040622711e-02 -2.316836640238761902e-02 -1.122422814369201660e-01
-5.944100022315979004e-02 -1.626834869384765625e-01 -2.575588822364807129e-01
-7.445288449525833130e-02 -1.629704087972640991e-01 -1.528610438108444214e-01
-6.328536663204431534e-03 -1.843573711812496185e-02 -3.562928363680839539e-02
1.382975727319717407e-01 8.986660093069076538e-02 3.380912542343139648e-02
-3.518197312951087952e-02 -6.709927320480346680e-02 -3.343017399311065674e-02
-6.629501935094594955e-03 -1.119262650609016418e-01 -4.565523564815521240e-02
4.504476487636566162e-02 -6.743355095386505127e-02 -5.853589158505201340e-03
-1.541640236973762512e-02 -1.018898189067840576e-01 3.600475937128067017e-02
-3.571246564388275146e-02 -2.891542948782444000e-02 -1.536681875586509705e-02
1.948033645749092102e-02 -1.991721242666244507e-02 -6.929532159119844437e-03
-1.588790863752365112e-01 -1.708360612392425537e-01 -2.711207792162895203e-02
-7.624553889036178589e-02 -3.017949312925338745e-02 1.829523742198944092e-01
2.511547803878784180e-01 5.095703005790710449e-01 4.214423894882202148e-01
3.495244681835174561e-02 4.208309575915336609e-02 -1.953671313822269440e-02
-2.629364728927612305e-01 -3.569037914276123047e-01 -3.207260742783546448e-02
-6.088811159133911133e-02 -3.024076111614704132e-02 7.925699651241302490e-02
-1.270028948783874512e-02 -4.106123745441436768e-02 4.372532293200492859e-02
-3.455962240695953369e-01 -2.981079220771789551e-01 -1.548740779981017113e-03
2.272306084632873535e-01 4.176232218742370605e-01 3.095817267894744873e-01
2.116361856460571289e-01 1.797374039888381958e-01 1.633125543594360352e-02
-4.538914933800697327e-02 -9.346441365778446198e-03 3.042955882847309113e-02
-2.844980172812938690e-02 -8.963399380445480347e-02 9.219149127602577209e-03
-5.744958668947219849e-02 -5.989167839288711548e-02 3.726803883910179138e-02
8.967430330812931061e-03 1.024417579174041748e-03 -3.431348130106925964e-02
1.089509483426809311e-02 -9.256255812942981720e-03 1.160973459482192993e-01
-5.126496776938438416e-02 7.979813963174819946e-03 2.285294979810714722e-02
-7.560556987300515175e-04 -6.834614276885986328e-02 -1.113165393471717834e-01
-1.122909504920244217e-02 -2.005365043878555298e-01 -1.475719660520553589e-01
-3.193167969584465027e-02 -1.176756694912910461e-01 -4.535288363695144653e-02
1.108444556593894958e-01 -8.376610279083251953e-02 -4.257468972355127335e-03
-3.123356774449348450e-02 -8.619672805070877075e-02 1.990510523319244385e-02
-7.240297645330429077e-02 -4.753221571445465088e-02 5.661507695913314819e-02
1.270865499973297119e-01 8.021665364503860474e-02 -1.009941473603248596e-02
1.310691088438034058e-01 7.487451285123825073e-02 5.550062656402587891e-02
-1.599604450166225433e-02 -8.412830648012459278e-04 4.996546357870101929e-02
3.285908605903387070e-03 -1.487368345260620117e-01 -1.636225879192352295e-01
6.522989273071289062e-02 -4.300718754529953003e-02 -3.672542795538902283e-02
3.240194171667098999e-03 2.568212337791919708e-02 7.750753313302993774e-02
-1.140242069959640503e-01 -3.416117280721664429e-02 2.012555859982967377e-02
-1.110100373625755310e-02 1.776031702756881714e-01 1.593124568462371826e-01
1.276382207870483398e-01 2.315874993801116943e-01 1.236364021897315979e-01
-1.351079791784286499e-01 -7.596904039382934570e-02 -9.007842838764190674e-02
-1.116395592689514160e-01 2.794532850384712219e-02 -2.174826711416244507e-02
3.072992153465747833e-02 1.005128920078277588e-01 5.798678379505872726e-03
-2.206006795167922974e-01 -2.355700880289077759e-01 -9.018240123987197876e-02
-2.339568138122558594e-01 -2.890520095825195312e-01 -1.119199320673942566e-01
-7.133345305919647217e-02 -1.603819057345390320e-02 -8.392378687858581543e-02
8.516566455364227295e-02 6.597465276718139648e-02 1.037250906229019165e-01
-6.850691977888345718e-03 -6.985070556402206421e-02 -1.013967487961053848e-02
-4.599302541464567184e-03 -4.707786501967348158e-05 4.070173576474189758e-02
6.405700743198394775e-02 -1.217425335198640823e-02 -4.057069122791290283e-02
5.421204864978790283e-02 -1.232207641005516052e-01 -4.990139603614807129e-02
1.599834710359573364e-01 2.474038861691951752e-02 2.936460450291633606e-02
2.705129981040954590e-02 -1.896302998065948486e-01 -5.093009397387504578e-02
-1.895800046622753143e-02 -1.614525616168975830e-01 -1.545473188161849976e-01
-1.839773356914520264e-02 1.878077350556850433e-02 -1.112178619951009750e-02
1.277531534433364868e-01 5.640923976898193359e-02 -3.955446928739547729e-02
2.762009501457214355e-01 1.187843531370162964e-01 -9.459981322288513184e-02
1.268838346004486084e-01 7.287878543138504028e-02 -2.828303351998329163e-02
1.224522851407527924e-02 -7.103814929723739624e-02 -1.616116762161254883e-01
2.692807614803314209e-01 5.796334892511367798e-02 -1.346312761306762695e-01
1.283628940582275391e-01 3.626726567745208740e-02 -1.791246607899665833e-02
2.265697419643402100e-01 1.232269927859306335e-01 -1.650718450546264648e-01
5.209051370620727539e-01 2.584288716316223145e-01 -1.929882764816284180e-01
1.844489127397537231e-01 3.545818477869033813e-02 -2.648350596427917480e-01
1.724294275045394897e-01 2.663878723978996277e-02 -5.065814912086352706e-05
1.688138842582702637e-01 -7.588238269090652466e-02 1.098371483385562897e-02
7.800120860338211060e-02 -7.647145539522171021e-03 5.167709663510322571e-02
1.403168588876724243e-01 -7.541127502918243408e-02 -5.720997601747512817e-02
1.394468694925308228e-01 -1.044473201036453247e-01 -4.711380973458290100e-02
9.540324658155441284e-02 -6.901754438877105713e-02 7.803063094615936279e-02
1.965954154729843140e-01 -1.424495968967676163e-02 -5.385282635688781738e-02
3.702305629849433899e-02 -1.744565963745117188e-01 -1.156231760978698730e-01
-6.809692084789276123e-02 -1.404022276401519775e-01 4.107457399368286133e-02
-3.504016995429992676e-02 -8.898100256919860840e-02 4.032365605235099792e-02
-3.777470067143440247e-02 8.550239726901054382e-03 1.157480552792549133e-01
6.443594396114349365e-02 9.674689918756484985e-02 8.868966251611709595e-02
-1.236943826079368591e-01 -7.117696106433868408e-02 -1.605520839802920818e-03
-1.600545197725296021e-01 -1.286673396825790405e-01 -2.368760295212268829e-03
-3.719763457775115967e-02 8.670072071254253387e-03 1.204368025064468384e-01
1.676768064498901367e-02 1.616146764717996120e-03 7.697470486164093018e-02
-7.841128110885620117e-02 -4.502823576331138611e-02 -5.306816194206476212e-03
-2.719483710825443268e-02 -1.244984939694404602e-01 -5.145342648029327393e-02
-9.882277250289916992e-02 -2.324242889881134033e-02 -5.620511993765830994e-02
-9.043741971254348755e-02 -4.706640914082527161e-02 -5.320394039154052734e-02
-2.776097133755683899e-02 -1.690746843814849854e-02 4.174800589680671692e-03
-3.085058182477951050e-02 -1.648209057748317719e-02 -3.624593466520309448e-02
-5.067978426814079285e-02 2.467269776389002800e-03 -1.881812885403633118e-02
-2.207815833389759064e-02 1.982828602194786072e-02 -2.652058610692620277e-03
-1.272001564502716064e-01 -1.217043586075305939e-02 7.120142225176095963e-03
-1.073644533753395081e-01 2.751396596431732178e-02 1.253310870379209518e-02
-3.146815672516822815e-02 -6.402778625488281250e-02 2.743303403258323669e-02
1.669524423778057098e-02 -6.964534521102905273e-02 4.602661356329917908e-02
1.672929711639881134e-02 3.051150776445865631e-02 1.112157553434371948e-01
3.323295339941978455e-02 6.192395463585853577e-02 1.202739849686622620e-01
8.149955421686172485e-02 -8.786324411630630493e-02 -2.218513004481792450e-02
-1.026983838528394699e-02 -1.069568619132041931e-01 -1.318513508886098862e-02
4.392261803150177002e-02 6.360115855932235718e-02 4.111036192625761032e-03
-6.604471802711486816e-02 -1.609030663967132568e-01 -4.945606365799903870e-02
-9.533861279487609863e-02 -1.538651734590530396e-01 -3.158809617161750793e-03
2.122134529054164886e-02 2.399302460253238678e-02 1.163568273186683655e-01
