3.034054636955261230e-01 -8.234187215566635132e-02 5.218043923377990723e-02
-4.985318705439567566e-02 -1.050123795866966248e-01 1.067557632923126221e-01
-3.808813542127609253e-02 8.543038368225097656e-02 -1.454676836729049683e-01
-9.406280517578125000e-02 -1.753834784030914307e-01 1.644524000585079193e-02
-1.697954237461090088e-01 1.818537339568138123e-02 1.198911294341087341e-01
3.397734165191650391e-01 3.552816109731793404e-03 -8.395425230264663696e-02
1.557157784700393677e-01 -2.816050499677658081e-02 -1.352875772863626480e-02
-5.569168180227279663e-02 -1.131328269839286804e-01 8.508795499801635742e-02
2.568363025784492493e-02 5.429884418845176697e-02 3.052761033177375793e-02
8.981733769178390503e-02 -2.266531735658645630e-01 -1.454178392887115479e-01
-1.102274060249328613e-01 2.405854612588882446e-01 -1.182793229818344116e-01
2.516013085842132568e-01 5.479587614536285400e-02 -9.480436146259307861e-02
1.174498498439788818e-01 8.301522582769393921e-03 1.143908128142356873e-01
3.444665297865867615e-02 -1.700576841831207275e-01 -8.486147224903106689e-02
1.321754008531570435e-01 -9.207501262426376343e-02 4.258652776479721069e-02
-1.507028788328170776e-01 -2.036584019660949707e-01 1.230842992663383484e-01
7.950090803205966949e-03 -1.255740225315093994e-01 -5.672673508524894714e-02
-3.092483244836330414e-02 1.873962581157684326e-01 1.780392974615097046e-01
1.356852650642395020e-01 1.806323975324630737e-01 1.323991864919662476e-01
-2.256674617528915405e-01 1.612812727689743042e-01 9.625121206045150757e-02
-2.211196124553680420e-01 1.122203990817070007e-01 -2.593707665801048279e-02
1.630808115005493164e-01 1.500077452510595322e-02 -1.632815301418304443e-01
4.739974439144134521e-02 -6.311060488224029541e-02 -9.470154345035552979e-02
-5.957192182540893555e-02 2.198750823736190796e-01 -4.091215785592794418e-03
-9.062048047780990601e-02 -1.369707286357879639e-01 2.523268461227416992e-01
-9.514881670475006104e-02 -1.494833081960678101e-01 -1.899271160364151001e-01
2.063549607992172241e-01 1.342538148164749146e-01 2.181875556707382202e-01
-1.088546682149171829e-02 7.200998067855834961e-02 2.280239462852478027e-01
-8.880381286144256592e-02 -7.740573026239871979e-03 -2.125023156404495239e-01
1.175102032721042633e-02 -8.380017429590225220e-02 8.524433709681034088e-03
7.528913766145706177e-02 -9.887833893299102783e-02 1.678231060504913330e-01
-5.563534051179885864e-02 -3.962736204266548157e-02 1.396698057651519775e-01
-6.974465399980545044e-02 -8.549812436103820801e-02 7.991050928831100464e-02
-1.499549113214015961e-02 1.142245307564735413e-01 -5.373025313019752502e-02
-2.891288325190544128e-02 -1.565529778599739075e-02 6.292339414358139038e-02
-4.160700365900993347e-02 3.831023722887039185e-02 -1.256906986236572266e-01
-3.708685189485549927e-02 -2.480530180037021637e-02 -3.982666507363319397e-02
-1.705682724714279175e-01 1.555288583040237427e-01 3.483862429857254028e-02
-1.034718826413154602e-01 9.607128798961639404e-02 8.675123751163482666e-02
1.748678535223007202e-01 3.024272434413433075e-02 -5.697798356413841248e-02
-1.150673180818557739e-01 -1.902462840080261230e-01 3.284388408064842224e-02
6.711934506893157959e-02 6.396925449371337891e-02 1.171947866678237915e-01
-1.369407400488853455e-02 7.312038540840148926e-02 6.646640598773956299e-02
2.198224514722824097e-01 1.185101456940174103e-02 -5.301585793495178223e-02
-5.973948538303375244e-02 -1.280412226915359497e-01 -1.528134848922491074e-02
1.046505719423294067e-01 2.222458273172378540e-02 -1.145064011216163635e-01
5.916559696197509766e-02 -3.353467583656311035e-02 5.673184059560298920e-03
-1.642841398715972900e-01 1.035376638174057007e-01 8.755544573068618774e-02
-8.842012286186218262e-02 1.137011498212814331e-01 2.592290192842483521e-02
7.115395367145538330e-02 1.501926332712173462e-01 7.533304393291473389e-02
-2.079595774412155151e-01 3.419160470366477966e-02 -1.272924989461898804e-01
-1.206259876489639282e-01 5.984564311802387238e-03 1.205385774374008179e-01
-1.811839342117309570e-01 9.527469426393508911e-02 -8.789656683802604675e-03
2.537275105714797974e-02 1.619511656463146210e-02 1.201601102948188782e-01
1.249525770545005798e-01 3.601362183690071106e-02 5.656846333295106888e-03
-4.242755845189094543e-02 1.279717683792114258e-01 -1.324248462915420532e-01
-1.033306866884231567e-02 4.133177921175956726e-02 -1.881778091192245483e-01
-1.179959550499916077e-01 9.840952605009078979e-02 1.263800710439682007e-01
-1.767105236649513245e-02 -1.042992025613784790e-01 -5.474656075239181519e-02
9.838275611400604248e-03 2.454770915210247040e-02 -7.913555204868316650e-02
-1.037591695785522461e-01 -1.972749680280685425e-01 -9.581941179931163788e-03
-8.038237690925598145e-03 1.005071122199296951e-02 4.880671855062246323e-03
1.159812808036804199e-01 5.381189659237861633e-02 1.655951887369155884e-01
-1.775650531053543091e-01 1.112986132502555847e-01 -6.078473851084709167e-02
-7.568268477916717529e-02 2.747216820716857910e-01 1.225380897521972656e-01
6.966078281402587891e-02 -1.578899621963500977e-01 -1.265803873538970947e-01
1.326931416988372803e-01 5.354202538728713989e-02 -1.424478739500045776e-02
-1.752226501703262329e-01 -7.364459335803985596e-02 -2.159062772989273071e-02
8.657025545835494995e-02 -7.370957732200622559e-02 9.449191391468048096e-02
-2.838487736880779266e-02 3.712161909788846970e-03 -8.699569851160049438e-02
-1.357949525117874146e-01 -1.073273941874504089e-01 -3.196789696812629700e-02
-1.173416823148727417e-01 -4.010454285889863968e-03 -2.327640354633331299e-02
-3.078728355467319489e-02 -9.588621556758880615e-02 9.809815883636474609e-02
1.386807416565716267e-03 1.212484985589981079e-01 -7.225044071674346924e-02
-1.367845833301544189e-01 -4.008591920137405396e-02 -6.514114327728748322e-03
1.698008626699447632e-01 2.119821496307849884e-02 -3.425205126404762268e-03
-1.101292818784713745e-01 1.206628605723381042e-01 2.576237358152866364e-02
2.656334266066551208e-02 -1.404290497303009033e-01 7.761330157518386841e-02
-1.198281813412904739e-02 -1.112963184714317322e-01 -3.438775986433029175e-02
9.874281287193298340e-02 -4.639964085072278976e-03 -8.472665399312973022e-02
-9.653098136186599731e-02 -1.844863221049308777e-02 1.766994446516036987e-01
2.960670273751020432e-03 6.958120316267013550e-02 4.929925873875617981e-02
-4.486475512385368347e-02 7.509511709213256836e-02 3.969217650592327118e-03
-2.016133815050125122e-01 7.943920046091079712e-02 4.078983515501022339e-02
-1.188538037240505219e-02 2.644187510013580322e-01 2.918842062354087830e-02
-4.662382602691650391e-02 -6.395181408151984215e-04 7.317655533552169800e-02
-1.440603435039520264e-01 -1.419855803251266479e-01 -1.971819624304771423e-02
-1.688310205936431885e-01 5.577369779348373413e-02 7.938408851623535156e-02
-8.057689666748046875e-02 -1.246538013219833374e-01 3.966981545090675354e-02
1.371312439441680908e-01 6.625533849000930786e-02 1.117739230394363403e-01
5.274281371384859085e-03 -7.385768461972475052e-03 1.024786308407783508e-01
-1.947098970413208008e-01 1.368472874164581299e-01 -1.309009343385696411e-01
2.910882830619812012e-01 -1.361216604709625244e-01 -9.521850198507308960e-02
-9.011661261320114136e-02 1.950326375663280487e-02 4.827873315662145615e-03
2.701061777770519257e-02 1.859703361988067627e-01 -1.126896664500236511e-01
2.092849276959896088e-02 -1.524837017059326172e-01 5.487930029630661011e-03
3.626573598012328148e-03 -9.206538647413253784e-02 1.650791615247726440e-01
-2.360802739858627319e-01 -2.995680272579193115e-01 7.710326462984085083e-02
2.551253186538815498e-03 2.128995358943939209e-01 2.929272353649139404e-01
-2.904669344425201416e-01 -5.188518017530441284e-02 -1.259992737323045731e-02
-7.123427838087081909e-02 4.237593710422515869e-02 1.301120519638061523e-01
4.861542955040931702e-02 1.492333263158798218e-01 1.832319051027297974e-02
-3.065096437931060791e-01 -7.431499660015106201e-02 4.657496884465217590e-02
2.051411867141723633e-01 -8.829650469124317169e-03 2.592986822128295898e-01
-4.617790182237513363e-05 2.632503956556320190e-02 -1.759143769741058350e-01
1.156125292181968689e-01 -7.805509865283966064e-02 -4.553528502583503723e-02
-1.100015118718147278e-01 9.530878067016601562e-02 -4.861884564161300659e-02
3.527653962373733521e-02 6.279329769313335419e-03 2.858636528253555298e-02
2.582460939884185791e-01 -8.835797198116779327e-03 -1.878304183483123779e-01
3.374908817932009697e-03 2.491691149771213531e-02 -9.976446628570556641e-03
-1.670194566249847412e-01 -1.330916187725961208e-03 4.243965074419975281e-02
-2.149898856878280640e-01 -2.260366454720497131e-04 -1.772614419460296631e-01
-2.344690263271331787e-03 6.817098706960678101e-02 -1.202370524406433105e-01
1.126436665654182434e-01 5.983231216669082642e-02 -1.009320318698883057e-01
4.228115454316139221e-02 -3.946087788790464401e-03 -1.174893751740455627e-01
1.757523119449615479e-01 -4.785467311739921570e-02 -5.009244754910469055e-02
-5.636125430464744568e-02 -7.973620295524597168e-02 7.515982538461685181e-02
1.755776852369308472e-01 -7.190313935279846191e-02 -4.643948748707771301e-02
1.332241147756576538e-01 -7.820700109004974365e-02 -2.977807447314262390e-02
1.066837161779403687e-01 -3.232215764001011848e-03 -1.457242965698242188e-01
-6.029919534921646118e-02 -7.020246982574462891e-02 5.326319485902786255e-02
2.600416839122772217e-01 -1.969707757234573364e-01 3.264143168926239014e-01
9.033510088920593262e-02 -1.271791458129882812e-01 1.114650741219520569e-01
-3.003166988492012024e-02 -1.081755682826042175e-01 -5.373003706336021423e-02
-3.322947025299072266e-02 9.286732971668243408e-02 1.414972729980945587e-02
-1.478039659559726715e-03 -3.709921240806579590e-02 9.582454711198806763e-02
-1.511540710926055908e-01 1.494966000318527222e-01 2.503748983144760132e-02
-5.563012138009071350e-02 6.291240453720092773e-02 6.750864535570144653e-02
-1.112258881330490112e-01 -1.095908284187316895e-01 6.903754919767379761e-02
-1.137288734316825867e-01 -6.044178456068038940e-02 3.939760848879814148e-02
1.869281679391860962e-01 -1.162876933813095093e-01 2.322612889111042023e-02
-6.641440093517303467e-02 5.013662204146385193e-02 -1.386397331953048706e-02
2.076307088136672974e-01 -6.692259013652801514e-02 2.390797138214111328e-01
2.799350768327713013e-02 1.940698735415935516e-02 -2.359028756618499756e-01
-1.383670326322317123e-02 -1.212527453899383545e-01 1.636983640491962433e-02
-8.828046917915344238e-02 -1.506443023681640625e-01 3.383180499076843262e-01
-1.698770672082901001e-01 7.254398893564939499e-03 -3.057362884283065796e-02
-7.416588813066482544e-02 -4.994535073637962341e-02 6.420178711414337158e-02
9.013094753026962280e-02 5.633441209793090820e-01 -1.647962480783462524e-01
-6.575942784547805786e-02 -5.994560942053794861e-02 -7.706706970930099487e-02
5.882879346609115601e-02 -2.926877140998840332e-01 -1.162693277001380920e-01
2.099415063858032227e-01 -2.789106592535972595e-02 1.567238718271255493e-01
4.903625696897506714e-02 -2.716307044029235840e-01 -1.394379436969757080e-01
1.362638026475906372e-01 6.049229577183723450e-02 -1.066205650568008423e-01
-1.890055388212203979e-01 1.065515801310539246e-01 2.591259405016899109e-02
1.091552153229713440e-01 5.086067318916320801e-02 -9.640096127986907959e-02
-1.421914715319871902e-02 -2.625927794724702835e-03 -9.474045038223266602e-02
3.629295229911804199e-01 -2.646640129387378693e-02 -2.376483678817749023e-01
-4.646927118301391602e-03 -3.090829402208328247e-02 1.205575615167617798e-01
-1.163182780146598816e-01 1.602411456406116486e-02 -9.869962930679321289e-02
-3.490559384226799011e-02 -7.721767574548721313e-02 9.253511577844619751e-02
2.297895774245262146e-02 2.579411268234252930e-01 -7.619671523571014404e-02
-2.536292970180511475e-01 -5.589234828948974609e-02 -1.003288775682449341e-01
6.021731067448854446e-03 -3.939241170883178711e-02 -8.588694781064987183e-02
1.938624680042266846e-01 -1.582500934600830078e-01 -1.283491104841232300e-01
1.325256675481796265e-01 2.550287842750549316e-01 -1.683246791362762451e-01
-1.225628480315208435e-01 -1.021348387002944946e-01 -1.700572222471237183e-01
-1.053680852055549622e-01 -8.483035862445831299e-02 6.307626515626907349e-02
1.713668555021286011e-02 9.884783998131752014e-03 -5.460110306739807129e-02
2.281330227851867676e-01 2.053284496068954468e-01 -2.268665656447410583e-02
1.593107283115386963e-01 1.849932223558425903e-02 3.114669024944305420e-02
3.851241990923881531e-02 -1.039478275924921036e-02 -2.634488791227340698e-02
7.198253273963928223e-02 5.472821369767189026e-02 -1.444046944379806519e-01
3.188165649771690369e-02 1.039078533649444580e-01 4.326662793755531311e-02
7.106887549161911011e-02 -1.615321636199951172e-01 6.388102471828460693e-02
8.576053380966186523e-02 -8.671657741069793701e-02 -1.123211011290550232e-01
3.525105714797973633e-01 9.758896380662918091e-02 -5.734055303037166595e-03
2.194850146770477295e-01 -1.414696425199508667e-01 -2.120665460824966431e-02
-5.458073318004608154e-02 -1.591632813215255737e-01 -1.360552906990051270e-01
2.030908763408660889e-01 7.430358231067657471e-02 8.815460652112960815e-02
-2.326469123363494873e-01 8.361411094665527344e-02 5.805363133549690247e-02
-1.939298026263713837e-02 4.026746749877929688e-02 -4.401810839772224426e-02
1.602205783128738403e-01 7.191681861877441406e-02 -6.075884401798248291e-02
-5.269106477499008179e-02 -2.338797412812709808e-02 -7.781860232353210449e-02
-1.940656006336212158e-01 6.744802743196487427e-02 1.609690301120281219e-02
-6.231512129306793213e-02 5.354405939579010010e-02 -2.112121433019638062e-01
6.099392846226692200e-02 1.107228398323059082e-01 1.204973831772804260e-02
6.790807470679283142e-03 4.194900766015052795e-02 -6.700079143047332764e-02
4.738402366638183594e-02 8.875713497400283813e-02 7.774752378463745117e-02
-1.195240169763565063e-01 -2.264332771301269531e-01 -8.964519202709197998e-02
-1.221200823783874512e-01 7.691022939980030060e-03 -1.698968559503555298e-02
-1.843555420637130737e-01 -1.327498406171798706e-01 9.587181359529495239e-02
1.695913635194301605e-02 9.872381389141082764e-02 7.411158084869384766e-02
-3.540595993399620056e-03 8.924301713705062866e-02 -2.435888499021530151e-01
9.855692833662033081e-02 6.501122564077377319e-02 1.449566520750522614e-02
-4.752371460199356079e-02 -1.702602356672286987e-01 9.915723651647567749e-02
3.155500814318656921e-02 1.975381970405578613e-01 -3.761923685669898987e-02
8.440496772527694702e-02 -9.350918978452682495e-02 3.703904440044425428e-05
6.323233246803283691e-02 -4.747261106967926025e-02 -1.431537419557571411e-01
3.807067871093750000e-02 -1.774219125509262085e-01 -1.394467651844024658e-01
6.855120509862899780e-02 -1.490503735840320587e-02 2.696852385997772217e-01
6.154229119420051575e-02 -2.832357771694660187e-03 1.999900117516517639e-02
2.003774195909500122e-01 -1.007864266284741461e-04 1.057541742920875549e-01
-1.842607557773590088e-01 -5.053497850894927979e-02 1.596229821443557739e-01
-1.958571523427963257e-01 2.122398316860198975e-01 -2.523562312126159668e-01
-5.576109141111373901e-02 -2.146703749895095825e-01 1.699480414390563965e-01
1.722149997949600220e-01 4.259428754448890686e-02 -1.168928742408752441e-01
1.337871253490447998e-01 9.904303401708602905e-02 -7.368819415569305420e-02
1.755406707525253296e-01 8.041788637638092041e-02 -5.397289618849754333e-02
4.954728484153747559e-02 -1.251374781131744385e-01 1.283829212188720703e-01
-1.648310422897338867e-01 6.475631892681121826e-02 -4.205605760216712952e-02
-1.877482980489730835e-01 8.412625640630722046e-02 5.331375449895858765e-02
5.704790726304054260e-02 1.144363060593605042e-01 8.064743131399154663e-02
-2.351525053381919861e-02 -2.243588417768478394e-01 -1.445799171924591064e-01
-4.482042510062456131e-03 -1.475379802286624908e-02 1.352143287658691406e-01
5.040556658059358597e-03 1.588306427001953125e-01 2.972142770886421204e-03
-1.609214097261428833e-01 1.820082031190395355e-02 -8.259266614913940430e-02
-1.596697866916656494e-01 2.293008193373680115e-02 -1.207429841160774231e-01
6.788103282451629639e-02 -1.265314817428588867e-01 1.011260673403739929e-01
2.067902497947216034e-02 -8.505307883024215698e-02 1.514741033315658569e-01
-2.373521681874990463e-03 -1.508353203535079956e-01 1.209903135895729065e-01
-1.075424700975418091e-01 8.517106622457504272e-02 -1.509748399257659912e-01
7.164934277534484863e-02 3.916704282164573669e-02 9.093590080738067627e-02
1.349205374717712402e-01 -1.053674891591072083e-01 -5.164473131299018860e-02
6.766683608293533325e-02 2.328894479433074594e-04 6.724592298269271851e-02
3.707771003246307373e-02 -1.769282370805740356e-01 1.906267702579498291e-01
1.575725525617599487e-01 -1.093159914016723633e-01 9.439302608370780945e-03
-1.248570308089256287e-01 9.943092614412307739e-02 -1.724523305892944336e-01
1.384060382843017578e-01 6.519369035959243774e-02 1.261889040470123291e-01
7.213786989450454712e-02 5.836512520909309387e-02 -2.271349914371967316e-02
-4.856535047292709351e-02 -5.029391869902610779e-02 -1.365275979042053223e-01
7.621478289365768433e-02 1.170768290758132935e-01 -6.400842219591140747e-02
-2.252927571535110474e-01 -1.670832037925720215e-01 3.441288694739341736e-02
-3.926808014512062073e-02 9.197812527418136597e-02 -1.236713677644729614e-01
1.400031894445419312e-01 4.003554955124855042e-02 -1.209996361285448074e-02
-1.560594737529754639e-01 -1.090452671051025391e-01 4.337937105447053909e-03
4.798731580376625061e-02 -5.150648206472396851e-02 -3.066239133477210999e-02
6.776376068592071533e-02 1.720985770225524902e-01 6.887476891279220581e-02
4.129052162170410156e-02 -1.386279314756393433e-01 7.160092890262603760e-02
-9.788519889116287231e-02 5.561502184718847275e-03 5.180395022034645081e-02
-8.124700188636779785e-02 4.120464902371168137e-03 1.166890934109687805e-01
1.672021150588989258e-01 -5.972591787576675415e-02 -2.199875116348266602e-01
-4.922680556774139404e-02 9.046445600688457489e-03 5.063899792730808258e-03
-2.018425799906253815e-02 1.928894221782684326e-01 -5.600289627909660339e-02
1.657655537128448486e-01 6.772216409444808960e-02 -9.596166014671325684e-02
3.205846846103668213e-01 -1.311157941818237305e-01 -4.157031886279582977e-03
-5.971852689981460571e-03 -1.239525154232978821e-01 2.458328567445278168e-02
1.994238942861557007e-01 2.170937359333038330e-01 2.756498381495475769e-02
8.557006716728210449e-02 1.371267288923263550e-01 -2.016744166612625122e-01
-2.885059714317321777e-01 -4.530856758356094360e-02 -6.463889032602310181e-02
1.271069198846817017e-01 3.869802132248878479e-02 -2.467159330844879150e-01
-7.718819379806518555e-02 2.310418486595153809e-01 9.202333539724349976e-02
-3.112966381013393402e-02 -7.297310978174209595e-02 -2.681028097867965698e-02
-5.774362385272979736e-02 -1.122454851865768433e-01 -9.817945957183837891e-02
-1.319366786628961563e-02 -2.109186202287673950e-01 1.230147480964660645e-01
2.113076858222484589e-02 3.313419222831726074e-01 -3.757611662149429321e-02
1.226392984390258789e-01 2.163844704627990723e-01 -1.228732243180274963e-01
4.839897621423006058e-03 8.073381334543228149e-02 -9.861095249652862549e-02
5.044636502861976624e-02 -1.626604348421096802e-01 -1.088250875473022461e-01
7.271438091993331909e-02 8.864320814609527588e-02 -1.145206242799758911e-01
-4.951726272702217102e-02 -1.827488541603088379e-01 2.350728064775466919e-01
-1.006521657109260559e-01 3.402913734316825867e-02 1.979720080271363258e-03
-2.054891288280487061e-01 -1.883185207843780518e-01 6.604152265936136246e-03
-8.100242912769317627e-02 1.255224496126174927e-01 4.498391598463058472e-02
1.017007455229759216e-01 8.950770832598209381e-03 1.687734127044677734e-01
-8.162797987461090088e-02 1.084798127412796021e-01 -1.013502292335033417e-02
1.468496024608612061e-01 2.002998292446136475e-01 2.886006236076354980e-02
-8.565182983875274658e-02 -3.150836825370788574e-01 -1.830615252256393433e-01
4.644107446074485779e-02 1.658827811479568481e-01 -3.612821921706199646e-03
7.406584173440933228e-02 6.180282682180404663e-02 -2.482349127531051636e-01
-1.116289645433425903e-01 3.110795468091964722e-02 -4.563417285680770874e-02
-7.192189991474151611e-02 2.000543475151062012e-02 -9.281028807163238525e-02
-1.078380644321441650e-01 -1.449612826108932495e-01 -2.210830524563789368e-02
-1.466328203678131104e-01 1.105888094753026962e-02 -5.242123827338218689e-02
-1.745941638946533203e-01 -1.689311116933822632e-01 5.752867460250854492e-02
1.046026721596717834e-01 5.747751519083976746e-02 -1.644741743803024292e-02
-4.201050475239753723e-02 5.231598019599914551e-02 1.938236653804779053e-01
7.059524208307266235e-02 -2.870315685868263245e-02 3.341558948159217834e-02
1.462434232234954834e-01 -2.837501280009746552e-02 1.680720597505569458e-01
1.826448552310466766e-02 -1.043135821819305420e-01 -2.014266252517700195e-01
-4.410806670784950256e-02 -2.234025113284587860e-02 -6.546103954315185547e-02
1.241023913025856018e-01 -9.518013149499893188e-02 -2.256544865667819977e-02
-5.558685213327407837e-02 5.110237747430801392e-02 1.122428178787231445e-01
-6.657791882753372192e-02 1.740120947360992432e-01 1.387968957424163818e-01
-1.723672747611999512e-01 3.042103722691535950e-02 -5.947818979620933533e-02
-1.057410985231399536e-01 1.977427452802658081e-01 2.980674989521503448e-02
-1.671734265983104706e-02 1.582973003387451172e-01 1.726542860269546509e-01
-3.330152332782745361e-01 1.535392850637435913e-01 1.019931584596633911e-01
-5.934951826930046082e-02 -9.681521356105804443e-02 -1.756009459495544434e-02
-6.833139806985855103e-02 1.537101715803146362e-01 1.587935686111450195e-01
-8.293506503105163574e-02 -1.452953070402145386e-01 1.416299045085906982e-01
5.442184582352638245e-02 -9.906705468893051147e-02 -1.704463809728622437e-01
9.191322326660156250e-02 -3.744288906455039978e-02 6.571624428033828735e-02
-6.509252637624740601e-02 1.787900552153587341e-02 -6.316757202148437500e-02
-1.008468400686979294e-02 -7.852847874164581299e-02 1.118437200784683228e-01
2.179454639554023743e-02 1.783306598663330078e-01 -1.113124713301658630e-01
4.271064326167106628e-02 3.119639754295349121e-01 -3.035674989223480225e-01
-4.773430898785591125e-02 -1.309547275304794312e-01 -3.729806467890739441e-02
-3.475361317396163940e-02 1.198654547333717346e-01 3.355038352310657501e-03
-4.898214712738990784e-02 -2.734179049730300903e-02 -5.640057101845741272e-02
-3.965473175048828125e-02 5.808082642033696175e-04 6.041493639349937439e-02
-1.017857939004898071e-01 -6.500235199928283691e-02 9.794703871011734009e-02
1.062438241206109524e-03 -7.318009436130523682e-02 3.487258031964302063e-02
1.265742778778076172e-01 7.352919131517410278e-02 1.011727601289749146e-01
8.414197713136672974e-02 6.581863015890121460e-02 7.078631967306137085e-02
-1.421172916889190674e-01 -2.539280056953430176e-02 -2.114368043839931488e-02
1.519595086574554443e-01 -7.018777728080749512e-02 3.410672768950462341e-02
-5.619684234261512756e-03 5.535819754004478455e-02 2.940475009381771088e-02
-8.809713274240493774e-02 -1.069140136241912842e-01 1.776531897485256195e-02
-4.829702898859977722e-02 6.220631673932075500e-02 -1.907665748149156570e-03
2.579159140586853027e-01 9.574023634195327759e-02 -9.363560378551483154e-02
6.187940016388893127e-02 -1.832783669233322144e-01 -7.742587942630052567e-03
-9.961114078760147095e-02 -5.081550404429435730e-02 1.900035142898559570e-02
-9.281776100397109985e-02 -2.947265841066837311e-02 -1.525693237781524658e-01
-5.767024587839841843e-03 -5.495627969503402710e-02 -7.637854665517807007e-02
-1.967440992593765259e-01 3.027727603912353516e-01 -1.584378182888031006e-01
-4.553442820906639099e-03 -4.055497422814369202e-02 -6.930693984031677246e-02
2.075455039739608765e-01 -1.120453178882598877e-01 8.535677194595336914e-02
6.341828405857086182e-02 -1.409850418567657471e-01 -3.814131766557693481e-02
2.457789927721023560e-01 -9.735857136547565460e-03 -1.919129788875579834e-01
1.434992849826812744e-01 -1.936321258544921875e-01 -6.219693273305892944e-02
2.651712857186794281e-02 2.347567230463027954e-01 -1.908461153507232666e-01
-3.966021165251731873e-02 -5.118980631232261658e-02 8.861961215734481812e-02
1.206211000680923462e-01 -2.475570142269134521e-01 1.392842382192611694e-01
1.083841919898986816e-01 7.000683993101119995e-02 6.936512887477874756e-02
7.338977605104446411e-02 -5.167188867926597595e-02 -4.092456027865409851e-02
1.131800115108489990e-01 -1.509889513254165649e-01 1.335898190736770630e-01
8.202878385782241821e-02 1.824241597205400467e-03 -8.093178272247314453e-02
-4.959872923791408539e-03 2.153833955526351929e-02 -3.664901107549667358e-02
9.062097221612930298e-02 9.137415885925292969e-02 -1.517794132232666016e-01
-9.857667610049247742e-03 -6.433553248643875122e-02 -6.561284512281417847e-02
-2.206334657967090607e-02 -7.235684990882873535e-02 1.575662344694137573e-01
-1.951658129692077637e-01 4.808514937758445740e-02 5.503090098500251770e-02
-6.135758385062217712e-02 7.326107472181320190e-02 -1.031342670321464539e-01
-1.349257975816726685e-01 -1.682806201279163361e-02 4.702237900346517563e-03
5.047691613435745239e-02 -3.385040536522865295e-02 1.850180514156818390e-02
7.479012012481689453e-02 -5.660107731819152832e-02 1.394579112529754639e-01
-2.300285920500755310e-02 -8.942953497171401978e-02 9.858497977256774902e-02
-2.662764489650726318e-01 5.465325340628623962e-02 9.503189474344253540e-02
3.092694655060768127e-02 -9.038874506950378418e-02 4.296963661909103394e-02
-9.079870581626892090e-02 2.598663419485092163e-02 1.042126789689064026e-01
-1.464269459247589111e-01 7.820363342761993408e-02 -1.202693656086921692e-01
1.933636218309402466e-01 -1.122512519359588623e-01 1.300144493579864502e-01
2.237235754728317261e-01 -7.388464361429214478e-02 2.350903302431106567e-01
-2.793022803962230682e-02 -1.030333712697029114e-01 -4.523029550909996033e-02
4.705195873975753784e-02 1.883835066109895706e-03 -1.300850063562393188e-01
-8.899243921041488647e-02 5.301685258746147156e-02 7.965313643217086792e-02
-2.998296171426773071e-02 -3.942956402897834778e-02 5.877367686480283737e-03
-1.463700644671916962e-02 9.428964555263519287e-02 -8.689000457525253296e-02
1.063253879547119141e-01 -2.732869982719421387e-01 -3.542717173695564270e-02
4.348114132881164551e-02 -3.800220787525177002e-02 5.745908617973327637e-02
1.817832671804353595e-04 -1.665681973099708557e-02 1.349997222423553467e-01
8.881437778472900391e-02 -1.110277771949768066e-01 -4.784950613975524902e-02
3.326191380620002747e-02 6.966572254896163940e-02 2.526494674384593964e-03
-2.895260974764823914e-02 -2.607786655426025391e-02 -6.804586946964263916e-02
1.215272117406129837e-02 -1.436243355274200439e-01 4.628138989210128784e-02
2.511070072650909424e-01 -1.008481681346893311e-01 -2.989214062690734863e-01
2.306493222713470459e-01 1.607028394937515259e-01 -1.028356626629829407e-01
3.327944502234458923e-02 -5.589874088764190674e-02 -2.549085393548011780e-02
7.916443049907684326e-02 9.835102409124374390e-02 2.104120403528213501e-01
3.861152566969394684e-03 1.214536745101213455e-02 -5.794844031333923340e-02
1.823992133140563965e-01 2.265698164701461792e-01 2.656618366017937660e-03
2.185295820236206055e-01 -5.993249360471963882e-03 3.243727609515190125e-02
2.577499859035015106e-02 4.844949580729007721e-03 -4.480303451418876648e-02
-1.787499636411666870e-01 -7.173060625791549683e-02 -1.530272215604782104e-01
1.550887674093246460e-01 2.501109838485717773e-01 -6.963699311017990112e-02
2.233124375343322754e-01 -2.369902729988098145e-01 -1.886823959648609161e-02
-4.358738288283348083e-02 -2.667872011661529541e-01 -5.743283405900001526e-02
-8.787469007074832916e-03 6.239302828907966614e-02 1.920719258487224579e-02
-3.927391767501831055e-02 7.383710145950317383e-02 3.222396597266197205e-02
-1.300276517868041992e-01 -6.535987555980682373e-02 -1.797105818986892700e-01
1.995493918657302856e-01 5.878803506493568420e-02 1.491606384515762329e-01
-1.026319041848182678e-01 1.062071546912193298e-01 -5.729247257113456726e-02
3.890604153275489807e-02 7.820218056440353394e-02 1.565541625022888184e-01
-8.708711713552474976e-03 4.493700712919235229e-02 -1.359890401363372803e-01
-1.032893583178520203e-01 -1.415432803332805634e-02 2.216449193656444550e-02
7.737830746918916702e-03 -1.377010643482208252e-01 5.029464885592460632e-02
-6.908383965492248535e-02 -7.940100505948066711e-03 -8.483701199293136597e-02
1.254396885633468628e-01 -1.511917412281036377e-01 2.272956073284149170e-01
-1.787726208567619324e-02 -1.130867898464202881e-01 -7.242229580879211426e-02
-1.131905615329742432e-02 1.114794835448265076e-01 9.436272084712982178e-02
-9.247638285160064697e-02 -6.817351281642913818e-02 -6.461296230554580688e-02
-5.912733078002929688e-02 1.510630697011947632e-01 -4.762966930866241455e-02
-5.743781477212905884e-02 -1.092804148793220520e-01 6.488356739282608032e-02
-3.451733663678169250e-02 7.227423787117004395e-02 -7.761737704277038574e-02
-5.289311334490776062e-02 1.085485965013504028e-01 7.929114624857902527e-03
-2.055473774671554565e-01 -1.147243231534957886e-01 4.350120201706886292e-02
8.197660557925701141e-03 1.110603287816047668e-02 2.919460535049438477e-01
-1.258060783147811890e-01 8.898795582354068756e-03 -3.309570252895355225e-03
-1.042415872216224670e-01 3.284606337547302246e-02 6.897427141666412354e-02
6.427178531885147095e-02 -5.196674168109893799e-02 -1.166081242263317108e-02
-8.148611336946487427e-02 1.716420948505401611e-01 3.298757970333099365e-02
-2.890876829624176025e-01 1.895234733819961548e-01 2.886791229248046875e-01
-4.596941918134689331e-02 -2.521201968193054199e-01 4.992965981364250183e-02
-3.706896677613258362e-02 5.947367846965789795e-02 5.462117120623588562e-02
-6.979128718376159668e-02 -3.536326810717582703e-02 1.256721001118421555e-02
3.317545354366302490e-02 1.014110371470451355e-01 -3.191570565104484558e-02
-1.535854935646057129e-01 1.102894470095634460e-01 -4.051003605127334595e-02
-6.305148452520370483e-02 6.244160979986190796e-02 1.327880918979644775e-01
-4.936341941356658936e-02 -2.587966024875640869e-01 2.411132007837295532e-01
-5.797374993562698364e-03 -1.815229654312133789e-02 -1.016393750905990601e-01
-7.308391481637954712e-02 4.975786805152893066e-02 -7.065200060606002808e-02
5.514001846313476562e-02 4.559539631009101868e-02 -1.447296794503927231e-02
-9.233738481998443604e-02 1.080343406647443771e-02 1.852387189865112305e-01
-2.109096758067607880e-02 -2.348770759999752045e-02 1.222159117460250854e-01
-8.532140403985977173e-02 -1.060924008488655090e-01 -6.225717812776565552e-02
-9.825445711612701416e-03 2.840525656938552856e-02 5.756338941864669323e-04
-2.402282552793622017e-03 -1.079810969531536102e-02 -1.370919495820999146e-01
2.346782572567462921e-02 1.491432450711727142e-02 1.790347546339035034e-01
1.202539727091789246e-01 -1.215447932481765747e-01 6.478067487478256226e-02
-3.594094188883900642e-03 9.456041455268859863e-02 7.039508968591690063e-02
4.142297059297561646e-02 8.672369271516799927e-02 -1.110515743494033813e-01
-3.093481808900833130e-02 -2.058484852313995361e-01 -5.168385431170463562e-02
-2.033963054418563843e-01 -1.778683513402938843e-01 1.202385872602462769e-01
-4.379178956151008606e-02 1.708230674266815186e-01 2.239570617675781250e-01
1.506137475371360779e-02 -1.350190788507461548e-01 -1.114354804158210754e-01
2.129825204610824585e-01 8.339770138263702393e-02 -9.100694209337234497e-02
1.897088997066020966e-02 -1.798484660685062408e-02 1.390113681554794312e-01
3.468358516693115234e-02 1.116852182894945145e-02 -3.418742492794990540e-02
4.266020655632019043e-02 -1.426492482423782349e-01 -7.376266270875930786e-02
-8.806271106004714966e-02 1.266854405403137207e-01 2.075896970927715302e-02
2.557577751576900482e-02 -1.711673289537429810e-01 3.789214789867401123e-02
6.669230014085769653e-02 5.749434698373079300e-03 7.549096643924713135e-02
1.839033095166087151e-03 1.528015267103910446e-02 7.891914248466491699e-02
-2.610848248004913330e-01 -1.359498649835586548e-01 -1.416677534580230713e-01
1.482618693262338638e-02 1.775524616241455078e-01 -5.154256522655487061e-02
-1.868748478591442108e-02 4.591241944581270218e-03 -4.710557311773300171e-02
-3.089433349668979645e-02 1.293444484472274780e-01 -4.904054850339889526e-02
-1.111553013324737549e-01 1.688149571418762207e-01 -7.909131050109863281e-02
5.582659970968961716e-03 -2.147300094366073608e-01 1.892514973878860474e-01
1.079199463129043579e-01 -6.605140119791030884e-02 9.467547060921788216e-04
-4.421797767281532288e-02 -3.072333522140979767e-02 1.506346091628074646e-02
9.730873256921768188e-02 -4.130632802844047546e-02 4.161138460040092468e-02
3.863191232085227966e-02 -6.455879192799329758e-03 -2.587494067847728729e-02
-2.742161788046360016e-02 -1.530764549970626831e-01 2.927373051643371582e-01
-7.360161095857620239e-02 -7.678852975368499756e-02 2.751218713819980621e-02
-1.578473448753356934e-01 6.002392619848251343e-03 1.412779837846755981e-02
-1.495088040828704834e-01 -7.164662331342697144e-02 1.764486134052276611e-01
-1.618817299604415894e-01 1.347116827964782715e-01 8.115044236183166504e-02
2.529710531234741211e-02 1.249767467379570007e-01 -1.782809942960739136e-02
2.518816888332366943e-01 -1.971952021121978760e-01 -1.099058017134666443e-01
1.967567577958106995e-02 1.906496286392211914e-02 3.925727307796478271e-02
3.343892470002174377e-02 -1.900279521942138672e-02 -6.529265642166137695e-02
9.091578423976898193e-03 1.692821681499481201e-01 -2.972618304193019867e-02
-1.011045873165130615e-01 -4.667744040489196777e-02 4.262187704443931580e-02
2.463697455823421478e-02 -2.309440448880195618e-02 -5.681388825178146362e-02
1.338503602892160416e-02 -5.905243009328842163e-02 -1.188407838344573975e-01
-6.637805700302124023e-02 1.963026225566864014e-01 9.573007375001907349e-02
1.304164677858352661e-01 8.703023940324783325e-02 4.579167068004608154e-02
-1.566367894411087036e-01 1.224460545927286148e-02 -1.800143569707870483e-01
-7.608453743159770966e-03 1.010048463940620422e-01 8.320305496454238892e-02
-2.954500913619995117e-01 2.093586511909961700e-02 1.046230643987655640e-01
2.073114365339279175e-01 1.386170741170644760e-02 -2.992635965347290039e-01
1.099946200847625732e-01 2.576545476913452148e-01 -1.381801366806030273e-01
-2.744968533515930176e-01 -1.842157542705535889e-01 8.317109942436218262e-02
-8.745478093624114990e-02 2.144224569201469421e-02 -7.411327213048934937e-02
-6.781730800867080688e-02 1.451236307621002197e-01 2.331496924161911011e-01
-1.633923202753067017e-01 1.025571599602699280e-01 7.059538364410400391e-02
1.268532127141952515e-01 6.525589525699615479e-02 5.946621298789978027e-02
-1.054262518882751465e-01 -1.862390339374542236e-01 1.314398273825645447e-02
8.555325120687484741e-02 2.795759141445159912e-01 1.493736356496810913e-01
-1.895940303802490234e-01 -1.853007674217224121e-01 1.292506884783506393e-02
4.725803807377815247e-02 -2.953164838254451752e-02 -3.711372613906860352e-03
-8.508005738258361816e-02 5.684618372470140457e-03 -6.326869875192642212e-02
-7.858131080865859985e-02 -2.055815309286117554e-01 -7.477047853171825409e-03
-1.509974449872970581e-01 3.163558617234230042e-02 -9.013181179761886597e-02
9.450395405292510986e-02 3.557773679494857788e-02 7.996604591608047485e-02
1.724650524556636810e-02 -5.352613702416419983e-02 -1.532957106828689575e-01
-3.196789324283599854e-02 -1.263623833656311035e-01 1.561980247497558594e-01
2.970898896455764771e-02 -5.211108550429344177e-02 1.195943430066108704e-01
1.683174520730972290e-01 2.768226712942123413e-02 4.294414818286895752e-02
-5.313650891184806824e-02 -1.554728299379348755e-01 -5.387796089053153992e-02
2.033129334449768066e-01 1.764861643314361572e-01 8.517336845397949219e-02
-2.992263436317443848e-02 -1.939576119184494019e-01 -6.589521467685699463e-02
5.381255224347114563e-02 -1.493910402059555054e-01 5.961048603057861328e-02
-2.369892410933971405e-02 5.011449381709098816e-02 7.767050713300704956e-02
1.299482583999633789e-01 7.702472060918807983e-02 -5.289959907531738281e-02
-2.249262109398841858e-02 -1.322764605283737183e-01 -7.500587403774261475e-02
-7.305173575878143311e-02 1.518236398696899414e-01 2.416226118803024292e-01
-1.121269315481185913e-01 -6.861404329538345337e-02 4.764674231410026550e-02
-2.961097359657287598e-01 -4.645929858088493347e-02 1.014668345451354980e-01
-2.186339199542999268e-01 1.735126674175262451e-01 3.555551171302795410e-02
-6.087716901674866676e-04 -6.640043854713439941e-02 1.144799366593360901e-01
2.482188865542411804e-02 -7.183288782835006714e-02 -5.377336964011192322e-02
-2.341710478067398071e-01 -3.680644556879997253e-02 4.353028535842895508e-02
1.186298057436943054e-01 1.821871399879455566e-01 -2.479456365108489990e-01
-5.950797721743583679e-02 5.431915074586868286e-02 1.606433838605880737e-01
1.829956322908401489e-01 1.502755135297775269e-01 -1.415741294622421265e-01
-7.053748518228530884e-02 2.224079519510269165e-01 -1.466275602579116821e-01
2.071398124098777771e-02 -1.284877955913543701e-01 -1.788730472326278687e-01
-5.820376798510551453e-02 1.246548816561698914e-01 -1.301792077720165253e-02
5.140964686870574951e-02 -7.127233594655990601e-02 1.559180617332458496e-01
4.355993121862411499e-03 -1.044579148292541504e-01 -1.975568570196628571e-02
-2.430632710456848145e-01 -1.691048890352249146e-01 3.996998816728591919e-02
-2.018667459487915039e-01 -6.926138699054718018e-02 1.021579429507255554e-01
1.855633407831192017e-01 -5.900098476558923721e-03 6.386338919401168823e-02
5.802794918417930603e-02 -2.979309065267443657e-03 -3.287053108215332031e-02
1.712975353002548218e-01 4.461108148097991943e-02 1.293373852968215942e-01
1.209235168062150478e-03 -6.705041974782943726e-02 -8.135275542736053467e-02
-2.159015685319900513e-01 -2.695389464497566223e-02 4.834357276558876038e-02
-2.276403829455375671e-02 8.787338621914386749e-03 -2.611052012071013451e-03
-1.198344528675079346e-01 3.344880789518356323e-02 1.888627111911773682e-01
1.761471293866634369e-02 1.361821293830871582e-01 -1.215969845652580261e-01
-3.148659691214561462e-02 2.945058420300483704e-02 -2.880517765879631042e-02
-1.683831065893173218e-01 -1.279607415199279785e-01 1.105567906051874161e-03
-7.294294983148574829e-02 5.542160943150520325e-02 -1.590104103088378906e-01
1.004336103796958923e-01 1.505264341831207275e-01 -8.906063437461853027e-02
-2.397959679365158081e-02 5.098988488316535950e-02 8.211003243923187256e-02
2.558808308094739914e-03 7.876923680305480957e-02 -6.085751205682754517e-02
3.287146091461181641e-01 1.571422070264816284e-02 4.043004475533962250e-03
4.499356076121330261e-02 -1.921985000371932983e-01 -9.467431157827377319e-02
9.480287134647369385e-02 -3.479735180735588074e-02 -8.245979249477386475e-02
-8.561640977859497070e-02 -2.058145031332969666e-02 1.428680717945098877e-01
1.012608595192432404e-02 1.171957254409790039e-01 -1.875999271869659424e-01
9.557569772005081177e-02 -1.307450979948043823e-01 1.335478723049163818e-01
5.560657940804958344e-03 -4.276358336210250854e-02 -8.912524208426475525e-03
9.620071202516555786e-02 5.475991964340209961e-02 3.700588643550872803e-02
-1.344524174928665161e-01 9.709708392620086670e-02 -1.846965029835700989e-02
2.608846724033355713e-01 -1.837349683046340942e-02 -3.358652442693710327e-02
-4.160943627357482910e-02 -2.312892526388168335e-01 1.385018527507781982e-01
1.101663056761026382e-02 -9.597695618867874146e-02 6.814794987440109253e-02
6.256546825170516968e-02 -5.550746247172355652e-02 -8.480461686849594116e-02
1.436077356338500977e-01 2.962596900761127472e-02 -1.332275718450546265e-01
8.714310079813003540e-02 7.267177850008010864e-02 8.144844323396682739e-02
6.715763360261917114e-02 -2.263434231281280518e-01 4.933730512857437134e-02
8.225255459547042847e-02 -3.700494393706321716e-02 -2.492041885852813721e-01
1.588766872882843018e-01 -8.095136284828186035e-02 5.048456415534019470e-02
-2.157843261957168579e-01 8.007955551147460938e-02 1.202687919139862061e-01
5.597587302327156067e-02 4.963272064924240112e-02 -2.090173214673995972e-01
1.169144138693809509e-01 1.482016146183013916e-01 1.133964434266090393e-01
-3.295199945569038391e-02 1.510529220104217529e-01 1.186251118779182434e-01
9.524459391832351685e-02 3.221651911735534668e-02 8.006269112229347229e-03
-5.764571204781532288e-02 1.044983416795730591e-01 -3.216796368360519409e-02
4.850441962480545044e-02 8.772827684879302979e-02 7.547820359468460083e-02
-4.117577802389860153e-03 1.217411016114056110e-03 -2.709014415740966797e-01
1.833706200122833252e-01 -1.770145148038864136e-01 1.188247650861740112e-02
1.909786276519298553e-02 -1.054505109786987305e-01 -5.888652056455612183e-02
1.284772604703903198e-01 -7.791882753372192383e-02 2.861724793910980225e-02
-6.544007919728755951e-03 4.576547071337699890e-02 6.784893572330474854e-02
-7.673597335815429688e-02 1.076554358005523682e-01 -8.589125424623489380e-02
-2.829900197684764862e-02 1.110770925879478455e-01 -2.987610399723052979e-01
1.730085462331771851e-01 1.475138813257217407e-01 9.615261107683181763e-02
-4.374459013342857361e-02 -3.639527037739753723e-02 -1.039883121848106384e-01
-8.222000300884246826e-02 3.040140308439731598e-02 -1.416051387786865234e-01
1.040742099285125732e-01 2.538667805492877960e-02 4.019796103239059448e-02
-2.698884308338165283e-01 -9.080120921134948730e-02 -3.169643133878707886e-02
1.540672630071640015e-01 1.340684443712234497e-01 -9.150124341249465942e-02
-7.106635719537734985e-02 -9.195673465728759766e-02 -5.975946411490440369e-02
2.613285481929779053e-01 -1.548136174678802490e-01 -1.850119680166244507e-01
3.315953612327575684e-01 2.155852317810058594e-01 -1.746341288089752197e-01
-1.797189563512802124e-02 -4.911758750677108765e-02 -6.091658771038055420e-02
-3.045930759981274605e-03 1.053841859102249146e-01 4.740994889289140701e-03
1.978364214301109314e-02 2.678917255252599716e-03 -8.011376112699508667e-02
1.670560836791992188e-01 1.624315381050109863e-01 3.889256156980991364e-03
1.654784977436065674e-01 2.653798460960388184e-02 -2.636727178469300270e-03
1.387761998921632767e-02 -3.586417064070701599e-02 -4.103021323680877686e-02
4.804901313036680222e-03 2.788163721561431885e-02 7.205070555210113525e-02
-2.855400741100311279e-01 5.442174151539802551e-02 -5.082241073250770569e-02
2.204737998545169830e-02 9.427096694707870483e-02 7.357066869735717773e-02
1.405829787254333496e-01 -1.271670162677764893e-01 -1.807322143577039242e-03
3.127240762114524841e-02 -5.277866870164871216e-02 3.081715106964111328e-02
6.844252347946166992e-02 -4.760745912790298462e-02 2.162906527519226074e-02
-2.242653667926788330e-01 -1.586579680442810059e-01 -1.132989581674337387e-02
5.013838410377502441e-02 1.821383535861968994e-01 2.217402681708335876e-02
6.802990287542343140e-02 7.112486660480499268e-02 -1.119095645844936371e-02
2.119626551866531372e-01 -2.121087312698364258e-01 -3.260683640837669373e-02
1.431100964546203613e-01 3.538468107581138611e-02 -1.270966827869415283e-01
4.981159418821334839e-02 -1.030647382140159607e-01 -1.849474944174289703e-02
1.911811679601669312e-01 -1.880137920379638672e-01 -1.900609433650970459e-01
-2.546603092923760414e-03 1.969265043735504150e-01 1.705807149410247803e-01
-1.062497794628143311e-01 8.884414285421371460e-02 -9.759937971830368042e-02
1.350525170564651489e-01 -1.187063232064247131e-01 -4.741228744387626648e-02
7.351345568895339966e-02 -1.639933674596250057e-03 9.907294809818267822e-02
-2.050228118896484375e-01 -8.989766985177993774e-02 5.806827917695045471e-03
-6.011089310050010681e-02 -3.284789621829986572e-02 2.808867394924163818e-02
-4.944011196494102478e-02 1.090115904808044434e-01 -7.160802930593490601e-02
-8.355286717414855957e-02 2.023759782314300537e-01 -1.794275455176830292e-02
6.198624148964881897e-02 -2.583542838692665100e-03 -1.348346658051013947e-02
-3.285685181617736816e-01 -4.766223952174186707e-02 6.435120850801467896e-02
1.747144013643264771e-01 1.291396468877792358e-01 1.066909208893775940e-01
-8.653116226196289062e-02 -1.678466424345970154e-02 -1.309730559587478638e-01
5.637396499514579773e-02 3.381567448377609253e-02 1.059265583753585815e-01
1.033471524715423584e-01 -1.789182424545288086e-01 -3.297853097319602966e-02
1.472005099058151245e-01 -1.683361828327178955e-02 -1.433532387018203735e-01
3.249488025903701782e-02 -1.075277011841535568e-02 -7.150359451770782471e-02
-3.604443371295928955e-02 -9.255352616310119629e-02 2.788600698113441467e-02
