5.493164062500000000e-04 1.464843750000000000e-03 1.647949218750000000e-03 -0.000000000000000000e+00 -5.310058593750000000e-03 -1.318359375000000000e-02 -2.032470703125000000e-02 -2.343750000000000000e-02 -2.032470703125000000e-02 -1.318359375000000000e-02 -5.310058593750000000e-03 -0.000000000000000000e+00 1.647949218750000000e-03 1.464843750000000000e-03 5.493164062500000000e-04 -0.000000000000000000e+00
1.464843750000000000e-03 3.906250000000000000e-03 4.394531250000000000e-03 -0.000000000000000000e+00 -1.416015625000000000e-02 -3.515625000000000000e-02 -5.419921875000000000e-02 -6.250000000000000000e-02 -5.419921875000000000e-02 -3.515625000000000000e-02 -1.416015625000000000e-02 -0.000000000000000000e+00 4.394531250000000000e-03 3.906250000000000000e-03 1.464843750000000000e-03 -0.000000000000000000e+00
1.647949218750000000e-03 4.394531250000000000e-03 4.943847656250000000e-03 -0.000000000000000000e+00 -1.593017578125000000e-02 -3.955078125000000000e-02 -6.097412109375000000e-02 -7.031250000000000000e-02 -6.097412109375000000e-02 -3.955078125000000000e-02 -1.593017578125000000e-02 -0.000000000000000000e+00 4.943847656250000000e-03 4.394531250000000000e-03 1.647949218750000000e-03 -0.000000000000000000e+00
-0.000000000000000000e+00 -0.000000000000000000e+00 -0.000000000000000000e+00 0.000000000000000000e+00 0.000000000000000000e+00 0.000000000000000000e+00 0.000000000000000000e+00 0.000000000000000000e+00 0.000000000000000000e+00 0.000000000000000000e+00 0.000000000000000000e+00 0.000000000000000000e+00 -0.000000000000000000e+00 -0.000000000000000000e+00 -0.000000000000000000e+00 0.000000000000000000e+00
-5.310058593750000000e-03 -1.416015625000000000e-02 -1.593017578125000000e-02 0.000000000000000000e+00 5.133056640625000000e-02 1.274414062500000000e-01 1.964721679687500000e-01 2.265625000000000000e-01 1.964721679687500000e-01 1.274414062500000000e-01 5.133056640625000000e-02 0.000000000000000000e+00 -1.593017578125000000e-02 -1.416015625000000000e-02 -5.310058593750000000e-03 0.000000000000000000e+00
-1.318359375000000000e-02 -3.515625000000000000e-02 -3.955078125000000000e-02 0.000000000000000000e+00 1.274414062500000000e-01 3.164062500000000000e-01 4.877929687500000000e-01 5.625000000000000000e-01 4.877929687500000000e-01 3.164062500000000000e-01 1.274414062500000000e-01 0.000000000000000000e+00 -3.955078125000000000e-02 -3.515625000000000000e-02 -1.318359375000000000e-02 0.000000000000000000e+00
-2.032470703125000000e-02 -5.419921875000000000e-02 -6.097412109375000000e-02 0.000000000000000000e+00 1.964721679687500000e-01 4.877929687500000000e-01 7.520141601562500000e-01 8.671875000000000000e-01 7.520141601562500000e-01 4.877929687500000000e-01 1.964721679687500000e-01 0.000000000000000000e+00 -6.097412109375000000e-02 -5.419921875000000000e-02 -2.032470703125000000e-02 0.000000000000000000e+00
-2.343750000000000000e-02 -6.250000000000000000e-02 -7.031250000000000000e-02 0.000000000000000000e+00 2.265625000000000000e-01 5.625000000000000000e-01 8.671875000000000000e-01 1.000000000000000000e+00 8.671875000000000000e-01 5.625000000000000000e-01 2.265625000000000000e-01 0.000000000000000000e+00 -7.031250000000000000e-02 -6.250000000000000000e-02 -2.343750000000000000e-02 0.000000000000000000e+00
-2.032470703125000000e-02 -5.419921875000000000e-02 -6.097412109375000000e-02 0.000000000000000000e+00 1.964721679687500000e-01 4.877929687500000000e-01 7.520141601562500000e-01 8.671875000000000000e-01 7.520141601562500000e-01 4.877929687500000000e-01 1.964721679687500000e-01 0.000000000000000000e+00 -6.097412109375000000e-02 -5.419921875000000000e-02 -2.032470703125000000e-02 0.000000000000000000e+00
-1.318359375000000000e-02 -3.515625000000000000e-02 -3.955078125000000000e-02 0.000000000000000000e+00 1.274414062500000000e-01 3.164062500000000000e-01 4.877929687500000000e-01 5.625000000000000000e-01 4.877929687500000000e-01 3.164062500000000000e-01 1.274414062500000000e-01 0.000000000000000000e+00 -3.955078125000000000e-02 -3.515625000000000000e-02 -1.318359375000000000e-02 0.000000000000000000e+00
-5.310058593750000000e-03 -1.416015625000000000e-02 -1.593017578125000000e-02 0.000000000000000000e+00 5.133056640625000000e-02 1.274414062500000000e-01 1.964721679687500000e-01 2.265625000000000000e-01 1.964721679687500000e-01 1.274414062500000000e-01 5.133056640625000000e-02 0.000000000000000000e+00 -1.593017578125000000e-02 -1.416015625000000000e-02 -5.310058593750000000e-03 0.000000000000000000e+00
-0.000000000000000000e+00 -0.000000000000000000e+00 -0.000000000000000000e+00 0.000000000000000000e+00 0.000000000000000000e+00 0.000000000000000000e+00 0.000000000000000000e+00 0.000000000000000000e+00 0.000000000000000000e+00 0.000000000000000000e+00 0.000000000000000000e+00 0.000000000000000000e+00 -0.000000000000000000e+00 -0.000000000000000000e+00 -0.000000000000000000e+00 0.000000000000000000e+00
1.647949218750000000e-03 4.394531250000000000e-03 4.943847656250000000e-03 -0.000000000000000000e+00 -1.593017578125000000e-02 -3.955078125000000000e-02 -6.097412109375000000e-02 -7.031250000000000000e-02 -6.097412109375000000e-02 -3.955078125000000000e-02 -1.593017578125000000e-02 -0.000000000000000000e+00 4.943847656250000000e-03 4.394531250000000000e-03 1.647949218750000000e-03 -0.000000000000000000e+00
1.464843750000000000e-03 3.906250000000000000e-03 4.394531250000000000e-03 -0.000000000000000000e+00 -1.416015625000000000e-02 -3.515625000000000000e-02 -5.419921875000000000e-02 -6.250000000000000000e-02 -5.419921875000000000e-02 -3.515625000000000000e-02 -1.416015625000000000e-02 -0.000000000000000000e+00 4.394531250000000000e-03 3.906250000000000000e-03 1.464843750000000000e-03 -0.000000000000000000e+00
5.493164062500000000e-04 1.464843750000000000e-03 1.647949218750000000e-03 -0.000000000000000000e+00 -5.310058593750000000e-03 -1.318359375000000000e-02 -2.032470703125000000e-02 -2.343750000000000000e-02 -2.032470703125000000e-02 -1.318359375000000000e-02 -5.310058593750000000e-03 -0.000000000000000000e+00 1.647949218750000000e-03 1.464843750000000000e-03 5.493164062500000000e-04 -0.000000000000000000e+00
-0.000000000000000000e+00 -0.000000000000000000e+00 -0.000000000000000000e+00 0.000000000000000000e+00 0.000000000000000000e+00 0.000000000000000000e+00 0.000000000000000000e+00 0.000000000000000000e+00 0.000000000000000000e+00 0.000000000000000000e+00 0.000000000000000000e+00 0.000000000000000000e+00 -0.000000000000000000e+00 -0.000000000000000000e+00 -0.000000000000000000e+00 0.000000000000000000e+00
